gru/gru_cell/kernel:0
(1, 240)
[[-0.14618292 -0.19843441 -0.13494352 -0.5699191  -0.43078193 -0.25215364
  -0.30689296 -0.3656407  -0.17032441 -0.1894353  -0.416698   -0.2667921
  -0.24337107 -0.18423566 -0.32936025 -0.01661971 -0.3229252   0.01590463
  -0.3823298  -0.46562344 -0.29727954 -0.17605376 -0.5104952  -0.41188088
  -0.2791094  -0.22437839 -0.22835699 -0.2405607   0.08381206 -0.47045332
  -0.2008062  -0.43599063 -0.3674036  -0.28300324 -0.41753748 -0.24694712
  -0.37618142 -0.19835138 -0.28886902 -0.32318234 -0.43902472 -0.29754966
  -0.17236495 -0.26339066 -0.42805502 -0.40071452 -0.25122294 -0.43073958
   0.06352589 -0.14640483 -0.4289584  -0.20843866 -0.42436165 -0.17395689
  -0.13757786 -0.29415646 -0.56663924 -0.21271433 -0.39703372 -0.18091865
  -0.5294348  -0.3877441  -0.08643594 -0.22455727 -0.29232123 -0.38209456
  -0.3025257  -0.4172063  -0.4386867  -0.4363259  -0.3522342  -0.13813737
  -0.37582925 -0.48710266 -0.14891338 -0.22236189 -0.09094478 -0.18232262
  -0.36501554 -0.3875587   0.01501094  0.09919216 -0.08777166 -0.00227018
   0.08708179  0.08776699 -0.05583837 -0.12339532  0.06003312 -0.0189707
   0.07633957 -0.13895836 -0.01806799 -0.01005291 -0.1628479   0.13199097
  -0.09498896  0.14551602 -0.11754356 -0.0271647  -0.10031558  0.02774312
   0.06195711  0.1071023  -0.12829107 -0.05870001  0.00697028 -0.07427631
  -0.10095019  0.08791117  0.0852158   0.03172553  0.04567642 -0.06528071
   0.08634827 -0.04678575 -0.01761875 -0.097314    0.09793759 -0.10371957
  -0.09648161  0.1578276  -0.09818746 -0.02587584 -0.11245827 -0.08133054
  -0.12142398 -0.04303882 -0.15535432 -0.11732788  0.02636709 -0.04500225
  -0.15929998  0.03435026 -0.05490566 -0.14842795  0.09189253  0.11513045
   0.00220964  0.00167138  0.03956838 -0.039773    0.02134445  0.04014064
  -0.15201749 -0.09774604 -0.09681701 -0.07629763 -0.1129295   0.00977825
   0.12062814 -0.1490141   0.01393065 -0.09159287  0.03462463 -0.00330044
   0.02424436  0.0792699  -0.0517897  -0.13219467  0.01046632 -0.10319485
   0.05143047 -0.11108129 -0.14140671 -0.08437547  0.04020774  0.0961874
  -0.0645353   0.0641372  -0.13031712 -0.11762958 -0.05349842  0.09261432
   0.03242538 -0.00527638  0.13331589  0.1396367   0.10776687 -0.10000508
  -0.09408437 -0.12215921 -0.05459682 -0.07393263  0.03951168 -0.12126429
   0.09110924  0.11823635  0.13107985  0.09606283 -0.05981014  0.08263836
   0.11063651 -0.10055372 -0.11894809  0.12917012  0.03852256  0.05066405
   0.06658226  0.10958548  0.14089304 -0.05672077  0.08946446  0.07913281
   0.0536035   0.09348907 -0.12032873  0.14650702  0.0095723   0.14353484
   0.11091381  0.09109795 -0.07497968 -0.02474614  0.1398299  -0.11180919
  -0.06775051 -0.1479801   0.15697803 -0.02446526 -0.09319966  0.01708087
   0.0133871  -0.10637166 -0.08159638 -0.02217269 -0.13115695  0.04969835
  -0.08675475  0.09234069  0.07172726  0.04173251  0.03388486 -0.1085201
  -0.10085615  0.08037768 -0.07151841  0.12376765  0.03466215 -0.1257188 ]]
gru/gru_cell/recurrent_kernel:0
(80, 240)
[[-0.04052475  0.13369523 -0.00612164 ...  0.08379877  0.03579769
   0.07246758]
 [ 0.11475351  0.14109477  0.2259177  ... -0.02620254  0.02549893
   0.00893907]
 [ 0.0203265  -0.02231837  0.10400199 ...  0.05356804 -0.0922954
  -0.03511121]
 ...
 [ 0.09345821 -0.14751302 -0.04536309 ... -0.02204007 -0.20357034
   0.10057785]
 [-0.07566706 -0.16413036 -0.14022249 ...  0.03029627  0.01952817
   0.10541416]
 [ 0.05541863  0.17971025  0.1983756  ...  0.18190676 -0.10136887
  -0.06479882]]
gru/gru_cell/bias:0
(2, 240)
[[-3.89679186e-02 -2.89367199e-01 -2.73106813e-01 -5.25844932e-01
  -3.33210498e-01 -3.96849930e-01 -4.08089012e-01 -3.69705439e-01
  -2.80148238e-01 -1.57367870e-01 -3.77800554e-01 -3.40479761e-01
  -3.99699599e-01 -3.23364735e-01 -3.34292203e-01 -2.14324400e-01
  -3.76611322e-01 -1.06690899e-01 -5.61667383e-01 -3.79140466e-01
  -4.11702335e-01 -3.13093960e-01 -4.23421383e-01 -3.12153101e-01
  -3.03542405e-01 -3.05421472e-01 -3.97565842e-01 -4.22942311e-01
  -9.53776017e-02 -4.10980999e-01 -3.21923733e-01 -3.57040972e-01
  -4.05134827e-01 -4.29686815e-01 -4.10624117e-01 -3.48350197e-01
  -2.77456552e-01 -3.61491859e-01 -3.07519555e-01 -4.01870847e-01
  -3.64131838e-01 -2.75545746e-01 -3.67874175e-01 -3.41009706e-01
  -4.64016914e-01 -4.13513243e-01 -3.68057847e-01 -3.37143868e-01
   5.10088839e-02 -2.90216208e-01 -3.40939224e-01 -3.91385943e-01
  -3.84464473e-01 -1.20054938e-01 -2.94861883e-01 -3.84009659e-01
  -4.76244181e-01 -3.83564532e-01 -3.55721444e-01 -1.37244850e-01
  -4.67386216e-01 -3.25695962e-01 -7.72277787e-02 -3.58917892e-01
  -4.00593281e-01 -3.61536711e-01 -3.99570614e-01 -3.32998902e-01
  -4.02653396e-01 -3.89057457e-01 -2.65346050e-01 -2.80194521e-01
  -3.70188326e-01 -3.73544902e-01 -2.72685021e-01 -4.31294233e-01
   1.80773307e-02 -3.50166470e-01 -3.12565058e-01 -3.11055034e-01
   5.79010928e-03 -2.76867812e-03 -4.35048155e-03  4.03482374e-03
  -5.42781223e-03 -9.60489176e-03 -1.60663798e-02 -6.11784169e-03
   1.87903258e-03 -1.01686921e-02  1.06924195e-02  5.20584267e-03
  -1.50366733e-02 -3.99951776e-03 -1.76976528e-03  3.64337140e-03
   1.32823223e-02 -7.84547161e-03  6.98588649e-03 -1.18951418e-03
  -2.36778297e-02  2.73640919e-03 -1.23891691e-02 -1.38979815e-02
  -8.01445637e-03 -1.17447181e-02 -2.26340648e-02  9.47411824e-03
   4.69200453e-03 -1.92457587e-02 -1.91068295e-02  2.91558020e-02
   1.17670288e-02 -1.36104468e-02 -1.21040810e-02 -1.94628444e-03
  -6.69270114e-04 -1.00278249e-02 -2.90810713e-03 -1.31556916e-03
  -2.82134535e-03  9.31013096e-03 -1.20258899e-02 -1.56501692e-03
  -3.73635953e-03 -6.13161537e-04 -1.38242412e-02  3.56086232e-02
  -1.03514995e-02  3.68260406e-03 -2.93150172e-03  8.90302379e-03
  -6.04412006e-03 -1.10699395e-02 -8.83213244e-03  3.90769076e-03
  -4.87511000e-03  1.16737736e-02  4.30282671e-03 -1.27004366e-02
  -1.56118525e-02 -3.84709006e-03  7.60814175e-04 -2.93799513e-03
   1.56993661e-02 -1.00188283e-02  1.10491756e-02 -7.98462250e-04
  -5.82373654e-03  9.70033742e-03 -4.30967007e-03 -1.08521897e-03
  -2.58994382e-03 -1.46304723e-02 -2.48754211e-03  1.21852681e-02
  -5.09558851e-03  1.26557471e-02 -1.10723376e-02 -4.16995678e-03
  -6.31622132e-03  1.01529295e-02 -6.32100319e-03  1.83468238e-02
   1.57762151e-02  1.34379265e-03 -5.34227444e-03 -1.30038457e-02
   2.49696453e-03 -9.43152513e-03  2.70167664e-02  9.85151809e-03
   9.49860644e-03 -1.63825788e-02 -5.30057680e-03 -6.31618430e-04
  -2.43894998e-02 -1.36600090e-02 -1.93873923e-02  6.92959083e-03
   6.00763503e-03  9.69181862e-03  7.90471490e-03  7.41842017e-03
   5.51754981e-03  1.58280209e-02 -9.68577247e-03 -1.83540639e-02
  -1.43430801e-02 -1.33790877e-02  3.04448465e-03 -2.23482940e-02
  -1.46797020e-02  1.61363110e-02  1.82484370e-02 -2.00007744e-02
  -2.07932969e-03 -1.11074569e-02 -9.22824536e-03 -1.24502266e-02
  -1.40704541e-02  9.18262638e-03 -3.80843645e-03 -9.30936541e-03
  -1.02169476e-02 -1.76520851e-02  1.10551668e-02 -2.27204468e-02
  -1.12260282e-02 -1.05251689e-02 -2.05770209e-02 -1.42273046e-02
   1.42353456e-02 -9.69392993e-03 -9.42112226e-03  1.85125731e-02
   7.53061380e-03  2.13146936e-02 -1.45730097e-02 -8.88932589e-03
   1.50600355e-02  2.34154053e-03 -7.49145111e-04  1.33204246e-02
   1.60756521e-02 -6.43927790e-03  2.07209755e-02 -3.48683679e-03
   5.26113622e-03 -1.74283665e-02 -1.02367336e-02 -3.94905312e-03
   5.51411009e-04  1.20010329e-02  7.92384520e-03 -9.34972335e-03
   1.13857184e-02 -1.45546384e-02  4.57417360e-03  9.94561333e-03]
 [-3.89679186e-02 -2.89367199e-01 -2.73106813e-01 -5.25844932e-01
  -3.33210498e-01 -3.96849930e-01 -4.08089012e-01 -3.69705439e-01
  -2.80148238e-01 -1.57367870e-01 -3.77800554e-01 -3.40479761e-01
  -3.99699599e-01 -3.23364735e-01 -3.34292203e-01 -2.14324400e-01
  -3.76611322e-01 -1.06690899e-01 -5.61667383e-01 -3.79140466e-01
  -4.11702335e-01 -3.13093960e-01 -4.23421383e-01 -3.12153101e-01
  -3.03542405e-01 -3.05421472e-01 -3.97565842e-01 -4.22942311e-01
  -9.53776017e-02 -4.10980999e-01 -3.21923733e-01 -3.57040972e-01
  -4.05134827e-01 -4.29686815e-01 -4.10624117e-01 -3.48350197e-01
  -2.77456552e-01 -3.61491859e-01 -3.07519555e-01 -4.01870847e-01
  -3.64131838e-01 -2.75545746e-01 -3.67874175e-01 -3.41009706e-01
  -4.64016914e-01 -4.13513243e-01 -3.68057847e-01 -3.37143868e-01
   5.10088839e-02 -2.90216208e-01 -3.40939224e-01 -3.91385943e-01
  -3.84464473e-01 -1.20054938e-01 -2.94861883e-01 -3.84009659e-01
  -4.76244181e-01 -3.83564532e-01 -3.55721444e-01 -1.37244850e-01
  -4.67386216e-01 -3.25695962e-01 -7.72277787e-02 -3.58917892e-01
  -4.00593281e-01 -3.61536711e-01 -3.99570614e-01 -3.32998902e-01
  -4.02653396e-01 -3.89057457e-01 -2.65346050e-01 -2.80194521e-01
  -3.70188326e-01 -3.73544902e-01 -2.72685021e-01 -4.31294233e-01
   1.80773307e-02 -3.50166470e-01 -3.12565058e-01 -3.11055034e-01
   5.79010928e-03 -2.76867812e-03 -4.35048155e-03  4.03482374e-03
  -5.42781223e-03 -9.60489176e-03 -1.60663798e-02 -6.11784169e-03
   1.87903258e-03 -1.01686921e-02  1.06924195e-02  5.20584267e-03
  -1.50366733e-02 -3.99951776e-03 -1.76976528e-03  3.64337140e-03
   1.32823223e-02 -7.84547161e-03  6.98588649e-03 -1.18951418e-03
  -2.36778297e-02  2.73640919e-03 -1.23891691e-02 -1.38979815e-02
  -8.01445637e-03 -1.17447181e-02 -2.26340648e-02  9.47411824e-03
   4.69200453e-03 -1.92457587e-02 -1.91068295e-02  2.91558020e-02
   1.17670288e-02 -1.36104468e-02 -1.21040810e-02 -1.94628444e-03
  -6.69270114e-04 -1.00278249e-02 -2.90810713e-03 -1.31556916e-03
  -2.82134535e-03  9.31013096e-03 -1.20258899e-02 -1.56501692e-03
  -3.73635953e-03 -6.13161537e-04 -1.38242412e-02  3.56086232e-02
  -1.03514995e-02  3.68260406e-03 -2.93150172e-03  8.90302379e-03
  -6.04412006e-03 -1.10699395e-02 -8.83213244e-03  3.90769076e-03
  -4.87511000e-03  1.16737736e-02  4.30282671e-03 -1.27004366e-02
  -1.56118525e-02 -3.84709006e-03  7.60814175e-04 -2.93799513e-03
   1.56993661e-02 -1.00188283e-02  1.10491756e-02 -7.98462250e-04
  -5.82373654e-03  9.70033742e-03 -4.30967007e-03 -1.08521897e-03
  -2.58994382e-03 -1.46304723e-02 -2.48754211e-03  1.21852681e-02
  -5.09558851e-03  1.26557471e-02 -1.10723376e-02 -4.16995678e-03
  -6.23821840e-03  9.83256847e-03 -6.39988668e-03  1.76279936e-02
   1.52955027e-02  8.51533609e-04 -5.55799389e-03 -1.35915773e-02
   2.23175366e-03 -9.46838688e-03  2.65179053e-02  1.03613660e-02
   9.43436939e-03 -1.62421837e-02 -5.46794664e-03 -1.06632779e-03
  -2.49011759e-02 -1.34991640e-02 -2.03216001e-02  6.74609328e-03
   6.24530390e-03  9.34323203e-03  7.97726493e-03  6.62955875e-03
   5.07749058e-03  1.59038305e-02 -8.97335820e-03 -1.85980983e-02
  -1.42645976e-02 -1.20526534e-02  2.66995328e-03 -2.21750606e-02
  -1.43265054e-02  1.62771307e-02  1.74157862e-02 -1.98736154e-02
  -2.24945601e-03 -1.15265939e-02 -8.86122230e-03 -1.29522420e-02
  -1.43297510e-02  9.02048592e-03 -4.07043705e-03 -9.38455667e-03
  -1.08539173e-02 -1.78954732e-02  1.12216529e-02 -2.34711114e-02
  -1.09639419e-02 -1.09988544e-02 -2.01651528e-02 -1.41391810e-02
   1.48152383e-02 -9.74810496e-03 -9.47370287e-03  1.90791842e-02
   6.53630961e-03  2.03911755e-02 -1.44358082e-02 -8.80704820e-03
   1.38751278e-02  2.11266172e-03 -9.15987592e-04  1.25666587e-02
   1.65560097e-02 -6.31456589e-03  2.09580828e-02 -3.92178586e-03
   5.48672816e-03 -1.71267036e-02 -9.85876098e-03 -4.44580149e-03
   5.57985040e-04  1.21557992e-02  7.55136693e-03 -9.15477984e-03
   1.13595631e-02 -1.42634800e-02  4.63071559e-03  1.03478571e-02]]
gru_1/gru_cell_1/kernel:0
(80, 300)
[[ 0.01680315 -0.00920752  0.03588257 ... -0.03336628 -0.04423006
   0.09067816]
 [-0.00600002  0.02331492  0.09354319 ... -0.06637658 -0.06664193
  -0.07459465]
 [ 0.05255837  0.00235385 -0.0160166  ...  0.02276932  0.02616576
  -0.05179844]
 ...
 [-0.10654943 -0.11746544 -0.02978204 ...  0.06758084 -0.12583725
   0.10049826]
 [-0.00177227  0.13942257  0.0594198  ...  0.04841929  0.12102699
  -0.11037759]
 [ 0.1164789   0.03163554 -0.07815015 ...  0.0260846   0.1031451
  -0.08230542]]
gru_1/gru_cell_1/recurrent_kernel:0
(100, 300)
[[ 0.06386639 -0.03873346  0.01259481 ...  0.06946379 -0.01733585
  -0.10122245]
 [-0.00213216  0.07036269 -0.12027203 ... -0.03159792  0.01322783
   0.02670214]
 [ 0.03017601  0.00706742 -0.00319715 ... -0.0102514  -0.04891485
  -0.01286228]
 ...
 [-0.0700365   0.10859906  0.05816905 ...  0.00846933  0.06246164
   0.12459841]
 [-0.06472384  0.02770863 -0.02912805 ... -0.05961983  0.00987964
  -0.0262569 ]
 [-0.01347664 -0.05170368 -0.00512473 ... -0.0596284  -0.04750112
  -0.07650673]]
gru_1/gru_cell_1/bias:0
(2, 300)
[[-3.61361131e-02  5.29370122e-02 -7.21178800e-02 -8.64302590e-02
  -1.29213393e-01 -1.29528403e-01 -1.07688785e-01 -7.36470520e-02
  -2.06416011e-01 -1.90454856e-01  1.46349436e-02 -1.38032347e-01
  -2.10332852e-02 -6.13088980e-02 -9.17699095e-03 -1.84154868e-01
  -3.13851461e-02 -1.68595433e-01 -1.22635245e-01 -1.82725951e-01
  -1.65283978e-01  8.26505423e-02 -7.86029443e-04  3.61242630e-02
   1.96806267e-02 -1.50226325e-01 -1.01572976e-01 -9.45900455e-02
  -1.11149482e-01 -5.32362424e-03  5.49597554e-02 -1.32483393e-01
  -5.77809624e-02 -6.21488281e-02  7.46820588e-03 -2.40194350e-02
  -6.61419034e-02 -2.09206641e-02 -1.61670133e-01 -6.18153811e-02
  -6.77644461e-02 -7.04138447e-03  5.59254810e-02 -5.10156564e-02
  -6.90440387e-02  8.71832389e-03 -6.36758581e-02 -1.26167729e-01
  -6.58368394e-02 -8.63860697e-02 -8.86004139e-03 -1.02250464e-01
  -2.53951102e-02 -1.57056917e-02 -1.19796544e-01 -1.38714001e-01
  -1.54768527e-01 -5.06771682e-03 -9.61239189e-02 -6.99632019e-02
  -6.80436892e-03 -9.14297849e-02 -1.39873654e-01 -1.46392118e-02
  -6.99162781e-02 -1.22170426e-01 -6.95031695e-03 -2.22216621e-02
  -1.39635697e-01 -7.19355568e-02 -9.59831476e-02 -1.15602851e-01
  -1.07512824e-01 -4.32380894e-03 -1.12395108e-01 -9.41784829e-02
  -1.09741479e-01 -1.14662372e-01 -5.90612963e-02 -3.74851413e-02
  -9.26139355e-02 -3.11327935e-03 -1.36220697e-02 -1.58320203e-01
   1.40949683e-02 -9.84425768e-02 -1.05874605e-01  1.25395916e-02
  -1.03001945e-01 -8.13264027e-02 -1.81930158e-02 -8.24849382e-02
   4.18595113e-02 -2.35084832e-01 -1.05637237e-02  2.08139271e-02
  -2.25637369e-02 -1.48849726e-01 -1.94780409e-01 -1.59789309e-01
  -4.71380190e-04  7.80592114e-03 -1.44578274e-02  3.07996757e-04
   3.68055492e-03  2.70348508e-03 -2.13816855e-03 -1.54239023e-02
  -4.55171475e-03 -1.83706284e-02  8.29399098e-03 -5.28735947e-03
  -2.06332915e-02 -2.84015816e-02 -2.40301546e-02 -6.20028377e-03
  -1.27997203e-02 -1.78809632e-02 -1.93641223e-02 -6.84567448e-03
  -3.62502853e-03  3.02627776e-03 -3.03713093e-03  1.29597606e-02
   2.95484550e-02 -2.59009283e-03 -1.28068691e-02 -2.07950696e-02
  -1.03572682e-02 -7.26475031e-04 -1.11687211e-02 -2.35086083e-02
   3.37709524e-02 -3.74544784e-03  1.66980972e-04 -1.47703374e-02
  -2.28258735e-03 -2.39196252e-02 -1.61296260e-02 -1.49847539e-02
   4.07713559e-03 -1.26918005e-02  3.01518873e-03  3.31108567e-05
  -2.61379797e-02 -2.40209773e-02  5.16998488e-03 -3.95080191e-04
  -1.44647788e-02  8.04464275e-04 -1.41398693e-02 -1.45733962e-02
  -7.10175885e-03  1.88936101e-04  4.48689563e-03 -1.37695363e-02
  -1.21231815e-02 -1.08975759e-02 -1.61715294e-03  3.06580425e-03
  -2.04950254e-02  9.09837056e-03 -6.36288757e-03  2.94179376e-03
   2.60521267e-02 -1.88108198e-02 -1.00290282e-02 -2.73624379e-02
  -1.07389893e-02 -1.55922351e-02 -1.15406299e-02  4.34296764e-03
  -2.75373403e-02  6.49408577e-03 -8.05766229e-03 -2.13867403e-03
  -1.05907153e-02 -1.44133782e-02 -1.56205962e-03  4.84068543e-02
   2.14788178e-03 -1.76410116e-02  1.13113867e-02 -6.20486122e-03
   1.79930252e-03 -2.94590462e-03 -6.31813798e-03 -1.72808859e-02
   3.49003426e-03  1.03037222e-03  9.87747032e-03 -1.63790898e-03
   1.09345419e-02 -1.49768812e-03 -4.18905132e-02 -6.54583843e-03
   2.04836205e-03  5.33922482e-03 -2.07514241e-02 -4.44158958e-03
  -1.69929340e-02  1.07945688e-02  3.26579157e-03  6.10196264e-03
   1.71920769e-02  1.24560734e-02  8.41098465e-03 -7.88476318e-03
   2.39810422e-02  2.31998581e-02 -1.32095302e-02  5.85651305e-03
  -1.21881170e-02 -9.16264951e-03  2.56476607e-02 -6.10871520e-03
  -1.37208514e-02  1.53413098e-02 -9.15133581e-03  1.06513128e-02
  -1.33426171e-02 -9.22251027e-03 -1.16989121e-03 -9.12756380e-03
   1.76567212e-02 -1.24697741e-02  1.31362136e-02 -4.21069097e-03
  -5.90158068e-03 -1.17449025e-02 -8.15231819e-03  1.40389064e-02
  -1.74163096e-02 -9.56335198e-03 -8.64057522e-03  1.07496269e-02
  -1.23053947e-02  1.01923468e-02 -1.27706751e-02  8.57176166e-03
  -1.28649240e-02  7.93732144e-03 -8.88310466e-03 -9.00860969e-03
   1.33982245e-02  1.27261672e-02  1.16050355e-02 -9.46536940e-03
  -9.21183266e-03 -8.15087464e-03 -1.30315665e-02 -8.55711382e-03
   9.96583793e-03  8.02423339e-03 -1.55320782e-02  1.46595426e-02
   1.26014771e-02  9.93466191e-03  1.28764305e-02  6.63064746e-03
  -8.71922448e-03  1.25975525e-02  1.01681361e-02 -1.15453880e-02
  -1.50183169e-02 -9.20614321e-03  1.68830473e-02  1.16994800e-02
  -9.34740901e-03  1.21028274e-02  1.01793054e-02  1.85413528e-02
   1.18718250e-02  1.50411902e-02 -9.18769930e-03 -6.02882355e-03
   1.54960155e-02 -1.01279896e-02 -1.40044326e-02 -1.78827439e-02
   1.59094315e-02 -1.07375793e-02 -1.06027806e-02 -1.52132530e-02
  -8.12517572e-03 -1.31752184e-02 -8.72008502e-03 -1.60909351e-02
   1.07048731e-02 -1.57029964e-02 -2.00864356e-02 -1.51003227e-02
   1.63257401e-02 -1.19758472e-02 -1.47172920e-02 -9.42161679e-03
  -7.26108626e-03  3.25118238e-03 -8.15627165e-03 -1.01949088e-02]
 [-3.61361131e-02  5.29370122e-02 -7.21178800e-02 -8.64302590e-02
  -1.29213393e-01 -1.29528403e-01 -1.07688785e-01 -7.36470520e-02
  -2.06416011e-01 -1.90454856e-01  1.46349436e-02 -1.38032347e-01
  -2.10332852e-02 -6.13088980e-02 -9.17699095e-03 -1.84154868e-01
  -3.13851461e-02 -1.68595433e-01 -1.22635245e-01 -1.82725951e-01
  -1.65283978e-01  8.26505423e-02 -7.86029443e-04  3.61242630e-02
   1.96806267e-02 -1.50226325e-01 -1.01572976e-01 -9.45900455e-02
  -1.11149482e-01 -5.32362424e-03  5.49597554e-02 -1.32483393e-01
  -5.77809624e-02 -6.21488281e-02  7.46820588e-03 -2.40194350e-02
  -6.61419034e-02 -2.09206641e-02 -1.61670133e-01 -6.18153811e-02
  -6.77644461e-02 -7.04138447e-03  5.59254810e-02 -5.10156564e-02
  -6.90440387e-02  8.71832389e-03 -6.36758581e-02 -1.26167729e-01
  -6.58368394e-02 -8.63860697e-02 -8.86004139e-03 -1.02250464e-01
  -2.53951102e-02 -1.57056917e-02 -1.19796544e-01 -1.38714001e-01
  -1.54768527e-01 -5.06771682e-03 -9.61239189e-02 -6.99632019e-02
  -6.80436892e-03 -9.14297849e-02 -1.39873654e-01 -1.46392118e-02
  -6.99162781e-02 -1.22170426e-01 -6.95031695e-03 -2.22216621e-02
  -1.39635697e-01 -7.19355568e-02 -9.59831476e-02 -1.15602851e-01
  -1.07512824e-01 -4.32380894e-03 -1.12395108e-01 -9.41784829e-02
  -1.09741479e-01 -1.14662372e-01 -5.90612963e-02 -3.74851413e-02
  -9.26139355e-02 -3.11327935e-03 -1.36220697e-02 -1.58320203e-01
   1.40949683e-02 -9.84425768e-02 -1.05874605e-01  1.25395916e-02
  -1.03001945e-01 -8.13264027e-02 -1.81930158e-02 -8.24849382e-02
   4.18595113e-02 -2.35084832e-01 -1.05637237e-02  2.08139271e-02
  -2.25637369e-02 -1.48849726e-01 -1.94780409e-01 -1.59789309e-01
  -4.71380190e-04  7.80592114e-03 -1.44578274e-02  3.07996757e-04
   3.68055492e-03  2.70348508e-03 -2.13816855e-03 -1.54239023e-02
  -4.55171475e-03 -1.83706284e-02  8.29399098e-03 -5.28735947e-03
  -2.06332915e-02 -2.84015816e-02 -2.40301546e-02 -6.20028377e-03
  -1.27997203e-02 -1.78809632e-02 -1.93641223e-02 -6.84567448e-03
  -3.62502853e-03  3.02627776e-03 -3.03713093e-03  1.29597606e-02
   2.95484550e-02 -2.59009283e-03 -1.28068691e-02 -2.07950696e-02
  -1.03572682e-02 -7.26475031e-04 -1.11687211e-02 -2.35086083e-02
   3.37709524e-02 -3.74544784e-03  1.66980972e-04 -1.47703374e-02
  -2.28258735e-03 -2.39196252e-02 -1.61296260e-02 -1.49847539e-02
   4.07713559e-03 -1.26918005e-02  3.01518873e-03  3.31108567e-05
  -2.61379797e-02 -2.40209773e-02  5.16998488e-03 -3.95080191e-04
  -1.44647788e-02  8.04464275e-04 -1.41398693e-02 -1.45733962e-02
  -7.10175885e-03  1.88936101e-04  4.48689563e-03 -1.37695363e-02
  -1.21231815e-02 -1.08975759e-02 -1.61715294e-03  3.06580425e-03
  -2.04950254e-02  9.09837056e-03 -6.36288757e-03  2.94179376e-03
   2.60521267e-02 -1.88108198e-02 -1.00290282e-02 -2.73624379e-02
  -1.07389893e-02 -1.55922351e-02 -1.15406299e-02  4.34296764e-03
  -2.75373403e-02  6.49408577e-03 -8.05766229e-03 -2.13867403e-03
  -1.05907153e-02 -1.44133782e-02 -1.56205962e-03  4.84068543e-02
   2.14788178e-03 -1.76410116e-02  1.13113867e-02 -6.20486122e-03
   1.79930252e-03 -2.94590462e-03 -6.31813798e-03 -1.72808859e-02
   3.49003426e-03  1.03037222e-03  9.87747032e-03 -1.63790898e-03
   1.09345419e-02 -1.49768812e-03 -4.18905132e-02 -6.54583843e-03
   2.04836205e-03  5.33922482e-03 -2.07514241e-02 -4.44158958e-03
  -1.65503062e-02  1.06769167e-02  3.44713149e-03  5.66580845e-03
   1.70646552e-02  1.21810809e-02  8.53599980e-03 -7.93925207e-03
   2.33670641e-02  2.29020584e-02 -1.31010721e-02  5.59734926e-03
  -1.21151712e-02 -8.83358531e-03  2.49288063e-02 -6.20372966e-03
  -1.37871075e-02  1.48238186e-02 -9.02323425e-03  1.06604751e-02
  -1.30493138e-02 -9.12262499e-03 -1.12316653e-03 -9.39140189e-03
   1.77102145e-02 -1.22994678e-02  1.31126316e-02 -4.66518058e-03
  -5.74834924e-03 -1.16742551e-02 -8.06639809e-03  1.40921120e-02
  -1.78613402e-02 -9.64132231e-03 -8.67890473e-03  1.07551804e-02
  -1.23215476e-02  1.01835094e-02 -1.24489581e-02  8.70637503e-03
  -1.30404774e-02  7.89604615e-03 -8.87083635e-03 -8.88169371e-03
   1.33174248e-02  1.25922356e-02  1.16766235e-02 -9.53323767e-03
  -9.25842207e-03 -8.16420279e-03 -1.28132403e-02 -8.41920078e-03
   1.00482348e-02  7.60966539e-03 -1.55768199e-02  1.47510879e-02
   1.25603313e-02  9.82270390e-03  1.16459774e-02  6.90308958e-03
  -8.45471397e-03  1.26766730e-02  1.00919325e-02 -1.14066554e-02
  -1.51882311e-02 -9.09058377e-03  1.66068021e-02  1.13057131e-02
  -9.23434366e-03  1.20440237e-02  1.07338307e-02  1.84765179e-02
   1.17017990e-02  1.50902448e-02 -9.01457295e-03 -5.97613957e-03
   1.54580204e-02 -9.88605339e-03 -1.34199504e-02 -1.86867584e-02
   1.56790186e-02 -1.05853388e-02 -1.06065730e-02 -1.50941918e-02
  -8.08019098e-03 -1.30185271e-02 -8.73585604e-03 -1.55342948e-02
   1.09749129e-02 -1.55061735e-02 -2.00601742e-02 -1.49931191e-02
   1.63359381e-02 -1.16680954e-02 -1.40600652e-02 -9.10712872e-03
  -7.47465529e-03  3.75398039e-03 -8.12350865e-03 -1.03314407e-02]]
dense_11/kernel:0
(100, 1)
[[-0.05087862]
 [ 0.12504137]
 [ 0.08695177]
 [ 0.23085912]
 [ 0.06357575]
 [ 0.0742926 ]
 [ 0.1848852 ]
 [-0.195598  ]
 [ 0.06119352]
 [ 0.05209709]
 [-0.02247406]
 [ 0.09945308]
 [-0.19732702]
 [-0.13695149]
 [ 0.04084706]
 [-0.2177029 ]
 [-0.10171476]
 [ 0.08176876]
 [-0.13981575]
 [ 0.06080494]
 [-0.09542938]
 [-0.1997151 ]
 [ 0.00332253]
 [-0.12566273]
 [ 0.05337992]
 [-0.13077894]
 [ 0.1473669 ]
 [-0.18242593]
 [-0.2122775 ]
 [-0.0961271 ]
 [-0.16270763]
 [ 0.08714982]
 [-0.06520105]
 [-0.1450752 ]
 [-0.11843441]
 [ 0.12991545]
 [-0.13479686]
 [ 0.22931136]
 [-0.0888088 ]
 [ 0.22825724]
 [-0.11661792]
 [ 0.09679797]
 [-0.17594959]
 [-0.1458743 ]
 [ 0.03465004]
 [ 0.09369507]
 [ 0.1301184 ]
 [-0.22782744]
 [-0.12614885]
 [-0.17986383]
 [-0.10887159]
 [-0.16499111]
 [ 0.18174733]
 [ 0.03978599]
 [-0.1743888 ]
 [ 0.26820222]
 [ 0.07207672]
 [ 0.09699469]
 [ 0.05603527]
 [ 0.12455697]
 [-0.13483691]
 [ 0.054441  ]
 [ 0.17164303]
 [-0.04032119]
 [-0.06201634]
 [-0.17980745]
 [ 0.05493772]
 [ 0.18440644]
 [-0.13305037]
 [ 0.0730781 ]
 [ 0.18283577]
 [ 0.04174688]
 [ 0.123785  ]
 [ 0.14082602]
 [-0.07896373]
 [-0.14514638]
 [ 0.05919551]
 [-0.1357561 ]
 [-0.0137869 ]
 [-0.06232493]
 [ 0.10161392]
 [-0.14926508]
 [-0.12602629]
 [-0.07780505]
 [-0.12031159]
 [-0.1552659 ]
 [-0.18209724]
 [-0.14214335]
 [ 0.25567633]
 [-0.08769462]
 [-0.1013162 ]
 [-0.08256365]
 [ 0.0948278 ]
 [-0.05184582]
 [-0.18374674]
 [-0.16236028]
 [-0.14684376]
 [ 0.213209  ]
 [-0.16183296]
 [-0.131463  ]]
dense_11/bias:0
(1,)
[0.03219697]
