dense_36/kernel:0
(784, 128)
[[ 3.78661901e-02 -4.11806591e-02 -6.79725930e-02 -7.77424052e-02
   5.65420911e-02 -6.92033619e-02  5.62741682e-02 -3.78125906e-03
  -8.98090005e-03  1.91937685e-02  8.09688196e-02 -2.14406811e-02
  -1.43172815e-02  7.77861699e-02 -4.53331918e-02 -3.62614579e-02
   7.32809305e-03 -7.79708475e-02  6.31538555e-02 -2.48568505e-03
  -1.89977325e-02  2.59854719e-02  1.15211383e-02  2.59307101e-02
  -6.35576397e-02 -6.40246421e-02 -9.65309888e-03  6.36840537e-02
  -4.72726673e-03 -4.11633700e-02 -2.46797502e-02 -6.95559382e-02
  -6.91848993e-03 -3.90173607e-02 -6.77191690e-02 -6.39129877e-02
   3.81672680e-02  2.74573267e-02 -4.63732444e-02  6.21937290e-02
  -4.33966145e-02 -3.07992585e-02 -1.08792260e-02 -8.02136213e-02
   3.26018035e-02  7.71826729e-02  7.24259391e-02 -4.53480817e-02
   3.12698931e-02  7.93473199e-02 -5.19323274e-02 -5.12798131e-02
   4.44193855e-02  4.96850684e-02 -7.26017803e-02 -4.56135198e-02
  -3.52662131e-02 -7.72152022e-02  1.98225528e-02  1.55818164e-02
   1.86902508e-02 -4.71546464e-02 -4.48485538e-02  5.28805777e-02
  -1.91706941e-02 -3.19837704e-02 -5.93467876e-02 -1.84556842e-02
  -1.15459487e-02  4.52147499e-02  4.18374240e-02  6.26096949e-02
  -4.23760936e-02 -6.12434670e-02 -1.31866932e-02  2.90106386e-02
   7.21538588e-02  9.58562642e-03 -7.06375465e-02 -7.53751025e-02
  -1.52027458e-02  7.82644823e-02  6.69687465e-02 -4.84456308e-02
   2.99327821e-03  5.21209165e-02 -3.93493026e-02 -7.13171735e-02
   2.26339698e-02 -6.58378601e-02 -2.08389312e-02 -1.93842873e-02
   1.06380954e-02 -5.87928221e-02  6.70012459e-02  5.43478802e-02
   8.09949711e-02  1.73950717e-02  1.18115619e-02  2.51692981e-02
   4.65292707e-02  4.33641672e-03 -1.60459355e-02 -6.30386770e-02
   6.47313893e-04  5.37334755e-02 -6.89022467e-02 -7.03923181e-02
   3.75889391e-02 -6.95359856e-02  4.33835387e-02  3.78049240e-02
  -4.09734473e-02  1.08271092e-03  2.35805660e-03 -5.60972765e-02
   7.16637000e-02 -5.82175627e-02 -1.50788426e-02 -5.32539450e-02
   6.52268305e-02 -3.81726623e-02  8.07420984e-02  7.52999112e-02
   3.35162878e-02 -3.55037823e-02 -4.65303473e-02  6.54637441e-02]
 [-6.04181662e-02  6.28423169e-02  7.89731815e-02  3.59062925e-02
   8.04422423e-02 -6.03538863e-02  4.50686887e-02  2.07067356e-02
   3.18109244e-03  4.57901284e-02 -2.79615372e-02  4.08307686e-02
  -7.00975507e-02  6.21929541e-02  1.97476521e-02  2.11244449e-02
   5.57691976e-02 -5.09498268e-02  3.69402319e-02 -6.65059835e-02
  -1.67306438e-02  3.64075378e-02  7.48438165e-02 -7.37679005e-03
  -3.34902853e-03 -6.83815256e-02 -4.76954132e-03  7.90201128e-04
   2.93383002e-03  6.58957586e-02 -5.84293976e-02 -3.72421034e-02
  -4.87794504e-02  6.15619048e-02  4.22035754e-02  4.09412086e-02
   8.76593590e-03  7.04442784e-02  2.29325145e-02 -2.24150047e-02
   6.39482811e-02  4.74924520e-02  2.09778547e-04 -5.53579144e-02
   5.80198690e-02  1.76665783e-02  5.29629067e-02 -6.85780570e-02
  -1.98094770e-02 -1.53195858e-03 -7.89021030e-02  2.38631889e-02
   3.13124955e-02  1.05334148e-02  5.10526523e-02 -4.37169932e-02
  -7.57749975e-02  1.72204301e-02 -2.54923254e-02  3.81814837e-02
  -2.08984762e-02  8.10668692e-02 -5.25129810e-02  7.96766058e-02
   7.92042688e-02 -5.08947894e-02  3.79896462e-02  7.96222761e-02
   5.89774027e-02  3.01848650e-02 -2.99331732e-02 -5.45511767e-02
   2.44740471e-02  2.74473727e-02  4.82058302e-02  1.98145956e-03
  -3.09472531e-03 -4.74625304e-02 -6.24414533e-02 -6.66494668e-03
  -3.63402627e-02  3.00660282e-02 -6.72577173e-02 -6.17799312e-02
   3.60122100e-02 -1.38925388e-02  1.95719823e-02  2.34355032e-02
   5.72791174e-02  6.27944991e-02 -4.26483378e-02 -6.56795800e-02
  -3.22368294e-02  3.10502499e-02  2.54978389e-02  6.95127919e-02
   6.84627816e-02 -6.92745298e-02 -7.72464722e-02 -1.92410462e-02
  -5.28134182e-02  1.62514225e-02  7.57157281e-02 -5.24880514e-02
   7.19374940e-02 -1.76645294e-02 -3.80106457e-02  7.92802349e-02
  -4.17757928e-02  4.67960611e-02  9.35859978e-04  7.13873878e-02
  -4.10474576e-02 -3.72615010e-02 -5.02294376e-02 -5.43670952e-02
   7.35919848e-02  3.70851532e-02 -5.87178655e-02  7.19457343e-02
  -3.29800025e-02  8.92750919e-04  2.02547610e-02  5.91648296e-02
   1.79828778e-02  4.60843667e-02  7.70538375e-02  1.85168833e-02]
 [-5.81710562e-02 -3.31828408e-02 -3.01554687e-02  1.81657448e-02
   7.61263743e-02 -2.48276517e-02 -6.67919964e-03 -4.19112220e-02
  -1.99548639e-02 -7.41372779e-02 -4.51678857e-02  4.92274985e-02
   1.00154802e-02  5.47484830e-02  6.35558292e-02  2.14131251e-02
   3.14541161e-03 -5.57057932e-02  8.16766918e-03 -8.10779482e-02
  -5.77203184e-02 -6.50182068e-02  7.96471313e-02 -3.13566476e-02
  -5.75180203e-02 -4.18308303e-02  7.19889477e-02 -3.91981937e-02
   7.09848478e-02 -2.52448022e-03 -4.22511697e-02  3.98624241e-02
   1.41830966e-02  1.58745199e-02 -4.99851555e-02 -2.06734166e-02
   4.21512052e-02  6.53467402e-02  7.02459142e-02  7.56266192e-02
   4.81495038e-02 -1.07276738e-02 -4.73748893e-02  3.21184024e-02
  -2.49721669e-02 -2.49286331e-02 -5.78104742e-02 -2.47006379e-02
   5.48308343e-03  5.97668961e-02 -4.78590056e-02  7.38084093e-02
  -2.95566171e-02 -4.53338884e-02  4.25933599e-02 -3.65345143e-02
   3.69916558e-02 -1.20266601e-02  7.23111108e-02  6.67851493e-02
  -6.94403946e-02  6.63833991e-02  5.56793287e-02 -3.09554338e-02
  -2.23726928e-02  7.18502030e-02 -1.04950517e-02 -5.20709231e-02
  -3.61344628e-02  8.56286287e-03  2.60234177e-02 -1.70580223e-02
  -5.16987592e-02  4.66518849e-03  1.18555799e-02  2.19891742e-02
   7.03547820e-02  3.84594128e-02  6.30582049e-02  5.83527237e-03
  -6.28240630e-02 -5.36195934e-02 -4.28536348e-02 -2.25553811e-02
   1.78152323e-03 -1.46668851e-02  6.76692352e-02  4.02863771e-02
  -5.40074036e-02  4.17704359e-02  1.89094171e-02  2.64367312e-02
  -3.32020968e-03  3.67149636e-02 -6.33728281e-02 -1.37950331e-02
   3.18544134e-02  2.70817578e-02  7.30168074e-03 -6.40289336e-02
  -2.84613669e-03 -1.45816803e-03 -1.46915987e-02 -4.37829345e-02
  -5.00313938e-02 -7.90241659e-02 -2.16890424e-02 -5.85193969e-02
   5.33100888e-02 -2.97624171e-02  1.81902796e-02 -7.52594769e-02
   1.25553161e-02  6.34111539e-02 -1.58667862e-02 -2.53298283e-02
   1.24870315e-02 -5.68120927e-03  2.40639821e-02 -1.81048438e-02
   3.47696021e-02  3.47724110e-02  7.53328949e-03 -2.78177857e-03
   2.12142095e-02  4.54449728e-02  2.07286254e-02 -2.36113667e-02]
 [ 5.16561046e-02 -3.04384641e-02  1.57885402e-02  5.33783659e-02
   7.10656419e-02  5.94315454e-02  4.48708758e-02 -6.87431693e-02
  -3.61462981e-02  6.74952641e-02  2.97067612e-02  4.37433720e-02
   7.61574283e-02 -2.87746377e-02 -5.70009947e-02 -7.44279549e-02
  -4.75345664e-02 -5.98355234e-02  6.80368617e-02 -1.94098912e-02
  -7.99315348e-02  1.38307512e-02 -5.77955842e-02 -1.50343701e-02
  -3.24627981e-02  3.02766189e-02 -7.27550387e-02 -2.35138051e-02
   1.45512745e-02  2.44159549e-02  2.66873538e-02 -5.52482828e-02
   6.89153895e-02  1.51349828e-02 -5.65874428e-02 -1.96451582e-02
   3.89320999e-02  1.02866217e-02 -7.56197348e-02 -3.02616917e-02
   2.96792239e-02  2.66379490e-02 -6.15994073e-02  9.71093774e-04
  -3.38200964e-02 -7.35998079e-02 -7.65781030e-02 -3.05369943e-02
  -7.01595619e-02  4.71759513e-02 -6.83497712e-02 -5.15770465e-02
   2.01429054e-02 -1.80651620e-02  8.48449767e-04 -1.89164355e-02
   5.75204566e-02 -2.81478241e-02  4.94967327e-02 -2.69442089e-02
   7.34545290e-04  5.66008613e-02 -5.07710241e-02  5.74900731e-02
   2.72037834e-03  6.25590235e-03 -7.39464462e-02 -4.10129353e-02
   6.00581691e-02 -3.80680822e-02  5.65172657e-02  5.87272272e-02
  -2.88491473e-02 -5.53696305e-02  4.71508875e-02  2.31514871e-02
  -7.64506981e-02 -2.00697891e-02  1.30877197e-02  6.39706850e-05
  -6.43225089e-02 -4.56810482e-02  7.21775368e-02  5.20113483e-02
  -2.20929645e-02  5.63398227e-02 -2.65507139e-02 -1.18286163e-02
   1.27958059e-02  1.75584257e-02 -3.43172252e-02 -3.70805897e-02
   2.83755884e-02  7.25750700e-02  7.03865960e-02 -2.22075619e-02
   3.96723673e-02  5.23702428e-02 -1.89817771e-02 -6.00853749e-02
   7.40936175e-02  2.69747078e-02 -5.47766834e-02  4.19421792e-02
  -1.39558539e-02 -3.25662754e-02 -7.66032189e-02 -7.27564692e-02
  -2.93467194e-02  6.72183111e-02  5.68599179e-02  7.58709833e-02
  -3.86281759e-02 -9.61482525e-03 -7.63623416e-03  6.39655069e-02
  -3.19413804e-02  2.24295259e-03 -7.12579191e-02 -1.41625851e-03
   1.89710110e-02  2.90657356e-02 -1.24334991e-02 -2.38975734e-02
   5.34143373e-02 -3.17181200e-02 -7.10146427e-02 -7.35688508e-02]
 [ 9.18530673e-03  3.63932699e-02 -7.30874985e-02  3.52380723e-02
   2.98384577e-02 -5.80373108e-02 -1.14255100e-02 -6.18921705e-02
  -6.12653382e-02 -7.43746981e-02  2.69012377e-02 -6.14809617e-02
   7.99266621e-02  1.60371140e-02 -2.11770087e-03 -5.60675710e-02
   6.93794340e-03 -4.35645096e-02 -7.54696280e-02 -5.63806780e-02
   1.98194534e-02 -5.13287038e-02 -9.51053947e-03  7.74151012e-02
   2.72468925e-02  3.67921218e-02  1.43132061e-02  2.70861685e-02
   7.74363950e-02  2.57338211e-02 -3.58267911e-02 -2.61856839e-02
  -7.17092752e-02 -3.55225056e-03  4.71606851e-03  4.66149375e-02
   8.08406547e-02  3.19629237e-02 -7.08693415e-02  4.74261120e-02
  -2.53372639e-03 -7.98586309e-02  6.20598868e-02  5.47619238e-02
   2.93475166e-02 -2.15508901e-02  6.64657727e-02 -7.87704289e-02
   4.05285135e-02  2.63683721e-02  6.75356016e-02  3.93327102e-02
  -1.37550458e-02 -7.44587034e-02 -2.20406055e-03 -5.57580814e-02
   3.09786573e-02 -9.07985121e-03 -5.87804615e-02  7.00539127e-02
  -5.71346395e-02 -5.35952076e-02 -3.56825106e-02 -4.60790284e-02
   9.53859836e-03 -5.04868105e-02  3.66348773e-03 -7.15065524e-02
   1.51107460e-03  2.90639549e-02 -7.02728331e-02 -2.49707550e-02
   1.86177716e-02 -4.31929044e-02 -4.43933904e-03  3.69840115e-02
  -5.02211601e-03 -7.00835884e-02 -9.44848359e-03 -1.30223557e-02
  -4.59597521e-02 -9.50050354e-03 -5.81387058e-02 -9.17466730e-03
  -2.25678086e-04  4.04708460e-02  1.83575973e-02 -3.73311192e-02
   4.68499213e-03 -5.40474802e-03  5.40628508e-02 -6.66041821e-02
  -6.89599738e-02 -1.10091940e-02 -4.75868583e-02 -2.16547959e-02
   5.47217801e-02  6.28912821e-02  6.81741014e-02 -5.99401444e-02
  -7.41447806e-02  5.87094352e-02  6.99596331e-02  4.07024994e-02
   6.06731325e-03 -5.52259088e-02 -6.44719973e-02 -5.32756448e-02
   5.73711619e-02 -2.40380690e-02  4.36910763e-02 -2.50487067e-02
   4.52442691e-02 -6.07222319e-03 -7.87916631e-02 -2.51568668e-02
   5.35664186e-02  2.94775441e-02  4.30705920e-02  1.04803517e-02
  -6.52277023e-02  2.58625746e-02 -3.36288586e-02  5.73139861e-02
   2.67697200e-02  2.54677981e-03 -1.62669942e-02  9.48348641e-03]
 [ 4.97998968e-02  1.93131417e-02 -4.03090045e-02  7.97142163e-02
   7.00037107e-02 -1.86416954e-02 -1.04487762e-02  7.69155547e-02
  -6.43037558e-02 -1.24433264e-02  2.18227133e-02 -7.81226903e-03
   4.69404683e-02  3.93359587e-02  4.15579081e-02  1.14051476e-02
  -7.70461261e-02  7.22426549e-02 -4.43379246e-02  6.70979992e-02
  -3.29901911e-02 -5.07399663e-02  1.50489062e-03  6.49208203e-02
   2.37501413e-03 -7.31122494e-02  4.95652780e-02  7.71623924e-02
   1.84260905e-02 -1.54320598e-02  7.74752423e-02 -4.87643257e-02
   2.58025303e-02 -3.68488021e-02 -5.76592088e-02 -6.65995777e-02
   4.99622449e-02 -1.28412098e-02  3.58833745e-02 -6.15750253e-02
   4.48860973e-03  4.60513607e-02  5.89997545e-02  5.48625514e-02
  -7.38406330e-02 -7.34796599e-02 -4.75607887e-02 -3.02568823e-03
   6.43858090e-02 -4.72613350e-02 -1.78680122e-02  5.41097447e-02
   2.35348493e-02  5.70644960e-02 -3.89522277e-02  1.01517364e-02
  -7.62818009e-02  8.09254721e-02  5.35761043e-02  3.32006663e-02
  -4.42856364e-02 -6.59261048e-02  4.91422489e-02  6.54699281e-02
  -6.04671314e-02  4.01445329e-02 -7.40057230e-02 -1.05318427e-03
  -4.96562868e-02  6.24727458e-03 -3.55717577e-02 -3.96966748e-02
  -3.23052891e-02 -7.62969404e-02  7.01482072e-02  5.65788969e-02
  -1.33093372e-02  1.85844749e-02 -3.73068452e-03  6.48612902e-02
   3.57004255e-03  5.39909527e-02 -4.46118899e-02  6.96431324e-02
  -5.65436408e-02 -7.81539381e-02 -1.29026696e-02  1.75518095e-02
  -6.20770641e-02  3.72012034e-02 -4.49603684e-02  4.07808274e-03
  -5.20322844e-02 -7.99626485e-02 -5.17339185e-02 -7.69609213e-02
   6.36429861e-02  6.06159121e-03  6.76394179e-02  4.69027236e-02
  -1.49974301e-02  2.57665813e-02  6.89008757e-02  3.43257338e-02
  -1.69782341e-03 -5.30862436e-02 -6.76553920e-02 -2.41736323e-03
  -5.82348704e-02 -6.81212842e-02  3.23986560e-02 -2.54002586e-02
   2.46765018e-02  5.92846200e-02  7.20594004e-02 -2.43916474e-02
  -4.99410629e-02  6.39795884e-02 -6.49306476e-02  3.59568968e-02
  -6.81533143e-02  6.46496937e-02 -6.52943179e-02  3.91983464e-02
   2.93576717e-03 -7.70726204e-02  7.19379708e-02 -3.39823626e-02]
 [-3.13700102e-02  2.05579102e-02  3.53519395e-02 -6.51932359e-02
  -7.47208297e-02 -1.23176873e-02 -7.75178671e-02  5.01816049e-02
  -8.10454041e-02  4.28973883e-03 -5.25386035e-02  6.44755140e-02
  -1.63130537e-02 -4.87640388e-02 -8.30146670e-03 -4.00934406e-02
   6.46126792e-02  2.30342150e-02 -1.89711824e-02  7.71813095e-03
  -1.86803937e-03  6.53056726e-02  4.44152579e-02 -2.29341201e-02
  -1.15730464e-02 -7.34632835e-02 -7.71075860e-02  4.21489626e-02
  -2.00965367e-02  1.07874274e-02 -3.44440341e-05  4.98982146e-02
  -4.24500443e-02 -1.57920644e-02 -7.09710941e-02 -1.30996257e-02
  -6.18829653e-02  1.80461183e-02  3.89809459e-02  7.23241344e-02
  -6.86778054e-02 -8.06078315e-04  1.23185515e-02  4.14214209e-02
   5.71094826e-02 -5.47510758e-02 -7.30343163e-02  2.25022584e-02
   4.75266054e-02 -7.28957951e-02 -6.98161125e-02 -7.06395060e-02
  -1.35629326e-02 -1.28883868e-03 -7.20162168e-02  7.10018799e-02
   3.65496948e-02 -5.70908003e-02 -4.62588370e-02 -5.54764569e-02
  -4.95398119e-02  5.21704555e-03  2.28298306e-02 -7.43638650e-02
  -1.97876059e-02 -4.30241004e-02  2.98701301e-02  1.32297575e-02
   3.49910259e-02 -3.52230296e-02 -3.22905332e-02 -7.78248906e-03
  -1.08736902e-02  4.13395390e-02  2.63905525e-02 -4.40355912e-02
   7.67533481e-03 -4.05413322e-02  2.94594020e-02 -1.56567916e-02
   7.06236586e-02  6.38830438e-02 -4.12389040e-02  6.84432909e-02
  -4.30223010e-02  5.49506322e-02 -2.11897083e-02  9.49386507e-03
   4.53069061e-03  5.51401898e-02  6.51011840e-02  1.10236406e-02
  -8.84909183e-03 -1.50356218e-02 -3.73612866e-02  5.34889325e-02
  -2.39747912e-02  5.98584339e-02 -1.57900900e-02 -4.63746339e-02
  -4.67988588e-02 -1.04264989e-02  6.18740544e-02  1.88372657e-02
   2.73803473e-02  5.06584421e-02 -3.15053798e-02  3.88811603e-02
  -7.74017200e-02  5.68067059e-02 -2.85034738e-02  5.23340628e-02
  -6.91646263e-02  2.76446044e-02 -8.65466148e-03 -2.64475234e-02
   6.44167140e-02 -6.30292222e-02  6.98299631e-02  2.80888602e-02
  -1.87917612e-02 -1.64969638e-02  4.98281196e-02  2.00537965e-02
   3.72478440e-02  4.98460606e-02 -3.72396111e-02 -5.16447499e-02]
 [ 3.42348218e-03  1.22797787e-02  5.84992394e-02  6.05025813e-02
  -9.45749134e-03 -5.25474399e-02  3.98625806e-02  5.05079255e-02
   5.64722791e-02  7.07366243e-02 -4.31696400e-02 -3.28777581e-02
   3.45353782e-02 -4.76140454e-02 -4.63725664e-02  6.93258271e-02
   1.49059296e-03  1.48551613e-02 -3.83883826e-02 -5.21805733e-02
  -2.85512395e-02  2.14666128e-02 -4.78414856e-02  1.09227747e-02
   3.75031158e-02 -1.76375955e-02 -4.31202911e-02  4.40665856e-02
  -7.31040910e-02 -4.67889383e-02 -4.01763059e-02  4.78662178e-02
  -4.18174490e-02  5.58149293e-02  6.86181113e-02  7.69818500e-02
   2.82517076e-02  2.31951848e-02  2.87503451e-02 -7.39371479e-02
   7.53196850e-02  7.71540403e-03 -1.27437636e-02  2.17884034e-02
  -4.37680259e-02  7.82996491e-02  2.44258791e-02  2.70651877e-02
   6.46622404e-02  4.06081676e-02  7.07451329e-02 -5.45826405e-02
   3.62049714e-02 -8.61905515e-04  4.28084806e-02 -7.90089071e-02
   1.44941136e-02  4.79818806e-02  1.44805387e-02  4.02514338e-02
   6.62052110e-02 -6.47250935e-02  5.38445041e-02 -2.56844126e-02
  -2.35768892e-02  5.64429536e-02 -5.30879274e-02  5.94474599e-02
  -3.72562222e-02 -5.23470342e-04 -8.11688602e-04 -7.80618116e-02
   4.95496765e-02 -5.86998612e-02 -5.73378801e-03 -6.91794604e-02
  -7.16674104e-02 -1.41497776e-02  5.65254465e-02 -5.32949790e-02
  -5.43576777e-02 -5.89573532e-02  5.15362993e-02  3.19717377e-02
  -1.33944973e-02  7.07257465e-02  2.36571804e-02 -3.02338265e-02
  -6.04756922e-03 -7.10649788e-03 -4.60781790e-02  5.05794212e-02
  -7.44965449e-02  5.70301712e-03 -2.50157528e-02 -3.29267830e-02
  -5.81752732e-02  3.55784297e-02  5.92760667e-02  9.25078243e-03
  -3.82058471e-02  2.28398666e-02 -3.30226012e-02 -2.17273161e-02
  -6.89335763e-02  7.52004161e-02 -5.65925464e-02 -1.53240561e-02
   3.45347002e-02  6.05270937e-02  5.53939864e-02  7.74632022e-02
  -2.61942670e-02  5.78970537e-02  3.02457958e-02 -2.50153877e-02
   6.17816374e-02  2.77165398e-02  3.57299298e-02 -4.37369682e-02
   8.57162476e-03  7.72243515e-02 -6.00680076e-02 -7.88122341e-02
  -1.47085786e-02  7.78335854e-02  2.58484632e-02 -6.50822520e-02]
 [ 1.98535100e-02  2.88128853e-02  7.04437271e-02  8.22423398e-03
  -9.46436077e-03 -5.43420538e-02 -5.91000319e-02  1.31585151e-02
  -3.81852910e-02  3.38916630e-02  2.74868608e-02 -3.37062515e-02
  -7.93822482e-02 -5.50694838e-02  4.34590802e-02 -6.90643787e-02
   5.98077476e-03 -3.59073728e-02  3.22250947e-02 -1.17529109e-02
   3.17538530e-02  1.22883171e-03  6.34958372e-02 -1.89258903e-02
  -5.37215061e-02  2.12728977e-03  3.80259007e-03  2.11155117e-02
   2.12207884e-02 -7.21274912e-02 -6.74893484e-02  1.73405409e-02
  -1.10748112e-02  5.76375499e-02  4.74891439e-02 -1.22338161e-02
  -2.93862298e-02 -1.70736685e-02 -7.73415193e-02 -5.95402084e-02
   8.02985057e-02 -5.26607037e-03  6.71288148e-02  7.16978088e-02
  -3.42653580e-02 -5.65470234e-02 -1.23286918e-02 -4.99657020e-02
   6.93945065e-02 -3.66848707e-02 -6.66455030e-02  6.06508628e-02
   1.99891105e-02 -5.93147241e-02  1.15136355e-02  5.39515093e-02
   4.78394330e-04  1.72872618e-02 -6.89769536e-02  2.40335986e-02
   7.26185665e-02  5.44064865e-02 -2.63771713e-02  3.06676030e-02
  -3.83434966e-02  1.18681863e-02 -5.41049093e-02 -1.36907622e-02
   3.33001465e-02 -5.59485853e-02  6.97955862e-02 -8.91277194e-03
   6.81634918e-02  7.46996328e-02  5.55314049e-02  3.93012688e-02
  -6.41694888e-02  2.40414739e-02 -8.05134848e-02 -3.58032584e-02
  -3.06285024e-02  7.52984062e-02  1.04036406e-02 -1.58487037e-02
   2.63349190e-02 -4.92616296e-02  1.52716264e-02 -7.17892423e-02
   3.56596336e-02 -1.97766796e-02  7.33336881e-02 -7.04819337e-02
  -3.54473740e-02 -3.60526145e-03 -7.19125569e-03  8.18180293e-03
   9.42654908e-03 -7.65741915e-02 -2.27724910e-02 -5.47144711e-02
  -2.41692960e-02 -2.12168619e-02 -6.52505457e-03  3.55825275e-02
   6.00662455e-02 -3.72573249e-02  7.19287321e-02  4.05264050e-02
   6.42065927e-02 -5.35966977e-02  1.66128576e-02 -7.87167251e-02
  -5.57292290e-02 -4.24117334e-02 -2.33802199e-03  2.35373378e-02
  -4.40135449e-02  5.20021990e-02 -4.95110936e-02  1.75699443e-02
  -2.37969309e-03  6.00871369e-02 -5.64119481e-02 -2.53826603e-02
  -7.05428496e-02 -4.28561270e-02 -4.66196723e-02 -4.73961793e-02]
 [-1.87873840e-04 -5.01235798e-02  1.78328678e-02  6.42820448e-03
   4.83783856e-02 -8.07376727e-02  6.07691780e-02  2.59069204e-02
   7.22331926e-02 -1.92493051e-02  5.66534698e-04 -3.32190618e-02
  -7.68040866e-02 -1.53712779e-02  5.07643297e-02  7.30922297e-02
  -6.02256134e-02 -5.10415286e-02 -4.14087139e-02 -6.14549145e-02
  -5.75573146e-02 -6.47664964e-02  1.94149390e-02  3.31869200e-02
  -1.35870129e-02 -6.66750520e-02 -1.87910460e-02 -8.07389319e-02
  -3.62927467e-03  2.13376656e-02  3.61810923e-02 -2.75557823e-02
   2.02718973e-02  4.91408780e-02  7.74054155e-02 -2.84061655e-02
   5.05812466e-03 -7.23566860e-02 -2.99068168e-02  2.98133120e-02
   7.21948072e-02 -6.96068555e-02 -1.89330839e-02  8.06163251e-03
   6.37033954e-02  3.79339531e-02 -1.85960978e-02  5.76390550e-02
   2.31270194e-02  4.13516462e-02 -4.44793478e-02  4.28303480e-02
   1.14274025e-03  3.83452177e-02 -1.66758448e-02 -9.72934812e-03
  -6.91771433e-02 -4.82206494e-02  2.79229879e-03 -1.62322372e-02
   5.22828028e-02 -2.79912986e-02 -5.49539551e-02  4.65872958e-02
  -1.49177611e-02  3.41120809e-02  7.21731707e-02  4.39030007e-02
   2.13264301e-02 -3.84611897e-02 -1.19396001e-02  6.09467924e-03
  -6.78566992e-02 -7.50816241e-02 -6.00846782e-02 -1.71970651e-02
   3.66444513e-02 -7.36451969e-02 -6.62913844e-02 -5.94387576e-02
   1.69581175e-03 -2.50044987e-02  2.46105194e-02 -1.54695734e-02
  -1.17550194e-02  4.89001200e-02  4.92517129e-02  6.00289777e-02
   5.27816340e-02 -4.52750213e-02 -3.00379694e-02  1.46704391e-02
  -3.63824181e-02 -6.20190687e-02 -2.26525180e-02  5.23611903e-03
   6.52639195e-02 -3.61562409e-02 -2.01486722e-02 -1.55563056e-02
   6.97090849e-02  6.03252128e-02  6.53035939e-04 -7.38630593e-02
  -2.39944793e-02  6.31509647e-02 -4.15412597e-02  3.82568017e-02
  -1.85156465e-02  2.64930725e-03  4.66147587e-02  3.91497687e-02
  -6.70041144e-02 -1.00221112e-02 -5.17646261e-02 -2.81558298e-02
  -7.88033009e-04  1.36184171e-02  5.01988754e-02 -4.76049371e-02
   4.79002371e-02  7.18493834e-02  5.52431867e-02  3.45655829e-02
  -5.25376722e-02 -3.82839553e-02 -7.01804459e-02 -7.87126794e-02]
 [ 2.96625718e-02  6.76619336e-02 -3.12744416e-02 -1.33273378e-02
  -2.38885060e-02  4.84143421e-02 -6.45030886e-02  4.49555740e-02
   5.25707677e-02  5.34883216e-02  3.03868875e-02 -6.87641501e-02
  -2.23250687e-03 -4.91611101e-02  2.10298374e-02  3.03580761e-02
   7.38966390e-02  7.68781677e-02  2.24873647e-02  2.90556997e-02
  -7.36058801e-02  2.67859027e-02 -7.88982883e-02 -1.89391188e-02
  -1.97853036e-02 -4.84180152e-02 -6.52225167e-02 -7.55974948e-02
  -1.16536096e-02 -2.09777057e-02  6.89392462e-02 -3.29033248e-02
  -6.85989633e-02  8.93669575e-03 -1.33552253e-02  2.91679576e-02
  -4.48634811e-02 -5.90790883e-02  2.43206546e-02  1.36165991e-02
   7.07275495e-02 -7.11809769e-02 -6.11562133e-02 -4.92297411e-02
  -1.55904442e-02  5.27583584e-02  6.43533990e-02 -5.32537699e-04
  -3.79167981e-02 -2.39745975e-02 -3.29972506e-02 -1.15022287e-02
  -1.51286647e-02 -3.44604440e-02  4.35668901e-02  5.67147657e-02
  -7.22254589e-02 -2.34395266e-05  9.85141098e-03 -6.82890713e-02
  -3.24517749e-02  4.07316238e-02  7.89411590e-02 -4.03674617e-02
   2.86160037e-02  2.31040269e-03  3.49555984e-02  1.21810287e-03
  -5.77061065e-02  3.76370326e-02  4.85410541e-03 -1.22913495e-02
  -3.34536731e-02 -6.32773936e-02  1.35689229e-03  7.79742226e-02
   4.84672189e-03  8.75543803e-03  6.28461912e-02  1.63834468e-02
   5.30909374e-02 -2.57435702e-02  5.50316796e-02  5.11301532e-02
   6.54772148e-02  2.85366029e-02 -6.90489486e-02 -5.62333018e-02
   1.64429694e-02 -6.84026182e-02 -3.26456986e-02 -3.69783677e-02
   1.31100118e-02 -7.95163214e-02 -7.31857941e-02  3.27347517e-02
   5.15633300e-02 -1.39493123e-02  3.64502221e-02  2.67000198e-02
  -4.15268913e-02  2.76347771e-02  6.34464547e-02 -5.71561046e-02
  -6.89160377e-02  5.00960723e-02 -7.89932385e-02  2.28699967e-02
   5.16129285e-03  5.18277213e-02  1.40931532e-02 -6.01386502e-02
  -1.72559693e-02 -5.28385974e-02 -4.77900654e-02  3.82856354e-02
   4.37011123e-02 -3.33873816e-02  9.00372118e-03 -3.05655599e-03
  -2.91146226e-02 -5.09488583e-03 -3.97178903e-02 -2.56889798e-02
  -7.27280229e-02  5.99253103e-02  5.36472127e-02  1.28350258e-02]
 [ 1.24126375e-02  6.72231242e-02  1.01061910e-03 -6.66008368e-02
  -1.03390664e-02  3.71638983e-02  2.78474614e-02 -5.58416396e-02
  -5.30255809e-02 -2.03097388e-02  5.64812198e-02 -2.05181502e-02
   6.41291812e-02 -8.10280740e-02 -6.24294579e-03 -7.39970356e-02
   5.83562627e-02  6.90120459e-03  5.97751364e-02 -4.89299744e-03
   4.42500487e-02 -4.30074707e-02 -3.96617129e-02  5.13755158e-02
  -1.73850134e-02 -5.54680675e-02  6.00861236e-02  6.04325533e-03
   7.23045245e-02  4.71591130e-02  9.89013165e-03  3.09569463e-02
   1.94831640e-02 -4.22986262e-02  6.34032413e-02  2.69980878e-02
  -2.19301358e-02  2.80514583e-02 -3.08554359e-02 -7.88138956e-02
   4.55203131e-02 -7.10174665e-02  7.11197481e-02  4.50546369e-02
  -4.56111394e-02 -3.41800377e-02  3.65703851e-02  7.31820241e-02
   8.06448087e-02  2.31322199e-02  6.82240650e-02  5.33266440e-02
  -1.81183442e-02 -8.14440101e-03  4.52655777e-02 -3.98381725e-02
  -1.91627666e-02 -4.23159115e-02  1.87520236e-02  4.59845290e-02
   6.77491650e-02  3.31606194e-02 -2.79098265e-02 -6.64788112e-02
   3.69295180e-02  5.27626052e-02  7.13656321e-02  1.42761096e-02
   3.68238240e-03 -5.30304909e-02 -4.11642194e-02  7.06964955e-02
   5.48769906e-02  3.61625999e-02 -1.25090405e-02 -4.94946390e-02
  -1.61434785e-02 -6.46465048e-02  5.53772971e-02  3.48120555e-02
   4.03820425e-02 -2.00242884e-02 -7.72327185e-02 -9.69272107e-03
   4.44927141e-02 -6.64200634e-03 -4.80860546e-02  4.60373685e-02
  -4.38958406e-04 -5.51728271e-02 -5.07103987e-02  7.64742568e-02
  -5.70267439e-03 -7.91950151e-02 -3.23719084e-02  1.63853765e-02
   2.82033831e-02  1.65190846e-02  7.05577657e-02  5.10006025e-02
   7.23835900e-02  1.16373226e-02  3.23584452e-02 -7.97753036e-02
  -3.84740122e-02 -7.20742866e-02 -3.46245691e-02 -3.11244279e-03
  -6.70420527e-02 -4.03148048e-02  1.25049576e-02 -7.33752176e-02
   4.19725776e-02  2.86703557e-03 -6.88335747e-02  4.89073321e-02
   2.06930041e-02 -7.48474747e-02  5.24948612e-02 -4.41551395e-02
   5.89061305e-02  1.42993182e-02  1.53549761e-03 -3.51709127e-02
   3.37877646e-02  5.14591262e-02 -6.36435598e-02 -4.61636484e-03]
 [-3.43840457e-02  1.25620276e-01  1.48159519e-01 -5.78079820e-02
   3.72364670e-02 -1.08768024e-01  3.82662565e-03  1.11120664e-01
   8.42341110e-02 -1.38463736e-01  4.06918079e-02  4.45746668e-02
  -2.55819783e-02 -2.05880310e-02 -2.69147381e-02  1.32663071e-01
  -1.33168131e-01  6.93833083e-03  3.48007716e-02 -1.39097841e-02
  -9.29164235e-03 -4.60686646e-02  2.42134258e-02 -4.96994704e-02
   2.18349546e-02 -5.63469902e-02  8.36278722e-02  9.34970379e-03
  -3.31762619e-02  1.88802928e-02  1.26323953e-01  1.69673807e-03
   4.32047769e-02 -2.59239357e-02  1.28925100e-01  5.21670356e-02
  -1.17484078e-01  2.67208572e-02  1.26450405e-01  1.08231016e-01
  -3.77686247e-02  9.36603397e-02  1.47182690e-02  7.78933521e-03
   1.85246747e-02  5.52636907e-02 -3.43052149e-02  4.49351557e-02
   5.68754897e-02 -3.09944469e-02  7.62611553e-02 -3.52177136e-02
  -1.48443487e-02 -7.48390332e-02  3.80569398e-02  2.33435966e-02
  -4.71367054e-02 -6.33274168e-02 -7.60666952e-02 -9.66286361e-02
  -3.31736840e-02  6.51706159e-02  3.81769389e-02 -1.04557924e-01
  -4.37704250e-02 -2.57490426e-02 -2.25347970e-02 -1.35867298e-03
  -7.36490041e-02 -3.13833356e-02  6.59860298e-02 -2.29616482e-02
   9.96515155e-05 -5.98384999e-04  7.29640946e-02  1.30651519e-01
   6.17838800e-02  4.09998931e-02 -4.51559462e-02  1.02292791e-01
   5.09702787e-02 -1.53915072e-02  5.58366738e-02 -6.84917867e-02
   6.64450005e-02 -1.22383319e-01  1.34688929e-01 -1.37274638e-02
   4.60982174e-02  2.39541307e-02 -5.52484719e-03 -1.19909480e-01
  -5.79696298e-02 -6.26963153e-02  8.06448385e-02 -1.68077666e-02
   5.82617596e-02  5.77520095e-02 -4.33464348e-03  8.04977417e-02
   2.13940646e-02  3.93095613e-03 -3.55509445e-02 -8.76162276e-02
   5.11864126e-02  2.64583733e-02 -1.15868717e-01 -1.29351718e-02
  -1.07369758e-02 -2.08778009e-02  1.57519002e-02  4.99548130e-02
  -2.32149139e-02 -9.63245239e-03  6.58280551e-02  3.38066816e-02
   1.14864476e-01 -2.07406804e-02  8.57685134e-03  8.07030797e-02
   3.65535617e-02  4.26208898e-02  5.49915880e-02  1.36805683e-01
   1.39772981e-01 -2.81050652e-02  1.14166871e-01 -6.20934218e-02]
 [-4.54583019e-02  1.50542676e-01  1.01786785e-01 -1.93605497e-02
   1.43989176e-01 -3.52167934e-02 -3.78497504e-02  9.18271244e-02
   1.87811553e-02 -6.42196536e-02  1.18515939e-02  9.49783996e-02
  -7.44122341e-02  7.02225491e-02 -3.65507603e-02  1.51943162e-01
   3.32046952e-03  7.76128694e-02  7.19764531e-02  6.74602464e-02
   1.54945310e-02  1.12067387e-02 -3.72763909e-02 -9.59175080e-02
   3.23536545e-02  5.15964404e-02  1.80924393e-03  2.49769143e-03
  -4.46989648e-02  3.82140875e-02  1.12888075e-01 -4.23675776e-02
  -4.13879082e-02  2.92475205e-02  3.85996848e-02 -9.96239483e-03
  -7.10922107e-02  1.43861314e-02  1.09268919e-01  4.84802052e-02
   2.04860549e-02  5.65402284e-02 -3.43768075e-02 -7.20090568e-02
   4.41398174e-02 -6.94422275e-02  1.38841821e-02  1.48856104e-03
   6.51663616e-02 -6.09692447e-02 -4.98198643e-02  2.43570507e-02
   3.11351437e-02 -9.85243767e-02  4.34932262e-02  4.50605117e-02
   5.37012890e-02 -7.41279870e-03  3.47191133e-02  1.58659946e-02
  -4.53944542e-02  1.05667539e-01 -1.19180642e-01 -3.34503390e-02
   3.76351178e-02 -4.47735414e-02  7.24247470e-02 -5.23729324e-02
  -4.62041683e-02  1.49550932e-02 -4.60907668e-02 -1.73060685e-01
   4.42599878e-02  8.66039246e-02 -1.65168364e-02  1.48511976e-01
   1.61139667e-02  1.19991973e-01  3.43227498e-02  1.63232312e-01
  -7.17555955e-02 -5.12947105e-02  2.80566365e-02 -9.36197862e-03
   5.48016652e-02 -7.46894777e-02  5.87129258e-02 -4.29604985e-02
  -1.23162773e-02 -5.14078699e-02  2.03862600e-02 -4.67183031e-02
   7.49943778e-02 -1.86910853e-02  9.04741585e-02 -1.10777155e-01
  -6.74913302e-02  3.70579846e-02  2.52405535e-02  1.21669143e-01
  -4.47184220e-02  3.38294357e-03  8.96371678e-02  2.75551826e-02
   9.66303051e-02  5.36098443e-02 -1.54933035e-01 -7.65651390e-02
  -8.07523057e-02  6.99718520e-02 -1.30177448e-02  8.19602981e-03
   4.47808653e-02  5.25958054e-02  1.09989755e-02  1.05272718e-02
   2.45576748e-03 -8.55706185e-02  5.69220968e-02  1.15580156e-01
  -6.66498542e-02  7.95918703e-02  1.03304619e-02  9.89430025e-02
   1.16768777e-01  1.86773390e-03  1.06739394e-01  7.79129937e-02]
 [ 7.62132257e-02 -3.79110202e-02 -2.19165422e-02  5.51662073e-02
   1.73403814e-01  6.57462925e-02  7.56949410e-02  7.29077086e-02
  -2.19335593e-02  1.25598878e-01  5.53928837e-02 -2.86974944e-02
   6.28077164e-02 -2.36448236e-02 -1.96126141e-02  1.77821577e-01
   7.27549568e-02  1.27446130e-02  5.23147807e-02 -1.69169214e-02
  -7.63054118e-02  5.88256195e-02 -3.28695029e-02  3.01131755e-02
  -3.52166109e-02 -4.55509610e-02  5.42932600e-02  4.78070118e-02
  -1.48038834e-01 -3.25628929e-02 -7.04974681e-02 -3.65676992e-02
  -2.47268006e-02 -5.98881692e-02 -1.18153887e-02 -1.75545141e-02
   1.42491028e-01  3.82811427e-02 -7.98466355e-02  7.53857493e-02
   1.52486503e-01 -1.47448793e-01 -3.35876308e-02  3.93516049e-02
   7.49761313e-02  6.71851411e-02  1.45270854e-01 -5.00616357e-02
  -1.49730593e-03 -2.42010187e-02 -6.38882667e-02  2.37717181e-02
   5.07619930e-03 -1.17722424e-02  1.76775083e-02  1.71818197e-01
   1.27218917e-01  2.35838294e-02 -2.65667122e-03  9.57868695e-02
   1.32618723e-02  4.52777967e-02 -5.18827289e-02  5.95681630e-02
  -1.99342482e-02  2.59706229e-02  1.03125855e-01 -2.46016830e-02
  -7.03436062e-02  5.04944474e-03  1.96892917e-02  1.67002305e-02
  -1.00824088e-02  3.58165205e-02  2.61892006e-02 -4.99757938e-02
  -3.77179459e-02 -6.53836355e-02  3.68058728e-03 -1.26726493e-01
  -5.46463430e-02  7.55664334e-02 -4.88446765e-02 -4.74918559e-02
  -2.43350826e-02  2.98857763e-02  8.25119987e-02  9.93791223e-03
   5.05265966e-03  3.72836702e-02  6.12412207e-02 -5.51471598e-02
  -1.44369081e-02  6.86106458e-02 -6.20890707e-02  6.12680875e-02
  -8.20029676e-02 -1.33701891e-01  6.02150336e-02  8.06736872e-02
  -1.18322000e-02 -4.09221239e-02  4.70231697e-02 -3.96837965e-02
  -2.18114592e-02 -1.82183757e-02 -2.95014884e-02  1.02590054e-01
   6.16025366e-02  2.20541134e-02 -3.07261143e-02  6.08663447e-02
  -2.15731990e-02  1.78261131e-01  7.23168999e-03  1.35452777e-01
  -5.16042523e-02 -1.35504633e-01 -2.61453856e-02 -6.70751184e-03
  -8.58506560e-03  1.17395453e-01  4.28954884e-02  1.91481113e-01
  -6.20931312e-02 -3.74052227e-02 -3.88038531e-02 -2.42829490e-02]
 [ 5.23047429e-03 -8.87911245e-02 -1.05225116e-01  4.69766781e-02
  -5.59261218e-02  6.28576428e-02 -2.45709531e-02  1.72077157e-02
   2.34081559e-02  8.64087716e-02 -2.26859525e-02  4.82068956e-03
   3.19025293e-02 -2.79823057e-02 -5.73676080e-02 -4.77105342e-02
  -4.02911156e-02 -4.93415743e-02  3.09910402e-02 -7.33582899e-02
   2.46466473e-02  7.82457218e-02  6.49626926e-02 -7.90693164e-02
   7.01513216e-02 -2.23063417e-02  4.83934805e-02  7.35743344e-02
  -8.11642557e-02 -3.79821658e-03  3.80212180e-02  5.39690182e-02
  -7.01474175e-02 -5.05250283e-02  2.59840791e-03 -5.30551672e-02
   1.01647250e-01  2.13354677e-02 -2.18413025e-02 -5.94587289e-02
   4.80623804e-02  1.91086922e-02 -4.57140766e-02 -4.29962156e-03
  -2.57910267e-02  2.68071741e-02  2.85569392e-02 -5.40852994e-02
   8.13327730e-04  4.74847741e-02  7.11566731e-02  7.69811124e-03
  -4.59352545e-02  9.93456226e-03 -7.33877271e-02 -1.88650936e-02
   1.02909999e-02 -8.04864839e-02  5.64127900e-02  6.81992844e-02
   6.88578933e-02  3.78224030e-02 -9.62253809e-02  2.11947821e-02
   2.89829895e-02  7.13642463e-02  1.06247962e-01 -5.21498248e-02
   5.75841442e-02 -4.93322313e-03 -6.70283884e-02 -1.79656669e-02
   4.29500714e-02 -3.50829437e-02  7.54069909e-02  1.71017833e-02
   6.39779568e-02  2.64533460e-02  7.65910931e-03 -6.06490187e-02
  -6.78497776e-02  1.06736422e-02  4.90066037e-02  7.46230707e-02
  -6.27838820e-03  5.44077232e-02 -3.18702646e-02 -7.89129511e-02
   7.99565837e-02  4.15271036e-02  8.19089822e-03 -1.54386843e-02
   3.69576588e-02  7.38661215e-02 -4.56474572e-02  7.95904100e-02
  -2.90162973e-02 -4.29452620e-02 -2.36851424e-02 -3.72065976e-02
  -5.10935113e-02 -5.64372614e-02  7.48817250e-02 -5.08598648e-02
  -4.49531563e-02  3.34480666e-02 -2.55353246e-02  1.77393500e-02
   8.16134810e-02 -6.92017972e-02 -7.28650838e-02  3.50501761e-02
  -4.17041406e-02 -2.88813747e-02 -5.43336198e-02  1.94081163e-03
   5.35266772e-02 -6.96229860e-02 -4.68863286e-02 -5.37230745e-02
  -6.84020445e-02  9.99166369e-02 -5.23722842e-02 -4.39075381e-03
   5.12072593e-02 -4.92922813e-02  6.91843033e-02 -2.80087851e-02]
 [ 2.86997557e-02  9.38951969e-03  2.90050358e-02 -1.97516941e-02
   7.94989243e-02 -1.20456740e-02 -7.24503025e-02 -5.04085645e-02
  -4.91813570e-03  1.21386722e-02 -1.90114044e-02 -1.33682191e-02
  -1.99952982e-02  6.29814193e-02 -3.15779559e-02  7.91713595e-04
   7.62182474e-03  2.80330926e-02 -7.47563764e-02  4.27440032e-02
  -1.02320090e-02  6.80545196e-02 -6.55295849e-02  5.46041876e-03
   3.58838215e-02 -4.92724814e-02  5.73749915e-02 -5.29594049e-02
   5.33350557e-03 -1.41121224e-02 -7.14240000e-02  2.47256011e-02
  -4.17610779e-02  3.84583250e-02 -7.10376576e-02 -7.53066093e-02
   5.46937808e-02 -5.99798635e-02  2.22503394e-02 -7.18024522e-02
   5.24648502e-02 -4.81352918e-02  9.50987637e-03 -2.72641331e-03
   4.61313799e-02  6.07086644e-02 -7.34134465e-02 -7.04207495e-02
   3.02114710e-02 -2.20284499e-02  5.69814667e-02  7.66098723e-02
   1.83026195e-02 -6.65566623e-02  5.70229962e-02 -6.34474307e-03
  -4.40200232e-02 -5.69541752e-03  4.91515547e-03 -6.16056174e-02
  -8.10782164e-02  2.21483111e-02 -2.92052217e-02  1.05315000e-02
   2.20782682e-02  5.47518954e-02  2.52505243e-02  6.30890355e-02
   2.77246833e-02 -7.31712729e-02  7.20824823e-02  2.61899531e-02
   9.59277153e-04 -7.76183456e-02  6.65474162e-02 -6.69892132e-03
   2.13925466e-02  6.32678643e-02  6.82648793e-02  5.00623360e-02
  -8.33950937e-03  1.24233142e-02 -8.10343027e-02  8.10785592e-03
   4.12241668e-02  5.66329136e-02 -6.97957724e-03  7.67746195e-02
  -1.99235529e-02 -2.84865722e-02  7.47568235e-02  4.09406498e-02
  -7.51200095e-02  7.32736811e-02  4.03671116e-02 -4.36611995e-02
  -4.77243699e-02  6.54001758e-02  6.44244179e-02 -8.07459876e-02
  -8.52648914e-03 -8.43729824e-03 -7.74446279e-02 -4.76317406e-02
   1.77408010e-02 -1.61774904e-02 -7.30235279e-02 -2.65461281e-02
   2.16921940e-02 -2.28003003e-02  1.82130784e-02  9.78560746e-03
   4.08770069e-02  6.50855377e-02 -6.45727292e-02  5.80850989e-03
  -3.85980085e-02 -3.13715190e-02 -3.59498411e-02  5.17575666e-02
   5.86116537e-02 -2.58155279e-02 -2.34391205e-02  6.85020760e-02
   1.02228448e-02  2.54555047e-02  7.64173940e-02  8.85388255e-03]
 [ 3.38031724e-02  3.75916436e-02  7.81288072e-02 -1.96475983e-02
   6.88857660e-02  6.64207414e-02  6.28033206e-02  2.92963833e-02
  -1.95181072e-02 -3.63735631e-02  4.00928184e-02  2.82975286e-03
  -3.82002778e-02 -3.22721601e-02 -2.23995149e-02  2.15879455e-02
  -7.56437704e-02  5.43130115e-02 -1.57313943e-02 -7.83952028e-02
  -2.60960869e-02  2.79697925e-02  3.35139856e-02  5.16287163e-02
  -3.90696488e-02  4.62325737e-02  5.61060533e-02 -3.66491899e-02
   4.35827449e-02 -6.24370463e-02  2.87777483e-02 -6.62673637e-02
  -4.49881554e-02 -2.85127759e-02  1.43205151e-02  3.65878642e-03
  -3.60773765e-02 -5.37144467e-02 -5.44568151e-03  7.97638670e-02
   7.40933940e-02  6.92426190e-02  6.19129613e-02 -7.09605590e-02
  -5.87609336e-02  3.29307243e-02  3.64401639e-02  7.72120878e-02
  -4.73443530e-02 -2.62436010e-02  6.58871606e-02 -2.49861665e-02
   7.72804245e-02  8.08389410e-02  3.74432579e-02  7.52282888e-03
  -7.12179914e-02 -7.17926472e-02 -4.19065990e-02 -4.93886247e-02
   4.94762287e-02  7.51185790e-02 -4.37199511e-02 -1.71373710e-02
   2.90511325e-02  7.02626035e-02  2.26901323e-02 -4.04521860e-02
  -3.54944617e-02 -2.30710544e-02  6.31616935e-02  1.98165551e-02
   6.35832325e-02  2.17801258e-02  3.85314077e-02 -4.29550037e-02
  -2.75805555e-02 -3.45488414e-02  9.76872444e-03  8.05335492e-03
   3.68086174e-02 -5.29507995e-02 -8.03506374e-02  7.15271160e-02
  -3.80644836e-02 -7.08474070e-02  1.19766146e-02  2.19082832e-02
  -6.55745715e-02  2.93752998e-02  2.34574378e-02 -1.20911971e-02
  -6.71458095e-02  6.89997748e-02  7.11328536e-03  6.28502294e-02
   7.35746548e-02 -6.23464473e-02 -1.84680745e-02 -2.83727087e-02
  -7.26662353e-02  3.62398550e-02  1.93138197e-02  2.88173705e-02
  -1.41508430e-02  4.46578190e-02 -9.58814472e-03  2.91529670e-02
   3.05327401e-02 -8.44157487e-03  7.66418055e-02  2.56310627e-02
   1.51645318e-02  2.84942091e-02  6.44048527e-02  1.37768984e-02
  -5.00999838e-02 -6.57121614e-02 -6.70519173e-02 -5.75066879e-02
   1.73507482e-02  3.72572094e-02 -5.24129607e-02 -2.51509883e-02
   2.51072422e-02 -6.99917302e-02 -7.37945661e-02  4.30573821e-02]
 [ 6.16426021e-03 -6.76587522e-02 -3.15620601e-02 -7.00985491e-02
  -1.60979554e-02 -6.08997867e-02  3.65945399e-02  4.95083258e-02
  -6.84346482e-02 -5.01691960e-02  6.45063818e-03  6.90518841e-02
  -2.27198899e-02 -3.36138345e-02  3.17258537e-02 -1.72791183e-02
   3.92571092e-04  8.98043811e-03 -3.15256454e-02  6.75375015e-03
  -4.57579158e-02  1.33737922e-03  6.48644492e-02  5.58973029e-02
  -2.09528357e-02  1.30325034e-02 -3.88948135e-02  2.96883285e-04
  -2.30503641e-02  6.83010742e-02  3.22025418e-02  7.75962695e-02
   2.72323117e-02 -3.79422456e-02  8.07453766e-02 -3.30733284e-02
  -8.19690526e-04 -6.20190874e-02 -6.21260293e-02 -1.84972212e-02
  -1.98998079e-02  4.71884534e-02  2.56261304e-02  4.02072668e-02
  -1.50379837e-02 -2.79144309e-02  3.43463272e-02  2.94585899e-02
   9.16028023e-03 -6.91987425e-02  2.65849382e-02  2.97091901e-04
   2.03630552e-02  2.39006877e-02  5.79897240e-02 -5.28566204e-02
   2.51813680e-02  3.09458598e-02  6.83721825e-02 -8.04268643e-02
   6.74343780e-02  6.33168966e-03 -2.27815807e-02  4.79168445e-03
   1.19359493e-02 -3.92520316e-02 -6.85821399e-02 -1.58314183e-02
   3.29956859e-02 -5.96118942e-02 -6.12067804e-02 -6.68266490e-02
  -2.45644189e-02  7.40441009e-02 -2.41587386e-02  7.97830150e-02
  -7.99113885e-02  6.14090785e-02  8.06343332e-02  3.85466814e-02
  -1.07399523e-02 -3.90700996e-03 -4.80575860e-03 -7.13781491e-02
  -3.22887152e-02 -6.64038137e-02 -4.27270271e-02  3.58698219e-02
   2.04086527e-02 -5.48726767e-02  4.21803519e-02  7.36088976e-02
  -6.55808151e-02  7.92370364e-02 -2.69728675e-02 -6.59441948e-03
   6.14386722e-02  7.97820762e-02  4.52425703e-02  4.62799296e-02
  -8.08977932e-02 -4.39415090e-02  6.83143213e-02  5.83366081e-02
   5.53526953e-02  6.45769611e-02 -1.28103122e-02 -4.59946766e-02
  -4.44720574e-02 -4.69798595e-03 -3.58121134e-02  2.39794701e-02
  -1.72487944e-02  4.74424437e-02 -9.67104733e-03 -6.81514367e-02
  -1.00364983e-02 -3.76102850e-02 -6.35336637e-02  8.07475671e-02
  -6.28746301e-03  3.44447643e-02 -1.44082531e-02 -2.03770958e-02
   5.07056192e-02  6.55268952e-02 -7.16182590e-03  5.20700589e-02]
 [ 2.29514688e-02 -5.04257008e-02  1.88237652e-02 -8.04503262e-02
  -2.29603834e-02  5.05591929e-03  3.96060199e-03 -7.21140504e-02
   5.28965965e-02  2.38582417e-02 -1.76414996e-02 -3.74944694e-02
  -8.04184005e-02 -4.77986895e-02  5.70426807e-02 -3.57443094e-03
  -3.02120894e-02 -7.79538304e-02 -6.84463233e-02  1.34973377e-02
  -1.07396990e-02 -2.75444314e-02  3.62819433e-03 -4.76052649e-02
  -1.93410367e-03 -4.74569015e-02 -6.59595579e-02  1.05679780e-02
  -7.29463100e-02  1.98915303e-02 -4.58236113e-02  2.45464295e-02
   5.48081622e-02 -1.99720152e-02  7.83318356e-02  7.79904202e-02
  -1.10987350e-02  4.32431474e-02  7.32940063e-02  7.48594925e-02
   3.05006579e-02  7.37308785e-02 -2.68510729e-02  5.55656031e-02
   3.30299512e-02  5.33792004e-02 -3.50005925e-03 -5.71623519e-02
  -6.01943657e-02 -5.02759255e-02  7.58161321e-02 -7.43096992e-02
  -6.22187778e-02 -5.20448983e-02  4.54299822e-02 -5.24879992e-03
  -7.32818320e-02 -3.42700183e-02 -1.36194453e-02 -9.35828686e-03
   4.53738943e-02  4.46331427e-02 -3.99513021e-02  2.85069197e-02
   3.65421176e-02 -1.49818286e-02 -3.86790931e-02  2.93653458e-02
   4.13971320e-02  3.90963405e-02 -5.00214100e-03 -8.09720904e-02
   5.04811034e-02 -6.21108115e-02  6.57534078e-02 -4.54461649e-02
  -6.64248541e-02 -1.14936605e-02 -5.93774766e-02  6.51270226e-02
  -5.91252446e-02  6.25110939e-02 -5.45369238e-02 -4.20808941e-02
   3.14863473e-02 -3.97988781e-02 -1.46633014e-02 -7.59316236e-02
  -2.89795622e-02 -2.36332417e-05  6.82046190e-02 -6.88985884e-02
   5.64626679e-02 -3.36203314e-02 -3.36525291e-02  3.31699252e-02
   1.91712007e-02  7.08559826e-02  1.46617368e-02  1.72265396e-02
   6.49385899e-03 -4.57939431e-02 -1.11289397e-02 -5.64190820e-02
  -5.35729676e-02  2.86504030e-02 -1.97581351e-02  7.68449530e-02
   7.94395283e-02 -2.57418863e-02 -1.35220140e-02 -1.36842430e-02
  -1.18434504e-02  5.68434373e-02 -1.60693377e-02  2.17902809e-02
  -6.48927614e-02 -8.57717544e-03  6.54000863e-02  4.04349938e-02
  -6.05302155e-02  3.60020548e-02  7.88130239e-02 -3.86572629e-03
   5.91416433e-02  3.43933180e-02  7.00532421e-02  7.89923593e-02]
 [-8.07155520e-02  3.77863199e-02  7.73612633e-02  1.63812935e-03
   1.80759132e-02 -2.92605124e-02  7.57694244e-04 -3.81271616e-02
  -5.06735221e-02  3.73748019e-02 -1.38840452e-02 -6.95895106e-02
  -4.31164019e-02 -2.03140341e-02  7.39789978e-02 -1.05630085e-02
  -6.92185014e-02 -2.93812379e-02  1.39038861e-02  3.99224907e-02
  -5.43992184e-02 -4.51971665e-02 -5.85787296e-02  4.79983613e-02
   3.18993405e-02 -2.02312283e-02 -4.88383323e-03 -1.29336119e-02
   1.35525689e-02  3.63402069e-02  6.64104298e-02 -2.59784907e-02
  -7.24722892e-02 -2.16542929e-02 -5.50640672e-02 -5.69342561e-02
  -4.04280312e-02 -4.57690358e-02  8.12500715e-04  6.83693662e-02
   6.55635521e-02 -4.77954000e-03  6.79588243e-02 -7.10229799e-02
  -3.27975303e-03  7.39143714e-02 -5.76921813e-02 -4.52838019e-02
   2.72799432e-02 -1.31253898e-02  1.64895505e-03  1.81451663e-02
  -1.18210912e-03  6.36874214e-02  2.14490965e-02 -6.13401979e-02
  -2.04613917e-02  4.41879705e-02  3.26788425e-02 -5.06975390e-02
  -8.09320435e-02  3.43857408e-02  4.26088274e-03 -5.07683940e-02
  -4.03369665e-02  6.18506894e-02  4.43027839e-02  1.33372545e-02
   4.22268808e-02  5.94030321e-03 -2.67766789e-02  5.23653254e-02
  -6.97271228e-02  7.71403685e-02 -6.73485473e-02  3.44098583e-02
  -2.46224143e-02  4.96594980e-02 -7.13789761e-02  3.56640816e-02
  -5.86243272e-02 -5.78063168e-02  2.25654393e-02 -3.54842134e-02
  -5.08694574e-02 -3.49207744e-02 -7.51513019e-02 -4.04615253e-02
  -6.02953508e-02 -7.91172981e-02 -6.78167641e-02  6.37837276e-02
   3.15766186e-02  3.41044292e-02 -7.02509359e-02 -7.98331648e-02
  -1.30220652e-02 -6.72680885e-03 -2.18532085e-02  2.77317986e-02
   1.49181038e-02 -5.83989993e-02  6.46886006e-02 -6.31401092e-02
   2.15098783e-02 -4.48556505e-02 -3.69552188e-02  1.32685900e-03
   8.25253874e-03 -3.92278582e-02 -2.91475542e-02  7.46525899e-02
   6.06839582e-02 -3.65021043e-02  6.58133999e-02 -3.28782238e-02
   1.41321793e-02  3.80801708e-02 -6.14209548e-02 -6.57861307e-02
   5.69063053e-02 -1.74276531e-02 -8.86701792e-03  7.24712387e-02
   3.96309793e-03  7.18087479e-02 -5.62969223e-02  5.39482459e-02]
 [-1.73474625e-02  1.74093023e-02  5.68514094e-02 -1.63382366e-02
  -2.41461098e-02 -5.77787794e-02 -4.64360155e-02 -4.09164019e-02
  -5.70793897e-02 -7.20148236e-02 -7.02108145e-02  5.17574772e-02
  -7.97842368e-02 -6.41678050e-02  1.35451481e-02  5.43112233e-02
   3.34640220e-02 -8.82758945e-03  6.21762946e-02  6.92377239e-03
   7.67872706e-02  7.79240653e-02  6.18986860e-02  1.77720115e-02
  -5.78914434e-02 -6.42841831e-02 -1.29004270e-02 -2.17988677e-02
   4.66713086e-02  6.31861389e-03 -1.53647214e-02 -1.90011747e-02
   6.15108833e-02  7.18009844e-02  7.04737529e-02 -3.86693105e-02
   7.53188133e-03 -2.45383307e-02  8.34689289e-03 -5.97450770e-02
   3.79324779e-02 -1.23599172e-03  7.72872791e-02  7.35351369e-02
  -4.71925288e-02 -6.45300522e-02 -4.48118299e-02 -7.68470764e-02
  -3.13180275e-02 -5.47129214e-02 -8.46324861e-03 -3.26243117e-02
  -3.69851738e-02  1.36439651e-02  6.65959790e-02  2.37189978e-03
  -3.13862339e-02 -7.13229179e-02  4.64481637e-02  2.40562037e-02
  -7.80487806e-02  1.90193355e-02 -4.30406630e-03  7.75972754e-03
   5.57836816e-02  1.15482137e-02  7.41001740e-02  6.07591793e-02
   2.49152705e-02  4.51048985e-02  3.27314660e-02 -7.24665076e-02
   3.55616286e-02  7.30747730e-03  5.95039353e-02 -3.92008238e-02
  -4.95853536e-02  3.26505378e-02  3.90594602e-02 -3.95574197e-02
  -3.43760923e-02 -4.55345809e-02  3.60417143e-02 -3.63722108e-02
  -5.25097474e-02  2.98939571e-02 -5.84737584e-02  3.64695787e-02
  -1.65931135e-02  5.47771975e-02 -1.95617750e-02 -3.14180069e-02
  -5.74777015e-02  4.58491221e-02  5.78398332e-02 -7.10910335e-02
  -7.92439431e-02 -3.47552970e-02  7.24687353e-02  4.46659252e-02
  -2.37114243e-02  4.54701483e-03  5.48511744e-03  5.83336875e-02
   6.97106868e-03 -6.24480881e-02  6.59364834e-02  4.76463810e-02
  -5.24360910e-02 -4.24610823e-03 -2.13873088e-02  7.36340880e-03
  -7.38921091e-02  2.28170305e-03 -7.98513368e-02  2.01343000e-03
   5.03672138e-02 -3.83780152e-03  2.68149897e-02 -3.43813896e-02
   5.49586862e-03  3.99375185e-02  2.99872234e-02 -7.18266815e-02
  -2.91658193e-03 -4.94287536e-02 -6.70975000e-02  6.60440847e-02]
 [ 3.32490951e-02  6.56960905e-03  6.39691949e-03 -6.48096651e-02
  -5.97970039e-02 -4.68036942e-02  5.89356497e-02  5.56599274e-02
   2.00791135e-02 -7.71949366e-02  2.54786909e-02 -2.46405341e-02
  -5.77107444e-02  3.74903306e-02 -3.82945910e-02  2.17195600e-02
   1.98185667e-02  2.13831738e-02 -7.75823742e-02 -3.86404768e-02
   1.06673539e-02 -3.44530568e-02  7.06179067e-02  3.67650688e-02
  -5.50656915e-02  3.16113159e-02  6.90940991e-02  5.18443957e-02
  -5.24929054e-02  3.18972021e-03  6.20554611e-02 -1.98519453e-02
   4.89125326e-02  5.25176004e-02 -3.68940160e-02 -2.95340493e-02
  -2.59488821e-03  3.76759991e-02  6.15585521e-02 -6.07381165e-02
  -5.74194156e-02  5.12568578e-02 -7.27935359e-02  4.69121411e-02
  -5.17835766e-02  4.81912717e-02 -5.32480106e-02  7.59010538e-02
   3.07418853e-02 -6.93812370e-02 -3.02700102e-02  7.38609210e-02
   1.61283538e-02 -1.70338154e-02  4.31097150e-02  5.46641722e-02
   2.84140930e-02 -6.41769543e-02 -6.83297366e-02  6.53227642e-02
  -2.15565376e-02  2.46923789e-02 -5.02640903e-02  7.31393322e-02
   8.07882622e-02 -7.04535618e-02  5.95942065e-02  2.42736489e-02
  -5.61095551e-02  5.95700815e-02 -3.40008885e-02  6.94958493e-02
  -6.26298711e-02 -6.27601519e-02  8.88247043e-03  2.74557993e-02
   7.80164078e-02  5.74569479e-02 -7.84825534e-02 -6.61965460e-02
   5.07066473e-02 -4.49376442e-02 -4.20793891e-03 -1.85922831e-02
  -7.42943436e-02 -2.94599682e-03  4.05612513e-02 -7.39173219e-02
  -3.22637670e-02  6.79685995e-02 -5.15253134e-02  8.04758742e-02
  -3.79297882e-03 -7.35612661e-02 -3.97333615e-02 -6.25845417e-02
  -8.04982632e-02  3.31522673e-02  7.15826526e-02  5.24771884e-02
  -7.69639015e-02  7.78544694e-03  4.55279425e-02 -4.24847007e-03
  -6.59164116e-02  4.74464670e-02 -4.42437306e-02  1.69510469e-02
   3.17958221e-02  1.22130290e-02  2.03883722e-02 -2.40777507e-02
   6.32345453e-02 -3.56521495e-02  7.92418942e-02  2.93321609e-02
  -4.22362015e-02 -5.79339117e-02 -5.28535247e-03 -6.53108209e-03
  -7.47264400e-02  1.69455335e-02  9.84922796e-03  6.19993433e-02
   4.60544154e-02  4.02985588e-02 -2.17511989e-02 -5.51421754e-02]
 [-1.83190331e-02 -6.82689548e-02 -6.71377778e-02 -3.19691673e-02
  -1.34662613e-02  3.34911868e-02 -3.69195417e-02  7.74808899e-02
  -6.95480853e-02 -1.98371708e-04 -4.07910310e-02  4.63622138e-02
  -3.26057859e-02 -7.29078874e-02  1.89326182e-02 -1.52779892e-02
  -4.89826165e-02  3.91722471e-03 -6.49573132e-02  9.00323689e-03
  -1.59905329e-02  1.18179843e-02 -3.94430012e-03 -8.05866793e-02
  -1.57875195e-02 -7.78452978e-02  4.27455530e-02  4.71002087e-02
  -7.49335140e-02 -6.10005111e-03 -6.39380068e-02  7.99045041e-02
  -7.60756955e-02  3.55636552e-02  1.84207559e-02  5.76195046e-02
  -7.46645406e-02 -1.08523816e-02 -6.69461414e-02 -7.48644397e-02
   6.63203001e-03 -3.23602259e-02 -7.04022795e-02  4.76847216e-02
   7.16014877e-02 -2.58827880e-02 -4.69142497e-02 -3.43961827e-02
   2.74401605e-02 -3.98700833e-02 -2.24212296e-02 -6.93165511e-02
  -1.87934041e-02 -3.00172195e-02  5.51562533e-02 -1.77589059e-03
   7.86735639e-02 -7.78303891e-02  6.50072768e-02 -2.32580975e-02
   3.42296809e-02 -9.66984779e-03  2.62580290e-02 -2.31282786e-02
   4.06111255e-02  5.54113910e-02 -7.88826644e-02  4.77165952e-02
  -7.62961805e-03  8.09807703e-02 -2.86507159e-02  2.92264372e-02
  -5.58418781e-03 -8.09993595e-02  4.53054830e-02  2.45200172e-02
   1.68009773e-02 -3.61247770e-02  3.72335017e-02 -4.18644622e-02
   7.06025138e-02 -6.46755919e-02  2.59466618e-02 -7.82762393e-02
   2.24017575e-02 -8.38488340e-04 -2.96626911e-02 -3.35524157e-02
  -2.09902935e-02  1.07726529e-02  6.67676255e-02  1.94394961e-02
   4.01499048e-02 -7.83692300e-02 -5.75048923e-02 -7.56420493e-02
  -3.55785638e-02  3.18856090e-02  4.33514789e-02  7.16409311e-02
  -1.32873654e-04 -2.24243440e-02 -1.03579834e-02 -1.39732957e-02
  -2.73472555e-02 -7.27599114e-02 -4.87228259e-02 -3.86185087e-02
  -7.76314959e-02  6.97207227e-02  7.83796385e-02 -3.51390429e-02
   1.11205280e-02 -3.80970873e-02 -5.35591431e-02 -3.04472074e-02
   6.54167756e-02  1.77236646e-02 -4.32538204e-02 -1.57261789e-02
  -4.84373160e-02  7.04875961e-02  4.31057662e-02 -4.59906533e-02
   1.17837638e-03 -1.00929663e-02 -1.17486566e-02 -5.19610196e-03]
 [ 2.13768631e-02  4.22064215e-02 -6.54996336e-02  1.41584575e-02
  -9.66748595e-03 -6.02487847e-02 -7.31565207e-02  7.19474331e-02
   8.79766792e-03  6.88520595e-02  3.01792547e-02 -7.40655884e-02
   6.51018098e-02  6.30512908e-02  1.01265982e-02 -4.46805358e-03
   7.55722448e-02 -1.33399442e-02 -8.88157636e-03  7.56987110e-02
   7.27950260e-02 -4.54729088e-02  3.89633849e-02 -1.77639499e-02
   4.82139662e-02 -4.44381163e-02  4.18660045e-02 -6.85850829e-02
   1.48452222e-02  7.75114521e-02 -5.59506118e-02  2.97500193e-02
  -5.36562800e-02  8.13802332e-03  4.98166755e-02 -1.79265663e-02
   2.51242816e-02 -1.99523307e-02 -7.40627646e-02 -1.69931799e-02
  -3.87349725e-03  6.60992786e-02 -1.83397457e-02 -1.14910901e-02
  -6.24380708e-02 -4.83250953e-02 -3.10375653e-02  6.93162754e-02
   4.81254831e-02 -2.08282955e-02 -2.37292945e-02  7.07494840e-02
   2.59543359e-02  2.86208019e-02  7.58529380e-02  4.59738448e-02
  -2.04534419e-02  2.43052244e-02  5.90785667e-02 -3.08903046e-02
   1.86946839e-02  5.60813174e-02  2.64845192e-02 -6.52466714e-03
  -4.27737087e-02 -3.85686345e-02 -4.04961780e-02  7.07359686e-02
   2.89902985e-02  7.08054379e-02 -7.47836977e-02 -2.98942663e-02
   5.73951975e-02  7.44799599e-02 -7.46084154e-02 -8.90161097e-03
   7.61719719e-02 -9.82468575e-03  1.36872381e-03  1.63845867e-02
  -6.12996258e-02  4.20224965e-02  1.34855211e-02  7.50047192e-02
  -2.93032490e-02  5.44021204e-02 -5.22354245e-03  1.30299181e-02
  -1.85401887e-02 -3.10524739e-02 -4.87357825e-02 -5.84878772e-02
  -7.56808445e-02 -9.20286775e-03  5.59983030e-02  1.08058378e-02
   1.98682696e-02  5.80187663e-02 -5.56888878e-02 -3.47352996e-02
   1.32767707e-02 -1.58458054e-02  5.26444614e-03  4.86700758e-02
  -5.59569746e-02  7.91313499e-03 -3.51246558e-02 -5.57962172e-02
  -6.34429455e-02  6.52931854e-02 -1.50106028e-02  2.75492072e-02
   3.11742723e-03 -1.08374134e-02 -1.52324885e-02  1.86486989e-02
   7.06518069e-02  3.20659354e-02 -3.78987342e-02  2.39619911e-02
   5.64832315e-02 -1.52207315e-02  7.70693496e-02  1.85462981e-02
   6.73594400e-02 -8.97583365e-03  3.63450572e-02  1.39416009e-02]
 [ 6.83322921e-02 -3.54757234e-02 -6.93620518e-02  5.68604544e-02
  -3.47201787e-02  6.87192306e-02  1.84205621e-02  7.97214136e-02
  -6.55256659e-02 -2.36263536e-02 -4.07241397e-02 -6.46459237e-02
  -5.22442162e-02 -7.53423274e-02 -7.80789256e-02 -2.27076523e-02
  -8.86750221e-03 -4.27163132e-02  2.39905342e-02 -4.69346344e-03
   6.03260621e-02  4.97965738e-02 -5.95183149e-02 -1.74087062e-02
  -1.45547017e-02  7.90023878e-02  3.25720236e-02 -7.68672824e-02
  -1.58777311e-02  7.35708252e-02  3.29223126e-02 -7.54665583e-02
  -3.49047817e-02  1.56431347e-02  4.18117270e-02  3.48720402e-02
   7.72748068e-02  5.70118800e-02  1.52082220e-02  4.76707146e-02
  -2.55700462e-02 -6.59205765e-03 -5.60164005e-02  6.43479750e-02
  -2.05521472e-02  6.13331124e-02 -3.06645669e-02  4.18180302e-02
   6.39861450e-02  3.64316180e-02  4.54354510e-02  2.22230926e-02
  -4.92778346e-02  1.27567798e-02 -6.70200661e-02 -1.33547410e-02
   3.49794105e-02  6.80759922e-02  7.16773644e-02 -4.42453139e-02
   3.70303541e-03  3.67915630e-02 -4.44405153e-02  4.88351062e-02
  -1.87177919e-02 -1.85136199e-02  7.90692940e-02  7.95698836e-02
  -3.14490050e-02  8.98122787e-03 -2.74424963e-02  7.86727890e-02
  -7.97542036e-02 -3.36158648e-02  2.61321738e-02  1.99183524e-02
   7.86156580e-02  7.14473948e-02  7.24702552e-02 -3.62476893e-02
   2.00028196e-02  4.89316061e-02  7.27615729e-02 -2.63735652e-04
   7.95729086e-02  6.46465495e-02 -5.77362739e-02 -7.51128793e-02
   6.32527992e-02  2.87604406e-02 -6.82250410e-02  3.68277431e-02
   3.00153643e-02 -7.90362060e-03  3.57515290e-02 -2.18585245e-02
  -2.55366489e-02  7.87268355e-02  7.42243007e-02  3.44887376e-02
  -1.17797926e-02 -2.38851197e-02 -1.44615471e-02 -6.85494170e-02
   3.49441543e-02  3.94547954e-02  4.28110734e-02  2.48106718e-02
  -6.08866736e-02  7.81825408e-02  7.02816322e-02 -1.83908939e-02
   3.87775823e-02 -1.96896382e-02 -1.35766491e-02  7.37152994e-04
   3.18401977e-02  1.01570189e-02 -6.10922277e-03  5.89360371e-02
   4.47321758e-02  6.52357116e-02  1.96928084e-02  1.96893886e-02
  -1.88800022e-02 -2.13246122e-02  1.11503303e-02 -7.14558885e-02]
 [ 6.63915798e-02 -3.52906771e-02 -1.91354752e-03 -3.83299217e-02
   6.78656623e-02 -3.77307646e-02  1.52979270e-02 -5.48796393e-02
  -3.51519883e-03  5.85936531e-02 -6.08471110e-02  8.04732665e-02
   3.94041613e-02 -7.96198770e-02  9.23401862e-03 -5.57278767e-02
   2.38240734e-02 -5.70254177e-02 -9.82271880e-03  1.26525089e-02
  -6.38624281e-03 -2.86668427e-02 -7.60549009e-02  1.66215971e-02
  -6.59848154e-02  7.10259378e-03 -7.28134364e-02 -6.00394644e-02
  -4.14815247e-02  2.03031674e-02 -5.53246140e-02 -3.96682099e-02
   5.15534356e-02 -4.81262617e-02 -5.31422347e-03 -1.38427392e-02
  -5.94430342e-02 -3.30141187e-03  4.59040925e-02  4.01675850e-02
   7.78903142e-02 -2.76948996e-02  4.15891036e-02  6.62943348e-02
   9.04533267e-03  6.64011464e-02 -1.96755417e-02  2.03421488e-02
   7.92845115e-02 -5.38004860e-02 -5.08625880e-02 -7.70563185e-02
   1.32270902e-02 -4.10389900e-03  5.99069521e-02  6.49144426e-02
  -2.91913003e-02  5.12940809e-02  1.74426436e-02 -3.14242914e-02
  -3.03176045e-03 -4.18898128e-02 -9.17389989e-04  5.31088337e-02
   1.86559856e-02  4.22290489e-02 -6.25511035e-02  8.59773159e-03
  -6.51746541e-02  2.38385946e-02  1.04858279e-02 -3.69339101e-02
  -1.96848065e-03 -6.71620890e-02 -3.84452939e-02 -4.14273180e-02
  -5.19439690e-02 -2.07869336e-02 -3.95277143e-03 -1.45047083e-02
   2.13194340e-02 -4.37960029e-03 -5.99626452e-03  3.88261825e-02
   1.11649483e-02  7.28153959e-02 -4.58957627e-02 -1.28270760e-02
   4.34959754e-02 -2.17585638e-02 -6.55920357e-02  5.50708398e-02
   4.35098261e-03  3.81838232e-02 -7.05837309e-02  6.76071271e-02
   6.77552074e-03  7.69692138e-02 -4.00568321e-02 -1.71368048e-02
   3.39814574e-02  4.54725102e-02  2.31000036e-03 -4.54864278e-02
  -1.53171271e-03  1.52790770e-02 -6.81427866e-03  5.77997491e-02
  -3.67126390e-02  1.85650587e-02  2.49781236e-02  7.34958127e-02
  -4.86840345e-02 -2.62461156e-02 -7.71961361e-03  8.50063562e-03
   2.34412700e-02  7.75958374e-02 -6.75070882e-02 -3.93570177e-02
  -1.07124522e-02  7.99688026e-02 -3.30036134e-02  7.96711519e-02
   2.07347199e-02  3.88679504e-02  3.48291099e-02  4.49309573e-02]
 [ 3.15886065e-02 -6.49630725e-02 -1.55712739e-02 -6.47665188e-02
   5.50255850e-02 -7.67059475e-02  5.23766205e-02  4.63724956e-02
   6.94079027e-02  6.01877496e-02 -8.97318125e-03  6.83344975e-02
   7.79663548e-02  6.15990832e-02 -8.05614591e-02 -3.23133171e-03
  -9.49300081e-03  8.74947757e-03  6.70468286e-02 -7.56666064e-02
   1.71158686e-02 -3.72943766e-02  1.98190659e-03  2.39451677e-02
   9.96324420e-03  5.23764268e-02 -8.69359076e-03  3.41280028e-02
  -1.00237206e-02  4.37382236e-02 -9.63263214e-04  4.48028967e-02
  -4.62486446e-02  6.04938641e-02 -7.79716596e-02 -1.80598870e-02
   5.83072752e-03  8.09769109e-02 -1.98268145e-03 -4.33313660e-02
  -7.75243044e-02 -4.83039990e-02  6.92580864e-02 -1.24826580e-02
   1.90872326e-02  1.70688331e-02  5.42858765e-02 -4.89432253e-02
  -1.86047629e-02 -2.29371376e-02 -6.22907132e-02  6.61188364e-03
  -1.42694190e-02  3.95785570e-02 -2.82268003e-02 -4.96046916e-02
   2.07731053e-02 -3.18651870e-02 -3.08448188e-02 -6.32759184e-03
   4.48856130e-02 -3.89887765e-02  4.45953831e-02 -2.06968524e-02
   5.25313243e-02  2.27144361e-02 -9.18369740e-03  3.38092074e-02
   2.68467590e-02  7.80977309e-03  6.95120171e-02  6.45704344e-02
  -4.08416577e-02 -5.83316982e-02  7.88237378e-02 -4.49408367e-02
  -2.46579573e-02 -2.25136690e-02 -7.17813671e-02  3.92723754e-02
   8.81853700e-03  7.29173794e-02 -1.47603452e-03  4.68567014e-03
   2.13492513e-02 -6.66226074e-02  2.86751986e-03  3.53435874e-02
   3.72658148e-02 -5.56470007e-02 -6.05610162e-02  7.87124708e-02
  -4.28989045e-02 -5.16522676e-02 -4.12121415e-04  3.72919738e-02
  -7.41299316e-02 -4.42351215e-02  5.02944738e-03 -7.60418922e-03
   3.89036536e-02 -5.71020916e-02 -6.96876645e-03 -7.53240511e-02
   6.26672879e-02 -6.92587867e-02  5.66553399e-02 -7.78769180e-02
   4.63437065e-02  6.17323592e-02  7.61692971e-03  3.42199504e-02
  -6.01434484e-02  4.42001149e-02 -4.82239760e-02 -1.54694244e-02
  -7.90562481e-02 -3.63188162e-02  8.43699276e-03 -4.53708619e-02
  -6.15989044e-02 -6.98399767e-02 -6.77531213e-03 -6.94426969e-02
   7.86907971e-03  6.96009323e-02 -1.77907124e-02 -6.60755858e-02]
 [ 1.97046250e-02 -3.37923244e-02 -3.72160152e-02  3.59334797e-03
   4.23952416e-02  3.73806655e-02  2.39045545e-02  7.08717778e-02
  -8.27000290e-03  4.31105494e-04 -1.54691190e-03 -1.83271617e-02
  -7.03897700e-02  4.64302376e-02  4.93932292e-02 -6.48335218e-02
  -6.70186207e-02  3.93864512e-02  6.24855235e-02 -7.38799274e-02
   2.64953077e-02 -1.74824595e-02  1.59524754e-02  7.08154216e-02
  -8.67734849e-03 -1.08449981e-02  6.94467351e-02 -2.92193778e-02
   3.63644361e-02  3.26034427e-02  3.28074247e-02  6.56151548e-02
  -1.42809078e-02  7.83750489e-02 -1.53283700e-02  7.25072697e-02
  -5.03694043e-02 -2.61056796e-02  2.45346949e-02 -6.86675385e-02
   3.44555154e-02 -6.89500272e-02 -4.65588309e-02  6.70858994e-02
   1.07293501e-02 -5.78593984e-02  2.55247205e-02  3.04223150e-02
   6.76806495e-02 -8.32494348e-03  6.60994723e-02 -3.73506881e-02
   7.89315477e-02 -6.17503226e-02  6.88228831e-02 -5.40562943e-02
  -5.65806553e-02  4.68152985e-02  5.16953543e-02  2.63437927e-02
  -3.48615982e-02 -3.93598527e-03  5.31539097e-02 -6.68150038e-02
   2.16088519e-02  6.33250177e-03  2.04353780e-02  7.87214413e-02
   2.33622715e-02 -5.94258606e-02  3.95516977e-02 -1.08929127e-02
  -2.73268558e-02  7.43822828e-02 -6.52331337e-02  3.55139151e-02
  -6.87563568e-02  2.74439156e-03 -1.86975077e-02  7.70457163e-02
  -5.57179153e-02  7.52239898e-02 -5.22065461e-02 -5.94201162e-02
   2.44856551e-02 -6.58137277e-02 -1.79805607e-03 -2.47197039e-02
   7.07311258e-02 -2.63271406e-02  1.21261179e-03 -2.52014026e-02
   3.61025333e-02  1.43743306e-03  3.02389115e-02  3.64878774e-03
   5.33960983e-02 -4.18297090e-02 -1.33798197e-02 -7.83816874e-02
   3.27948555e-02 -7.37182945e-02 -4.80340347e-02 -6.48293272e-02
   4.82909456e-02  6.97296187e-02  5.66162392e-02 -6.00532740e-02
  -2.77073160e-02 -5.47452196e-02 -1.68482438e-02  3.43496352e-02
   7.97535703e-02 -5.14609590e-02  5.96685335e-02 -4.05037999e-02
   6.28912225e-02 -4.61462699e-02  6.55666813e-02  4.10170779e-02
  -2.92238854e-02  7.62318149e-02 -7.32498243e-02 -1.62838697e-02
   7.99292699e-02 -5.69213182e-02  4.55077514e-02  7.33156875e-02]
 [-4.52402905e-02  3.49204987e-03  6.90106973e-02  3.94940898e-02
  -4.68274951e-03 -4.43727337e-02 -3.45951952e-02  4.09118161e-02
  -5.89056611e-02 -1.88742578e-02  5.37569895e-02 -4.72265854e-02
  -1.73643827e-02 -6.01243973e-02 -3.65604274e-02 -6.83090612e-02
  -6.91957474e-02 -1.01329610e-02  3.27767581e-02 -1.09517425e-02
  -2.90901586e-02  7.10011050e-02  8.38406384e-03  8.05863515e-02
  -4.88266945e-02  6.95303753e-02 -5.01917452e-02  7.78894648e-02
   2.08576322e-02 -1.42408907e-03 -7.16097653e-04 -2.61030123e-02
  -7.08827972e-02  5.99596426e-02  1.96477696e-02 -6.63146675e-02
   7.21470937e-02  1.31972656e-02 -1.60571113e-02 -2.35182717e-02
   4.89968807e-03 -1.82877854e-02  5.50783649e-02  4.99728993e-02
  -2.81252749e-02  1.43693835e-02 -4.11581285e-02 -5.91626465e-02
  -6.52863532e-02  6.38206080e-02 -7.33040273e-04 -3.15759331e-03
   5.96809462e-02 -4.87651378e-02  6.93186894e-02  4.06682864e-02
  -1.87194943e-02 -3.95978950e-02 -7.90991783e-02  4.59678993e-02
   6.65688738e-02  1.85051858e-02 -5.23915142e-02  7.66464397e-02
  -7.07531348e-02  7.59035870e-02  2.53242031e-02 -2.76380479e-02
  -4.63768803e-02  1.51526034e-02 -1.04965791e-02 -1.43511295e-02
   1.95637867e-02  5.25742397e-02 -5.95966950e-02 -6.86730891e-02
  -2.09782645e-02 -6.86221868e-02 -5.57140261e-02  2.15527490e-02
  -6.72240481e-02  4.53124419e-02 -6.68345392e-03 -7.63069615e-02
  -7.65791461e-02  5.45453057e-02  7.21704438e-02  8.07660297e-02
   2.93965638e-03  1.93854272e-02 -3.78798246e-02  5.37885949e-02
   5.95787093e-02  1.29397213e-02  1.38920546e-03 -3.45148221e-02
   3.71971428e-02  5.28207943e-02  6.45878091e-02  3.97801772e-02
   6.88729808e-02 -3.45223397e-03  3.60295698e-02  6.84138909e-02
  -1.17357969e-02  3.78924310e-02  6.49689659e-02 -2.70955674e-02
   5.91034442e-03  1.41655728e-02  3.12820002e-02 -7.04728067e-02
  -2.30851360e-02 -8.28094780e-03 -8.01943839e-02  5.41257933e-02
   4.57300916e-02 -4.82332781e-02 -2.18132921e-02  6.20749369e-02
  -7.80777484e-02 -5.60712852e-02  7.92267546e-02  4.64788899e-02
  -7.02623278e-02  5.96259162e-02 -4.38157730e-02  4.34833094e-02]
 [-3.75404954e-03 -4.39131595e-02 -1.68576613e-02  5.22824898e-02
  -4.71313819e-02 -3.87352146e-02  7.01503232e-02 -4.87312973e-02
   4.34667915e-02 -2.38906145e-02  1.66341662e-02 -5.21370247e-02
   5.67515194e-03 -2.25614719e-02  6.83734193e-02 -9.00236517e-03
  -1.81946680e-02 -3.11737061e-02  7.18131438e-02  7.47225210e-02
  -2.84342244e-02  6.36854693e-02 -2.94421613e-03 -6.89955950e-02
   3.77262011e-02 -3.58202755e-02  5.78761101e-05 -1.68676227e-02
   4.13355157e-02 -3.30924541e-02  6.35508448e-03 -6.88836426e-02
  -8.13606381e-03  6.66293502e-03 -5.01786545e-02 -1.99887231e-02
  -8.00792649e-02 -1.49867758e-02 -5.60943782e-03  7.29569271e-02
  -2.58238241e-02  4.06150743e-02 -2.96672732e-02  3.21832076e-02
  -3.35821956e-02 -1.28306299e-02  5.35975918e-02  1.92969367e-02
   6.82348832e-02  6.37752041e-02  3.26272100e-03  7.74123892e-02
   1.93505213e-02  5.28156087e-02 -6.22398742e-02  1.23592392e-02
  -4.45277691e-02  4.95185032e-02 -1.79255381e-02 -1.65699273e-02
  -1.79162771e-02 -4.04497460e-02  3.67700979e-02  8.16971809e-03
  -3.96340601e-02  9.50209796e-04 -7.42650107e-02  7.03354925e-03
   7.55583271e-02  3.55003253e-02 -3.53702717e-02 -6.80363774e-02
   4.73446772e-02 -4.54847068e-02  3.68584320e-02  3.50293219e-02
  -8.09812397e-02 -2.41478123e-02 -1.19563267e-02  3.26046646e-02
   6.64059743e-02  5.14797494e-02  7.22808167e-02  4.81798500e-03
   2.10110992e-02  5.08529171e-02 -4.86562438e-02 -5.08446246e-02
   7.82250538e-02  6.04666024e-03  2.64776498e-02 -6.44626915e-02
   4.50096205e-02  4.50850204e-02 -7.51822069e-02  4.76315692e-02
   3.45501378e-02  1.81875378e-02 -5.33787757e-02  7.59067014e-02
  -1.29606053e-02 -1.77647844e-02 -3.16310972e-02 -8.09063241e-02
  -4.46239598e-02  2.89179310e-02 -4.77365740e-02 -1.80206075e-02
   4.62429151e-02 -5.23354709e-02 -6.67299181e-02 -5.85977733e-02
  -2.04458088e-03 -2.88814418e-02  5.40828034e-02  6.89183995e-02
  -2.89055742e-02 -1.32253245e-02 -7.28779286e-02 -2.23402232e-02
  -7.56358653e-02  3.18019465e-02  3.04475948e-02 -2.63873823e-02
   4.95207235e-02  4.69735488e-02 -3.81909758e-02  4.04396728e-02]
 [-3.13755199e-02 -4.95454408e-02 -2.38363296e-02  6.84102550e-02
  -4.66702022e-02 -6.82863444e-02  3.95286083e-03  2.63629928e-02
  -5.31580076e-02 -6.76472262e-02  5.28317466e-02  2.32418552e-02
   9.93274152e-04  1.31913275e-02  2.54275054e-02 -5.13742827e-02
   7.37098232e-02 -6.04369268e-02  7.26965591e-02 -3.27277519e-02
   7.51395896e-02 -4.97470051e-03 -3.81194055e-04 -6.49769381e-02
   4.15203571e-02 -3.80157121e-02 -1.19042322e-02  3.68020609e-02
  -6.06272519e-02  7.92346224e-02 -7.79732838e-02  1.16584003e-02
   3.65333334e-02  5.22292331e-02 -1.93773247e-02  6.45831227e-03
   5.60092106e-02  3.53463739e-03  4.74409536e-02  5.29853776e-02
   6.58431426e-02 -6.32967651e-02 -3.27456594e-02 -4.63984795e-02
   4.68463376e-02  9.76557285e-03 -4.56035584e-02 -2.63976306e-02
   4.29597273e-02 -1.80770755e-02 -5.06179221e-02  6.70346543e-02
   5.22649512e-02  7.12151453e-02 -6.97662234e-02  6.77270219e-02
   4.01318073e-02  5.30405715e-02 -4.22096103e-02  3.67225781e-02
   4.07709181e-03 -8.28677416e-03 -1.60624310e-02  8.01089332e-02
  -1.97824426e-02 -6.85622245e-02 -1.06735826e-02 -2.21815147e-02
   1.77408382e-02  8.05808231e-02  6.68888763e-02 -8.04999694e-02
  -6.70033619e-02  6.33249506e-02  4.63755652e-02 -4.18120138e-02
   4.01528627e-02  1.67500973e-02 -5.68937212e-02  3.71569023e-02
   7.28980228e-02 -2.26068795e-02  7.35718235e-02  7.50866607e-02
   3.96876484e-02  5.45502082e-02  4.10129353e-02 -6.93659782e-02
  -1.24841109e-02  4.55233380e-02 -2.78388746e-02  1.97267309e-02
  -5.20780981e-02 -6.49542361e-02 -1.42234936e-02  2.21366286e-02
  -1.43821836e-02  1.44625157e-02  1.84021518e-02 -3.01748514e-06
   8.95794481e-03 -1.29350275e-03  8.82884115e-03  2.97352448e-02
   4.96405587e-02 -1.85185522e-02 -1.36170834e-02  2.04037055e-02
   4.43452671e-02 -2.40498073e-02 -6.46021217e-02 -6.58568293e-02
   6.25023320e-02 -3.18623260e-02  4.67467383e-02  5.60309812e-02
   7.99329802e-02 -6.87143356e-02  2.13927254e-02 -8.86556506e-03
  -1.46712884e-02 -3.73880304e-02  5.21607175e-02 -5.69159985e-02
   2.60851979e-02 -2.03625150e-02  8.03665072e-03  6.56358674e-02]
 [ 2.53643282e-02  3.04573830e-02  9.15484801e-02 -4.81617749e-02
  -5.98941743e-02  5.19399717e-02 -1.19584575e-02  7.04513863e-02
   3.45180929e-02  5.35503849e-02  2.21800208e-02 -3.33280899e-02
   3.45389992e-02 -6.20930567e-02  2.03122571e-02 -5.42652532e-02
   3.13731134e-02  5.47295585e-02 -5.85518032e-02 -1.78371370e-02
   4.14935537e-02  4.21979502e-02 -6.61109388e-02  7.91367516e-03
  -4.19598185e-02 -6.12054057e-02  6.27580285e-02  2.03372817e-03
   4.73923460e-02 -4.47017280e-03 -7.71179795e-02 -5.12993075e-02
   5.65947071e-02  2.71690842e-02  2.20067240e-02 -3.09406407e-02
   5.24744615e-02 -7.40445405e-02  3.00751887e-02 -2.19216757e-02
  -5.37195764e-02 -4.46498916e-02 -2.88713872e-02 -3.03847603e-02
   7.54253268e-02  1.83806494e-02  8.22596252e-03  4.47984710e-02
   4.21969220e-02  8.34313780e-03  5.97200021e-02 -1.76291782e-02
   1.42236017e-02 -1.18722683e-02  3.85910869e-02 -3.72902825e-02
  -1.35473870e-02  6.34464249e-02  5.29655106e-02  4.50990237e-02
   4.86869365e-02 -4.09035087e-02  1.27331503e-02 -4.39225398e-02
  -5.01598194e-02 -7.85994753e-02  5.65619022e-02  4.14144397e-02
   2.33677626e-02 -5.11985645e-02 -6.05009235e-02 -1.16791856e-02
   2.36328319e-02 -4.26744148e-02 -5.01273498e-02 -6.66966811e-02
  -4.99761896e-03  4.10801135e-02  3.14601287e-02  5.11787534e-02
  -2.56897695e-02  2.58814134e-02 -8.31989124e-02  2.22383514e-02
  -2.30131093e-02  1.65997669e-02 -3.07331681e-02 -2.91131325e-02
   1.11998320e-02 -7.63061047e-02  8.01954493e-02 -8.16918239e-02
   5.23060337e-02  5.42127714e-02  4.45206389e-02 -1.43612670e-02
   3.79485413e-02  5.32822907e-02  2.62739789e-02 -7.68159144e-03
  -3.00638415e-02 -7.77047873e-03 -4.58088666e-02  7.36225173e-02
   3.06230038e-03 -6.83056489e-02  4.12265062e-02 -2.57226452e-02
  -6.29879907e-02 -1.20991394e-02  6.04187921e-02  3.03966682e-02
   1.26633532e-02  4.08781841e-02  5.35616316e-02 -2.50706691e-02
   5.35142049e-02  5.60101196e-02  9.66628827e-03 -4.78874929e-02
   2.52333656e-02  2.12015714e-02  4.84599359e-02 -3.04437466e-02
   5.50903678e-02 -8.86810794e-02 -6.03357842e-03 -7.52062052e-02]
 [-2.52840668e-02  6.28814995e-02  2.30221846e-03  7.61071965e-02
  -2.46223360e-02 -1.51637392e-02  7.66964927e-02  1.14947408e-02
  -4.83203009e-02 -9.13371705e-03 -7.01508224e-02 -1.02705508e-03
   5.91310635e-02  2.08387692e-02  1.51157449e-03  3.18883173e-03
  -3.78945731e-02  7.53703117e-02  8.43176246e-02 -6.27989396e-02
  -7.72764161e-02 -1.81640014e-02 -6.46514371e-02  9.20524634e-03
  -7.06729740e-02 -6.66835830e-02  8.45012888e-02  1.05651788e-01
  -5.06958179e-02  5.88008016e-02 -4.09874395e-02 -7.93803707e-02
   3.31473202e-02  2.53667333e-03  1.64835714e-02  2.68037915e-02
  -4.76846322e-02  2.26331558e-02  1.12473294e-01 -4.52802218e-02
  -4.92972247e-02 -1.71827190e-02 -7.30241984e-02 -6.16966039e-02
   6.43552514e-03 -1.91071462e-02  4.59040776e-02  4.42657769e-02
  -8.86776671e-02 -1.78596179e-03 -9.09857526e-02  6.43438548e-02
  -1.95960850e-02  4.18388192e-03 -2.78590843e-02  8.11083689e-02
   6.31283224e-02 -9.18559846e-04 -1.30376711e-01  4.73215096e-02
   7.09625613e-03  7.58063607e-03  3.98836471e-02  1.55747738e-02
   1.70713514e-02  4.13389206e-02  7.50759989e-02  6.42652735e-02
  -4.54620235e-02 -2.11113431e-02 -2.86585446e-02 -9.61944833e-03
   3.49152461e-02  5.66997416e-02  4.56351601e-02 -4.86312844e-02
   1.03348382e-01 -9.07712802e-03  2.26705372e-02 -6.73633942e-04
  -6.94444031e-03  5.72138990e-04 -8.13073069e-02  3.00086886e-02
   2.93763764e-02  7.16695981e-03 -9.62978113e-04 -5.43377623e-02
   3.60954972e-03  3.64968665e-02  7.77433515e-02 -9.13646221e-02
   7.76469707e-03 -1.97370946e-02  1.85596291e-02 -1.15656234e-01
  -8.34877342e-02 -9.84185860e-02 -5.90836406e-02  8.19339007e-02
   1.19284075e-02 -1.62723884e-02  3.42222638e-02 -1.18492693e-02
   8.12823605e-03  1.54480692e-02  2.02311892e-02 -8.14707726e-02
   5.29997200e-02  4.43276539e-02 -2.19389647e-02  5.84319942e-02
  -5.76294586e-02 -6.87591061e-02  3.36057208e-02 -9.81191173e-03
   3.36234793e-02 -5.22196293e-03  9.22383368e-02 -6.13811575e-02
   6.07923493e-02 -7.12252920e-03 -1.39416568e-02  7.47669712e-02
   4.30865921e-02 -3.63833904e-02 -1.71117205e-02  1.71012804e-02]
 [ 5.71587458e-02 -1.49725256e-02  1.21167794e-01  3.01713846e-03
   7.94265494e-02 -2.51066107e-02  4.71567474e-02  6.50404319e-02
  -7.83430487e-02 -1.68606341e-01  1.56830403e-03  4.21150587e-02
  -3.90947536e-02 -1.38447016e-01 -4.11321893e-02  1.11521736e-01
  -6.13125972e-02  8.29834417e-02  1.61194488e-01 -9.27285254e-02
   4.68637561e-03  3.56270373e-02 -4.74016368e-03  2.42074151e-02
  -6.45628944e-02  1.96812712e-02  1.20338663e-01  8.44840258e-02
  -3.14858593e-02  1.46442056e-01 -7.13221952e-02  1.36632528e-02
  -1.21202104e-01 -9.83231813e-02  2.17773408e-01  4.09260914e-02
  -1.18110657e-01 -7.54880458e-02  1.67969927e-01  1.60676673e-01
  -9.09581035e-02  1.16712086e-01 -2.08549991e-01 -1.41346604e-01
  -6.19615009e-03 -3.64668630e-02  7.68390372e-02  3.16009857e-02
   2.48513594e-02 -5.73088676e-02  4.74696346e-02 -1.34856505e-02
  -4.38560694e-02 -3.39106917e-02 -4.86943424e-02  1.16325274e-01
  -1.63891185e-02 -2.57031545e-02 -2.74826381e-02 -8.65562931e-02
  -9.67757627e-02  7.63832554e-02 -5.73512949e-02 -1.20027080e-01
  -1.86562501e-02  3.26292068e-02  1.62760448e-02  1.22766243e-03
   1.77711956e-02  2.36609336e-02 -5.08443341e-02  1.09300837e-01
  -2.32023634e-02  1.68461110e-02  4.90437970e-02  1.01793788e-01
   1.76197067e-01 -5.39378449e-03  3.98824029e-02  2.37473071e-01
   3.02155539e-02  3.33978571e-02 -1.71551481e-01  2.07974296e-03
  -1.17898546e-02 -8.94062147e-02  1.05344862e-01 -8.98613110e-02
  -9.69157591e-02 -9.96106025e-03 -5.83749972e-02 -1.12990640e-01
  -4.64975834e-03 -2.37957481e-02  2.60544438e-02 -7.81576857e-02
  -1.33211657e-01  3.31487656e-02  8.30484182e-02  1.50091872e-02
   2.58552973e-05  3.92386317e-02 -3.75686958e-02  5.75497858e-02
   4.27840650e-02 -7.47006759e-02 -2.32823342e-01 -9.80191827e-02
   1.36379257e-01  2.85255760e-02  8.41587558e-02  7.19908327e-02
  -1.39232397e-01 -5.00627384e-02  1.00714624e-01  1.03640139e-01
   1.47198454e-01 -5.77692389e-02  1.02120899e-01 -6.73496872e-02
  -7.80188292e-02  1.43699780e-01 -3.09077138e-03  1.49986833e-01
   9.49154198e-02  4.37442809e-02  7.90175945e-02  4.29124162e-02]
 [-4.46431749e-02  2.87282448e-02  1.88505977e-01  9.66513716e-03
   1.29559357e-02 -6.98661357e-02  6.14059307e-02 -2.98220981e-02
   5.46963997e-02 -1.65199295e-01 -4.94254753e-02 -3.77498418e-02
  -1.02154791e-01 -4.07205857e-02  5.42226136e-02  1.18411005e-01
  -6.32269681e-02 -7.86026707e-04  2.05019563e-01 -1.49810575e-02
  -1.09974861e-01  5.71721569e-02 -5.06774262e-02 -4.75414246e-02
  -1.27551435e-02  4.87801433e-02  8.44164342e-02  3.67164146e-03
  -6.14012219e-02  1.04061097e-01 -6.92562386e-02 -1.16289305e-02
  -1.10268854e-01 -1.01509720e-01  8.88474137e-02 -2.66937762e-02
  -9.99488607e-02 -8.87436122e-02  2.40381703e-01  2.12489977e-01
  -1.10204080e-02  6.42538741e-02 -1.15396842e-01 -1.40174866e-01
   8.98090526e-02 -1.28626943e-01  2.74515674e-02  9.49760526e-02
  -5.36646694e-03 -5.88245057e-02  5.40352650e-02  5.12868690e-04
   8.59192088e-02 -1.29415290e-02 -7.48531669e-02  8.54165405e-02
   6.95499331e-02 -4.04860601e-02  1.85147207e-02 -4.76931147e-02
  -1.13154888e-01  6.00944050e-02 -1.80379618e-02 -2.05814317e-01
  -4.10406515e-02  3.62379802e-03 -3.21648121e-02  7.33863339e-02
   4.01856266e-02  6.35133684e-03 -5.40349931e-02  3.58817056e-02
  -7.79863298e-02 -4.60868701e-02 -4.51568849e-02  1.68679073e-01
   8.64028707e-02  5.76836504e-02 -5.74300950e-03  1.77481636e-01
   1.62538048e-02  9.68282968e-02 -4.86657768e-02  3.24095041e-02
  -1.74063526e-03 -1.26023710e-01  1.44701093e-01  5.79573289e-02
  -2.15876222e-01 -7.55236745e-02 -5.68529442e-02 -9.25693437e-02
  -5.14387935e-02  4.34659887e-03  1.55875711e-02 -1.03360564e-01
   1.83033086e-02  5.59678525e-02  8.37953910e-02  1.01705961e-01
  -7.04787225e-02  7.08699971e-03  1.82086695e-02 -7.47094229e-02
  -3.78931090e-02  3.13222012e-03 -1.19147234e-01 -3.66354771e-02
   2.47049816e-02 -4.89284843e-02  1.13104045e-01  1.15290903e-01
  -1.30883008e-01  6.65815920e-02  3.98127846e-02  7.42147118e-02
   1.87062100e-01 -5.26109152e-03  1.10667989e-01  7.73758143e-02
  -5.28173782e-02  2.61915252e-02  8.79578590e-02  1.02990136e-01
   5.94940782e-02 -3.15522589e-02  1.61816895e-01  1.92618817e-02]
 [ 3.92774008e-02  8.97982419e-02  1.45442516e-01 -1.40998550e-02
   1.29131168e-01 -4.05634493e-02 -5.41160703e-02 -4.03630808e-02
   7.78054446e-02 -4.54490073e-02 -8.41055214e-02  2.96172202e-02
  -1.17646880e-01 -6.06156401e-02  8.33818410e-03  1.38972655e-01
  -9.63817313e-02  4.49798629e-02  2.27931932e-01 -1.60367861e-02
  -8.07050765e-02 -7.03969523e-02  2.13115457e-02 -1.73015054e-02
   2.07107943e-02  5.46824113e-02  7.88155943e-02  6.96076378e-02
   8.79607536e-03  1.80382784e-02 -1.23858619e-02 -3.66977565e-02
  -6.07456602e-02 -4.07307073e-02  1.64543778e-01 -6.86329603e-02
  -3.41924578e-02 -5.84343076e-02  1.29204467e-01  6.41984344e-02
   4.13263263e-03  9.24269557e-02 -1.09672196e-01  2.56708972e-02
   6.77934960e-02 -9.99567732e-02  1.02300826e-03  5.84152676e-02
  -7.60219470e-02 -3.49269509e-02 -4.10070159e-02 -3.21229175e-02
   3.26896161e-02 -6.22578301e-02 -5.66203780e-02  2.15695538e-02
  -1.54168587e-02 -4.01536226e-02 -9.44816917e-02 -3.36145214e-03
   6.38494566e-02 -3.51624638e-02 -3.38715278e-02 -1.11041553e-01
  -1.46962155e-03 -7.86218941e-02  8.55922848e-02  6.90008104e-02
   1.73586719e-02 -2.94272136e-02  6.82593212e-02  6.73811957e-02
  -6.37515560e-02  1.39247263e-02 -3.45207602e-02  1.58156678e-01
   6.60007223e-02  5.14653837e-03 -6.30844086e-02  6.92945719e-02
   9.30659939e-03  7.16808066e-02 -7.35844448e-02 -6.96207508e-02
  -1.42210508e-02 -1.32828504e-01  8.22293311e-02 -3.34892981e-02
  -1.47786811e-02  3.46684493e-02  6.46477565e-02 -9.86427218e-02
   7.02594146e-02  1.72231514e-02  9.00020823e-03 -6.64760321e-02
  -3.71450447e-02  1.41907528e-01 -5.12090176e-02  9.50280502e-02
  -8.69326815e-02 -2.50285752e-02 -2.46063676e-02 -2.17065718e-02
  -5.01368754e-02 -5.68272322e-02 -1.94282144e-01 -3.02956086e-02
   1.99008305e-02 -2.18793079e-02  4.93731983e-02 -4.41867895e-02
  -1.04913928e-01 -4.28578369e-02  4.60646786e-02  8.06511194e-03
   1.04919197e-02 -2.66017765e-02  4.74734195e-02  1.38906643e-01
   2.96857469e-02 -3.14321481e-02 -7.18916766e-03  9.83470753e-02
  -2.41550710e-02 -8.04604311e-03  1.42159745e-01 -9.60477721e-03]
 [ 1.74490456e-03  2.07666177e-02  1.89218387e-01  8.63415822e-02
   9.92999226e-02 -8.06321353e-02  8.90153553e-03  4.52568457e-02
   1.85837504e-02 -1.06166184e-01 -8.04575235e-02 -7.21582696e-02
  -8.03054795e-02 -7.75674060e-02 -2.56519672e-03  2.85187047e-02
   3.52466889e-02  1.03532113e-01  2.58426070e-01 -1.50708305e-02
  -5.68080395e-02  3.90716642e-02 -7.29944035e-02 -4.93061845e-04
  -3.67300026e-02 -5.78376465e-02  3.11994217e-02  1.43157601e-01
  -2.56707016e-02  7.53491074e-02 -4.66652066e-02  1.17416633e-02
  -8.25565755e-02  4.58212085e-02  7.71956444e-02  3.13102156e-02
  -5.32612763e-02 -4.40288372e-02  1.78501397e-01  1.36959285e-01
  -2.60234531e-02  2.99580824e-02 -5.35753407e-02 -3.78538929e-02
   5.69883995e-02  4.67030481e-02 -9.35985427e-03  3.43425088e-02
  -7.58313835e-02  2.56188009e-02  1.95619222e-02  7.41395429e-02
   6.06928878e-02 -1.77282561e-02 -6.07194975e-02  1.03479497e-01
  -2.28028167e-02 -2.20211688e-02 -6.40195459e-02 -3.40506248e-02
  -4.79724705e-02 -5.96529059e-02 -1.31961443e-02 -1.46297559e-01
   7.96321556e-02 -6.97075874e-02  4.63384576e-02  6.45072386e-02
  -1.46410894e-03 -3.33582275e-02  7.42299929e-02  1.09959515e-02
   9.44415666e-03 -5.37964702e-02  4.26279963e-04  1.25736743e-01
   4.36421111e-02 -5.69063947e-02  6.90493733e-03  2.02901766e-01
   2.65582502e-02 -5.67115359e-02 -7.20434487e-02 -1.71650406e-02
  -4.54538949e-02 -1.78920239e-01  1.22608691e-01 -9.24009979e-02
  -3.93321402e-02 -4.68294732e-02  9.20990761e-03  1.26039023e-02
  -8.52469280e-02 -9.04981345e-02  3.29794623e-02 -2.26252545e-02
   6.75582886e-02  4.52111103e-02 -6.54793009e-02  1.00740366e-01
  -9.90885422e-02 -6.23768643e-02 -1.07958820e-02  1.62626971e-02
   5.45139126e-02 -4.63264920e-02 -1.10297026e-02 -4.54695113e-02
  -4.32791039e-02 -1.96568463e-02  1.61873549e-01  1.08142249e-01
  -1.01602532e-01 -7.73698986e-02  5.51446006e-02  1.21084437e-01
   8.56573284e-02 -4.69089188e-02  7.26196682e-03  1.01144545e-01
  -3.23784351e-02 -1.87097471e-02 -3.00481226e-02  1.38060793e-01
   6.23717532e-02  6.91303238e-02  9.96638164e-02 -5.15203327e-02]
 [ 8.55232626e-02  2.63403982e-01  1.38807759e-01  6.25424087e-02
  -3.78548019e-02 -8.02879706e-02  5.86902276e-02  1.41705256e-02
  -4.35072668e-02 -1.97254449e-01 -6.70069456e-02  2.60289363e-03
  -5.30222245e-02 -6.56280220e-02  1.44384772e-01  6.02984726e-02
  -1.81036770e-01  3.35554071e-02  3.68665665e-01  1.93659604e-01
   1.38875365e-01 -8.55418667e-02 -5.63471541e-02 -2.13798713e-02
  -2.89250091e-02 -1.30096395e-02  1.96929760e-02  1.77801609e-01
  -3.61302309e-02  9.80050638e-02  5.53571023e-02  3.59476581e-02
  -9.67605710e-02 -4.28343378e-02  1.60318315e-01  3.38332802e-02
  -1.19356820e-02 -1.85844675e-01  2.61804193e-01  1.69462562e-01
   1.08347453e-01  8.21014270e-02 -9.27577093e-02  8.24007671e-03
   1.11181803e-01  2.67784502e-02  1.74775302e-01  1.99330691e-02
   2.52129771e-02 -1.50282979e-01 -6.04981259e-02 -4.03547250e-02
   6.24307543e-02 -1.78859070e-01 -2.72321701e-03  6.51557967e-02
   1.57300726e-01 -2.55552139e-02 -4.90123257e-02 -8.58719349e-02
  -2.61748910e-01  5.78313135e-02 -1.44428909e-02 -2.07976907e-01
  -7.76992887e-02 -4.68536504e-02  1.64273188e-01  3.75514738e-02
   1.27686799e-01  4.54051457e-02  1.68130532e-01 -1.22352019e-01
   3.10517550e-02 -5.31339869e-02  1.22670770e-01 -7.00105876e-02
   9.89711508e-02  2.89746895e-02  1.09660171e-01  2.29214251e-01
  -4.92505282e-02  1.16469242e-01 -4.90567200e-02 -3.72864380e-02
  -7.28309453e-02 -7.35407323e-02  1.79393336e-01 -1.00157507e-01
  -2.08930686e-01 -2.19946787e-01  9.92762521e-02  8.14922340e-03
  -2.25600779e-01  1.87271088e-02  9.86126959e-02 -7.03207552e-02
  -4.64985929e-02  1.06075533e-01  5.57405949e-02  7.89673924e-02
  -2.50983406e-02  3.89292836e-05  1.18344449e-01 -5.37345707e-02
  -1.16191627e-02  1.80730850e-01 -1.44092813e-01 -9.83693153e-02
   1.60871595e-01 -4.53486480e-02  1.83696404e-01  2.21829236e-01
  -2.78984266e-03  4.23113182e-02 -2.43091839e-03  1.36464372e-01
   8.90773833e-02 -1.48810074e-02 -1.15005039e-02 -7.17982799e-02
   1.56382918e-02  1.25860170e-01  1.73570335e-01  2.48413578e-01
   2.02905074e-01  5.38500324e-02  2.62862682e-01 -9.10803154e-02]
 [ 4.56946231e-02  2.79277951e-01  2.08814740e-01  2.14145243e-01
  -1.91244826e-01 -5.05505949e-02  2.03079954e-01  1.21167667e-01
   6.73146397e-02 -4.96333614e-02 -6.07482940e-02 -3.41760144e-02
  -7.99401924e-02 -2.86536179e-02  5.26457801e-02  1.18916564e-01
  -5.45967035e-02 -3.81885134e-02  5.79879247e-02  4.45973352e-02
   1.34424731e-01  6.60472438e-02 -5.68793388e-03  1.18389428e-01
   4.14904431e-02 -5.30591309e-02 -6.66617155e-02  1.76736146e-01
   2.26712331e-01  8.52168351e-02  2.51674592e-01 -9.20134336e-02
   3.89698744e-02 -7.15277269e-02  1.06545864e-02  4.31477875e-02
  -6.00923598e-02 -2.33297899e-01  2.12138951e-01  1.09459199e-01
   1.87926576e-01  2.20434055e-01 -1.10449277e-01  2.03031134e-02
   6.66485578e-02 -9.33075175e-02 -9.84401349e-03  6.82926923e-02
   9.32617635e-02 -6.23023435e-02  1.66375473e-01 -1.10833548e-01
   1.19580813e-01 -2.10443854e-01  1.79043040e-02  1.29097879e-01
   9.88783538e-02 -1.38767585e-01 -6.09164797e-02  4.26564459e-03
  -1.15007967e-01 -2.73867175e-02  1.93447903e-01 -1.72863662e-01
  -1.69869792e-02 -1.31362546e-02  2.57153481e-01 -7.55494237e-02
   2.18982641e-02 -3.28682363e-02  2.91628271e-01 -8.53358805e-02
   3.58524844e-02 -9.49919075e-02 -4.52305637e-02 -1.93169609e-01
   2.51531243e-01 -4.67134826e-02  1.04751915e-01  1.86000645e-01
  -7.35441446e-02  4.82801571e-02 -4.69486602e-02 -3.48281078e-02
  -1.77164793e-01 -4.31599617e-02  2.75419205e-02 -2.64669526e-02
  -1.66047946e-01 -2.99394503e-02  1.99231073e-01  1.62346512e-01
  -1.24661312e-01  8.10313448e-02  8.61205012e-02  2.04612792e-01
  -8.15932527e-02 -8.71755034e-02  3.76541540e-02  1.64904639e-01
  -1.00121632e-01 -7.87890851e-02 -3.78019474e-02 -1.18102543e-01
   4.28196695e-03  1.33536439e-02  4.30556312e-02  3.87680158e-02
   5.59477918e-02  1.58752315e-02  2.34389827e-01  1.63011894e-01
   5.42026050e-02  1.55313134e-01  1.72691289e-02  7.60402083e-02
   3.01387519e-01  6.29230309e-03  2.09445432e-01 -1.11346737e-01
   7.74148926e-02  1.05503820e-01 -5.88594144e-03  1.70074075e-01
  -1.49008334e-02  8.73343181e-03  8.26224089e-02 -2.56340243e-02]
 [-4.47626896e-02  2.54321694e-01  2.11749285e-01  1.02674656e-01
  -1.52081072e-01 -1.37355313e-01  1.44882366e-01  1.53201982e-01
  -1.76593170e-01 -1.67009071e-01  1.92125011e-02  1.35383904e-01
   3.61818708e-02 -3.54550630e-02  1.00256264e-01  1.88365579e-01
  -1.18234776e-01 -4.92606089e-02  5.83730228e-02 -4.15330790e-02
  -3.76060866e-02  7.04947452e-04  4.53137122e-02  3.09282005e-01
   2.43571252e-02 -1.14748798e-01  1.04059145e-01  1.26779258e-01
   1.81952342e-01  2.83000261e-01  2.03585163e-01 -7.73082525e-02
   1.00892663e-01 -9.24970433e-02  1.16265155e-01  6.51645735e-02
  -1.40473619e-01 -2.68948615e-01  4.39571649e-01  1.68469131e-01
   3.64866629e-02  1.96414769e-01 -9.20881256e-02 -1.51959419e-01
   3.18889366e-03 -1.60458162e-02  1.47498608e-01  2.69490272e-01
   4.04576585e-02 -2.13600263e-01  2.18517154e-01 -1.69005722e-01
   8.33752155e-02 -3.12644124e-01 -1.67935919e-02  1.96833551e-01
   1.87620386e-01 -9.70645919e-02 -9.22683999e-02  6.39315508e-03
  -4.80347648e-02  1.47382962e-02  1.08171560e-01 -2.86160767e-01
   3.35975513e-02  2.15611905e-02  3.43140453e-01  1.56067125e-02
   1.15004316e-01  1.41498521e-01  2.12088645e-01 -1.64513797e-01
  -7.37194121e-02 -2.30460018e-01  7.27896690e-02 -5.09487428e-02
   2.84182876e-01 -1.05203420e-01  5.39550148e-02  3.40627074e-01
  -8.22592825e-02  3.49622294e-02 -1.01649076e-01  1.69557717e-03
  -9.87899080e-02 -1.98590413e-01  2.45943159e-01 -4.75766743e-03
  -2.05161154e-01  1.53631680e-02  2.14450061e-01  9.42564979e-02
  -1.28954247e-01 -5.60752153e-02  3.09493411e-02  1.80935606e-01
  -2.21622646e-01 -1.02337688e-01  4.48811539e-02  1.61762714e-01
  -2.10201904e-01 -5.81830852e-02  6.55919462e-02 -5.88681698e-02
   6.52698874e-02 -1.33902142e-02 -1.28925685e-02 -2.25347630e-03
   1.05127007e-01 -8.68100300e-03  3.59544158e-01  1.67247847e-01
  -3.95690426e-02  1.03854485e-01  1.89328030e-01  2.10988432e-01
   4.35304195e-01 -1.97214320e-01  2.15521574e-01  5.57474196e-02
   6.77291453e-02  5.12436107e-02  4.32271063e-02  3.83124441e-01
   3.59055400e-02 -1.61274642e-01  1.14374004e-01 -6.80844262e-02]
 [-1.11736767e-01  3.70219231e-01  4.99439567e-01  1.93336427e-01
  -6.45778775e-02 -1.85317844e-01  3.37551646e-02 -8.16596672e-02
  -1.02372363e-01 -1.06344648e-01  1.55125558e-01  8.24491903e-02
   3.00236195e-02 -2.38713443e-01  1.56570837e-01  1.46169320e-01
  -1.08882815e-01  2.12547287e-01  2.50379980e-01 -1.53122023e-01
  -7.88667202e-02 -6.11595735e-02  1.93405468e-02  4.19178814e-01
  -6.54635876e-02 -1.29583657e-01  1.34516761e-01  1.43861279e-01
   8.81709307e-02  2.60870308e-01  1.22649394e-01 -1.31079048e-01
   5.01103364e-02 -2.93824952e-02  2.12799057e-01 -7.73522705e-02
  -1.33279189e-01 -3.16385627e-01  4.15390581e-01  1.40098751e-01
  -1.57721877e-01  4.32700425e-01 -1.73663095e-01 -3.07828426e-01
  -6.54764995e-02 -7.49820918e-02  2.52537996e-01  2.90870965e-01
   1.26773119e-01 -2.32099593e-01  2.16752127e-01 -1.26071244e-01
  -7.96595588e-02 -2.84192353e-01 -6.61952719e-02  1.12949885e-01
   2.87529588e-01 -1.52491495e-01 -1.51509792e-01  3.44771855e-02
  -2.31476441e-01 -4.61595841e-02  1.53857872e-01 -4.61978078e-01
  -5.68892732e-02  1.47856727e-01  3.19938451e-01 -8.01444203e-02
  -2.23964714e-02  1.04796261e-01 -8.08331463e-03 -1.13197684e-01
  -2.17920765e-01 -5.10550141e-01  9.25412327e-02  1.66165054e-01
   3.51606786e-01  2.34317016e-02 -1.90821588e-01  4.71127450e-01
   4.68051769e-02  1.43469453e-01 -2.36582413e-01 -1.23721547e-01
  -1.78358495e-01 -1.59347489e-01  2.85659492e-01 -8.01793560e-02
  -1.81617528e-01  4.46327478e-02  5.43634854e-02 -1.78049818e-01
  -1.04860522e-01 -6.89657256e-02  1.05172001e-01  7.78657347e-02
  -1.68498874e-01 -1.00989670e-01 -3.17894787e-01  2.25117296e-01
  -1.95349693e-01  2.78538465e-02  1.20785281e-01  2.09335666e-02
  -5.62052727e-02  1.81202978e-01 -9.69313085e-02 -1.68315351e-01
   1.14635907e-01 -1.40155926e-01  4.50467646e-01  2.45350644e-01
  -1.93368897e-01  1.37769118e-01  3.79956484e-01  1.91328585e-01
   5.13863623e-01 -2.11022794e-01  5.13393402e-01  3.21773350e-01
   1.06470078e-01  1.71492770e-01  2.05173567e-01  6.03618026e-01
  -4.25814539e-02 -1.34703711e-01 -5.24292281e-03  2.39097532e-02]
 [-2.00113356e-01 -1.36852697e-01 -2.65455060e-02  6.89285249e-02
   1.79607883e-01  1.97233453e-01  1.34373270e-02 -1.24642618e-01
  -2.00610533e-01 -2.81549599e-02  5.26234582e-02  5.25207929e-02
   1.39309764e-01 -2.19030410e-01 -2.75741145e-03 -4.00529616e-02
   8.87164026e-02  1.51432157e-01  3.17270517e-01 -1.14314623e-01
  -2.00773194e-01  2.32136492e-02  4.48418818e-02  3.87453407e-01
  -4.90299873e-02  2.90998429e-01 -1.02620222e-01 -2.59634733e-01
   8.69685337e-02  2.04024255e-01 -3.43699455e-02 -3.31686616e-01
  -4.13647294e-02 -6.29886519e-03 -5.72831593e-02 -3.78389470e-02
  -5.99592589e-02  4.98168617e-02  5.01459911e-02  2.54176687e-02
  -2.02951908e-01 -2.14534342e-01 -1.00770727e-01 -4.58386213e-01
  -3.31066512e-02  4.29848731e-02  6.42261282e-02 -1.46664470e-01
  -6.06188439e-02 -6.10416867e-02 -6.82947189e-02 -1.22849092e-01
  -1.88995600e-02  2.26710722e-01 -2.90051419e-02  3.77349705e-02
   1.46120235e-01  2.12895244e-01  1.98100731e-01  8.31101313e-02
   3.48871239e-02  2.71107703e-01  7.06147030e-02  9.49583352e-02
  -1.79033037e-02  3.77493948e-02 -8.33175145e-03 -1.36457056e-01
  -3.39855738e-02  9.80464220e-02 -9.61266682e-02  6.82595596e-02
  -5.53115606e-02 -7.22195625e-01 -2.16162931e-02 -1.80343285e-01
  -1.91135839e-01 -2.00655758e-02 -2.54644990e-01  1.07959196e-01
   4.46848422e-02 -7.13216374e-03 -2.11187229e-01 -3.02847493e-02
  -3.17336060e-02 -2.08407044e-01  4.84161675e-02 -6.21419959e-02
   1.67454287e-01 -1.57927901e-01  1.38473895e-03  1.63068905e-01
   1.59396574e-01  2.80959299e-03 -8.18815753e-02 -6.87492341e-02
   3.61009240e-02  2.07383484e-01  8.30925405e-02 -1.41872244e-03
  -1.65223077e-01  5.00221923e-02 -2.50466098e-03  1.31406514e-02
   4.50967290e-02  8.42233524e-02  3.81955430e-02 -1.52876809e-01
   1.96607500e-01  1.71604261e-01  4.66653794e-01  3.20813149e-01
  -4.62051714e-03 -6.90330714e-02  3.74073148e-01 -4.45401222e-02
   1.73529044e-01 -2.41592322e-02 -1.59313679e-01 -2.29541329e-03
  -2.24227179e-03 -5.34654595e-02 -1.65752336e-01  3.06379586e-01
  -1.50179639e-01  1.34388149e-01 -8.24566931e-02 -9.63935442e-03]
 [-1.06893443e-01 -5.39217927e-02  3.33061785e-01  2.25388572e-01
   3.08821589e-01 -1.19865671e-01  1.83417156e-01  4.35136771e-03
  -1.91865489e-01  4.74360064e-02 -2.09244117e-01  1.01529378e-02
   7.54327103e-02 -1.73268437e-01  1.05429910e-01  2.49655753e-01
   8.92804265e-02  1.58922210e-01  5.97597122e-01 -1.92556888e-01
  -1.42120481e-01  5.50082736e-02  6.58716215e-03  1.17905490e-01
  -7.29154497e-02  2.83333600e-01  3.37063611e-01 -1.47457957e-01
   1.05860531e-01  3.54931921e-01 -1.13141753e-01 -1.65258139e-01
  -1.34098276e-01  2.86601047e-04 -9.87227112e-02  1.38210133e-02
  -1.16189510e-01  1.18275192e-02  2.81226277e-01 -2.24039406e-01
  -2.48479113e-01 -1.15790978e-01 -3.16053517e-02 -1.44503996e-01
   3.61536145e-01  1.59818560e-01  4.12123986e-02 -2.25021362e-01
   1.79374665e-02 -1.39374256e-01 -3.48996185e-02  1.94993496e-01
   3.06100808e-02  1.24377785e-02 -1.15826726e-01  1.23917714e-01
   1.88203111e-01  8.98319855e-02  7.76482448e-02  2.00732186e-01
  -1.24902353e-01  1.51110575e-01 -3.24046373e-01 -2.77443618e-01
  -8.94313231e-02  3.39043187e-03  6.64320961e-02 -2.86892503e-01
   3.19758020e-02  2.37297192e-01  1.64160416e-01 -6.14283197e-02
   1.42250046e-01 -3.15051824e-01  3.76004092e-02 -1.32360861e-01
  -1.98019519e-01 -1.09933637e-01 -5.62488623e-02  7.07177520e-02
   2.76070330e-02  4.02344093e-02 -1.29960611e-01  7.90700018e-02
  -7.01290444e-02 -1.76870629e-01 -1.97477061e-02 -1.23445518e-01
  -2.01040581e-01  3.44628096e-02  1.78474486e-01  1.10232010e-01
   2.03889996e-01  1.55142501e-01  1.58464059e-01 -5.66417761e-02
  -1.59419373e-01  1.45388067e-01  1.54554486e-01 -4.66391928e-02
  -2.98837662e-01 -7.85313100e-02  1.60046428e-01 -4.13079187e-02
  -1.59757398e-02  2.36382782e-01 -5.68843484e-01 -1.22454122e-01
   3.11799288e-01  1.95390493e-01  3.59643161e-01  2.69936830e-01
  -2.54237980e-01 -4.31916602e-02  4.05643404e-01 -1.60335869e-01
   1.98926300e-01 -4.82372232e-02 -1.59041196e-01 -6.48885891e-02
   1.38982907e-01 -6.75599650e-02  2.63303034e-02  1.46720767e-01
  -2.06646830e-01  1.02541797e-01 -1.31905079e-01 -1.50614404e-04]
 [ 1.01340353e-01  9.39203352e-02  1.27942652e-01  2.29032367e-01
   1.92758381e-01  7.51068816e-02  3.02008837e-01  3.08787256e-01
   1.78046644e-01  2.38380030e-01 -1.54728040e-01 -2.56868660e-01
  -1.99503198e-01 -1.68308929e-01  1.06974579e-01 -6.89267763e-04
   2.90314127e-02  3.43189448e-01  4.20031369e-01 -1.06547177e-01
  -3.26791927e-02 -6.31762147e-02 -4.09509055e-02  2.68725231e-02
  -9.36305895e-02  7.14134276e-02  2.23895282e-01  1.70528725e-01
  -4.64958772e-02  2.24355042e-01 -4.51249108e-02 -2.19604433e-01
   2.80210786e-02 -2.44051721e-02  4.68598865e-02 -1.22329488e-01
   3.69411819e-02 -2.03075528e-01  1.29968300e-01  7.90233389e-02
   4.29923683e-02  5.07589988e-03 -1.18151389e-01 -1.04760714e-01
   2.58516550e-01 -1.62901729e-01  3.22592944e-01 -2.80343983e-02
   3.63086127e-02  3.09071876e-02  8.77761170e-02 -6.22530282e-03
  -1.73099469e-02 -1.13275960e-01 -5.68825603e-02  2.60395408e-01
   2.96421111e-01 -1.95693560e-02  5.42895906e-02  2.56826699e-01
   4.73507904e-02  1.12012163e-01 -2.39791751e-01 -2.99821682e-02
   3.12648341e-03  1.22208752e-01  2.76504934e-01 -2.64275610e-01
   4.39905599e-02 -9.20771435e-02  2.34530091e-01 -5.86398877e-02
   8.45714286e-02 -5.61112761e-02  2.00522766e-01 -1.53678074e-01
   6.92320615e-02  2.91128494e-02  2.70986676e-01 -3.31094772e-01
  -1.31492287e-01 -2.32954770e-01 -1.27642110e-01  1.17275855e-02
  -1.46902680e-01 -1.61991209e-01  8.85353163e-02 -1.37331551e-02
  -3.38062316e-01  5.89435436e-02  2.66602725e-01 -1.37467086e-01
  -1.63385808e-01 -1.16659852e-04  2.54028708e-01  2.47579962e-01
  -1.89761013e-01  9.21241567e-02  3.00572455e-01  2.12643355e-01
  -3.24758500e-01 -5.93528003e-02  8.11929330e-02  2.32141372e-02
   8.88119265e-02  3.09610218e-01 -5.11939108e-01 -1.00311354e-01
   1.68345630e-01 -1.80108279e-01  2.92835027e-01  2.48050794e-01
  -2.36911252e-01  2.66639471e-01  2.58177757e-01  5.50320931e-02
   2.75141358e-01 -5.86540252e-02  9.60983559e-02 -1.78882062e-01
   9.54228416e-02  1.95305571e-01  5.37485331e-02  1.67493343e-01
  -1.53218612e-01  3.97200398e-02  9.07871723e-02  3.26744020e-02]
 [ 1.57876223e-01  3.26264739e-01  2.11135983e-01  1.57948792e-01
   7.87794590e-03 -4.09569182e-02  3.75226498e-01  3.63732785e-01
   1.06020026e-01  1.65972307e-01 -9.36383754e-02 -6.71370551e-02
  -9.79594514e-02 -2.67124683e-01  1.36419818e-01  1.71298176e-01
  -3.68283689e-02  2.70077318e-01  3.12857538e-01  1.19706079e-01
   3.21163796e-02 -7.42918998e-02 -6.67538419e-02  4.20983881e-02
  -2.29498632e-02 -3.31949792e-03  3.29918116e-01  2.91247189e-01
  -1.84246004e-01  3.19592655e-01  2.31089413e-01 -6.21645562e-02
   9.92333665e-02 -1.88258171e-01  1.87884673e-01 -4.18967160e-04
   5.99309728e-02 -2.94940740e-01  3.80295366e-01  2.95033753e-01
   1.21081129e-01  2.01930419e-01 -1.10589102e-01 -1.27676383e-01
   1.86648294e-01 -1.68642834e-01  3.56420636e-01  4.98350374e-02
   1.42057657e-01 -2.00316980e-01 -2.47136690e-02  1.84636816e-01
   4.36468944e-02 -2.20610678e-01  1.74458008e-02  4.38920796e-01
   3.90458614e-01  7.51600489e-02  1.18079921e-02 -1.06163379e-02
  -3.59704256e-01  3.07090711e-02 -1.59093946e-01 -2.83362746e-01
   8.46644640e-02 -5.50766960e-02  2.83738405e-01 -1.14268981e-01
  -1.19811827e-02  1.30025402e-01  2.68383920e-01 -6.65715784e-02
   5.51650114e-02 -1.00551255e-01  1.53417364e-01 -9.48254466e-02
   3.34662348e-01  1.15024462e-01  3.39367658e-01  8.16247147e-03
  -2.02363774e-01 -7.22449198e-02 -1.35662615e-01  1.62801258e-02
  -1.43028736e-01 -1.72078729e-01  2.18722224e-01  1.93289574e-02
  -5.45499146e-01 -6.39037266e-02  3.40168446e-01 -2.43273765e-01
  -2.89173841e-01  4.77400012e-02  5.56516461e-02  2.11904123e-01
  -1.97085947e-01  2.16324106e-01  2.96142399e-01  2.28035703e-01
  -2.52302080e-01 -5.75647056e-02  1.57936215e-01 -2.16311067e-02
   1.04882941e-01  1.21953979e-01 -3.16777289e-01 -1.03135392e-01
   1.56020045e-01 -1.24848008e-01  3.08854491e-01  2.12512001e-01
  -2.78139412e-01  3.65657568e-01  1.99470460e-01  1.12669379e-01
   2.81147897e-01 -1.72686666e-01  2.76659578e-01 -4.24840562e-02
  -8.72955620e-02  4.52551216e-01  2.83373743e-01  4.69299465e-01
  -1.14428345e-02 -1.33896112e-01  2.89208084e-01  3.40561047e-02]
 [ 2.59645313e-01  2.00612500e-01  2.03560680e-01  1.90541968e-01
  -7.75606260e-02 -7.15428293e-02  1.86757073e-01  1.14707559e-01
   3.29706743e-02 -1.44919723e-01 -1.38374329e-01 -1.29719812e-03
   2.43828997e-01 -1.82945147e-01  9.85294804e-02  3.83852541e-01
  -4.63193618e-02  1.64439723e-01  2.20795691e-01  2.10025787e-01
   8.97886306e-02 -5.20672798e-02 -1.36681512e-01  6.04141620e-04
  -3.68033573e-02 -4.41263020e-02  2.89092600e-01  1.88802928e-01
  -1.23879887e-01  1.56941041e-01  1.17069200e-01 -1.10572189e-01
  -2.78791692e-02 -1.83826894e-01  2.95615047e-01 -5.56788743e-02
  -1.75608277e-01 -2.34312117e-01  2.98017651e-01  4.02192235e-01
  -1.95617735e-01  2.37804055e-01 -9.58133861e-02 -1.04025021e-01
   1.54617667e-01 -1.54527361e-02  1.82144716e-01  2.00940892e-02
  -1.08628020e-01 -2.39686504e-01 -6.32399367e-03  5.40342741e-03
   5.54296449e-02 -1.33386537e-01  3.30103934e-02  2.00754218e-02
   9.47116762e-02  2.59979188e-01 -1.60272315e-01 -2.67239571e-01
  -3.71053338e-01  2.26628222e-03 -1.63713321e-01 -1.96372494e-01
   4.82711717e-02  3.06033883e-02  1.18244477e-01  1.17837273e-01
  -3.37357223e-02  1.35090575e-01  1.17212735e-01 -7.82555863e-02
  -6.06214106e-02 -6.09516576e-02  1.47729158e-01  7.50549659e-02
   3.16615403e-01  2.62672901e-01  5.63151464e-02  2.95714349e-01
  -6.69539869e-02  6.40131533e-02 -1.31664732e-02  5.42675033e-02
  -5.08572720e-02 -1.36575058e-01  1.62888050e-01  7.74555793e-03
  -3.24443191e-01 -9.04031992e-02  1.76906928e-01 -7.81353340e-02
  -1.61123708e-01  3.93090770e-02 -4.83468808e-02 -4.57653962e-02
  -6.61474047e-03  1.97293371e-01  1.23805426e-01  1.08010545e-01
   1.77761447e-02 -5.88148460e-02  2.46687353e-01 -5.28626591e-02
   5.04268184e-02  8.55885670e-02 -3.60842943e-01 -1.63094312e-01
   1.10308677e-01  1.30296677e-01  1.81129292e-01  2.14982554e-01
  -1.09315284e-01  1.74656287e-02  2.02055037e-01  1.98689878e-01
   1.68467641e-01 -3.96368131e-02  2.99945265e-01  2.75580257e-01
  -1.67866781e-01  2.27778494e-01  2.89159596e-01  3.74695688e-01
   2.11007427e-02 -6.21616058e-02  3.13875437e-01  2.88265347e-02]
 [ 1.01762330e-02  2.94770151e-01  2.82294124e-01  1.44586027e-01
  -2.79176772e-01 -2.65583634e-01  2.58807838e-01  1.16222896e-01
   1.51166541e-03 -3.25038582e-01 -5.11824526e-02  1.32566124e-01
   1.63103372e-01 -7.03703761e-02  1.79303475e-02  3.00877810e-01
  -1.84961617e-01  2.59645432e-01  7.20302910e-02 -7.47916028e-02
   6.35894760e-02  5.29770143e-02 -1.70642465e-01  6.32177070e-02
  -1.64278671e-02 -8.83773938e-02  2.56545395e-01  1.85044557e-01
  -1.87894344e-01  2.98127830e-01 -2.37543564e-02 -1.35583580e-01
  -6.99586794e-02 -1.54414073e-01  2.43328139e-01  5.80725409e-02
  -3.03561866e-01 -2.89359331e-01  7.43482858e-02  3.04342091e-01
