le_net5_1/conv2d_3/kernel:0
(5, 5, 3, 6)
[[[[ 0.3247301   0.17007446 -0.14698969  0.5397254   0.211942
    -0.13150118]
   [ 0.20690066 -0.03187837  0.30186003  0.12658262 -0.03259017
     0.13037978]
   [-0.3286106  -0.03197587  0.27872932 -0.12154415  0.28058797
    -0.25990257]]

  [[ 0.3183929  -0.00491034 -0.12307865  0.30327404  0.48247918
    -0.13501179]
   [-0.09678622 -0.2612481   0.17467225  0.14153056  0.17693655
    -0.01505786]
   [-0.17326376 -0.3054721   0.26439515  0.05955155  0.03465595
    -0.12329033]]

  [[ 0.3431897   0.05130876 -0.10677054  0.19733784  0.18650018
     0.08977043]
   [-0.09645955 -0.18166047  0.12745401 -0.11362093  0.2045535
     0.05350431]
   [-0.12079063 -0.36622727  0.45322445 -0.16901372  0.05802656
    -0.32743666]]

  [[ 0.08734825  0.33939976 -0.19724466  0.10575324  0.16103812
     0.06115266]
   [ 0.0058857   0.09359494  0.20586152 -0.30373204  0.27079254
     0.20365025]
   [-0.26062337 -0.11064417  0.29921827 -0.4039967   0.1478357
    -0.0403633 ]]

  [[ 0.1274167   0.25237712 -0.15973522  0.03959869  0.42403132
     0.09072471]
   [-0.07450764  0.09367768 -0.05077181 -0.41902372  0.14814137
     0.14799628]
   [-0.39309835 -0.26125103  0.24646471 -0.39469942  0.04516625
    -0.04439019]]]


 [[[ 0.42701     0.15257153 -0.272625    0.47913507  0.4553026
    -0.18662219]
   [-0.04431317  0.19726337  0.21569823  0.12570976  0.11311477
     0.08830546]
   [-0.11096711 -0.11606231  0.22232817  0.03756808  0.28979158
    -0.10036737]]

  [[ 0.22969837  0.27458927 -0.26489133  0.25207072  0.38733163
    -0.01486468]
   [ 0.02160443  0.10313524  0.17103443  0.19097893  0.02766595
     0.22629191]
   [-0.20120633 -0.21262339  0.16920038  0.05721004  0.15144669
    -0.24711062]]

  [[ 0.23829027  0.06667058 -0.1735208   0.17563054  0.4101225
     0.00743381]
   [-0.12801456 -0.2923001   0.07751615 -0.16361843  0.26723412
     0.22219336]
   [-0.12028918 -0.30581352  0.16126229 -0.32561296  0.24785706
    -0.09704421]]

  [[ 0.03887996  0.10210623 -0.29679313  0.04198087  0.4861261
    -0.13764375]
   [-0.01236818 -0.1303509   0.09001531 -0.46645686 -0.02841646
     0.00211303]
   [-0.22475615 -0.41590694  0.291779   -0.46033958  0.27380455
    -0.14891593]]

  [[ 0.04439741  0.3301876  -0.12890285  0.06279417  0.44700068
     0.06357308]
   [ 0.12623142  0.13791703  0.09291209 -0.36653635  0.1700621
     0.16522337]
   [-0.25674924 -0.24232392  0.2711804  -0.37856668 -0.00974413
    -0.24612701]]]


 [[[ 0.31589     0.3618382  -0.30913004  0.5690502   0.04342614
    -0.15851256]
   [ 0.19359784 -0.01559966 -0.04250925  0.2231532  -0.06532076
     0.06626735]
   [-0.02435149 -0.2562648   0.34974933  0.25814322  0.08635003
    -0.29691997]]

  [[ 0.15103833  0.2579759  -0.11475205  0.31708735  0.21550535
    -0.09416991]
   [ 0.20211522  0.13395272  0.18606956  0.03532304  0.02182805
     0.2797813 ]
   [-0.04322709 -0.22904108  0.14353986 -0.11388907  0.12668677
     0.04597435]]

  [[ 0.20331612 -0.01980517 -0.13281721 -0.09671056  0.11031318
     0.0413816 ]
   [ 0.09329826 -0.1497976  -0.06403839 -0.34307852  0.03696435
     0.11561377]
   [-0.37261802 -0.43893242  0.27183023 -0.35729378 -0.15398078
    -0.13961148]]

  [[-0.08648816  0.19910477 -0.17159274 -0.05074306  0.11379489
     0.1078283 ]
   [-0.20294212 -0.03170798 -0.01667295 -0.4541642  -0.2828923
     0.05078768]
   [-0.4838688  -0.33476192  0.1968822  -0.54150325  0.05669243
    -0.23818833]]

  [[ 0.23553176  0.21090373 -0.23372857  0.01438504  0.10056482
     0.01018969]
   [-0.09476963 -0.08610691 -0.13972127 -0.16570908 -0.265805
     0.09597123]
   [-0.14889848 -0.13966885  0.233301   -0.16690043  0.04528054
    -0.24405296]]]


 [[[ 0.3661325   0.21507166 -0.13472441  0.33866033 -0.32068542
    -0.16736175]
   [ 0.20427991  0.22057013  0.14964585  0.19054845 -0.5833304
     0.24654655]
   [-0.17462097 -0.20502104  0.15181702  0.05679156 -0.39090398
    -0.26745963]]

  [[ 0.3396753   0.05063981 -0.13855836  0.3015156  -0.13213263
    -0.16813487]
   [ 0.05354169  0.10939404  0.12743475 -0.08313195 -0.4215086
    -0.05510925]
   [-0.12176327 -0.20252249  0.01293434 -0.04690718 -0.47204372
    -0.33057177]]

  [[ 0.01691458  0.2072966  -0.21891925  0.06729801 -0.33374545
    -0.19810157]
   [ 0.02245453 -0.0187121  -0.0305118  -0.43450677 -0.46459
     0.21109   ]
   [-0.23622395 -0.31222612  0.2911852  -0.31000426 -0.27264938
    -0.22510087]]

  [[ 0.20534627  0.08022051 -0.3902932  -0.06706792 -0.23176442
     0.11676842]
   [-0.13575517 -0.27471247  0.02810766 -0.33203846 -0.5081322
     0.31769437]
   [-0.43890524 -0.3229602   0.2321014  -0.38807842 -0.50434333
    -0.00841197]]

  [[ 0.16392848  0.08231454 -0.2623622   0.17449488 -0.31443182
    -0.0301147 ]
   [ 0.00804889 -0.16500878 -0.05715472 -0.04948526 -0.5174116
    -0.02068259]
   [-0.37647605 -0.3839009   0.12601528 -0.14660528 -0.50460005
    -0.3029907 ]]]


 [[[ 0.07246899  0.31166574 -0.2206161   0.31620997 -0.10949284
    -0.02528903]
   [ 0.268872    0.08703231 -0.0597883   0.06283885 -0.33594516
     0.2001733 ]
   [-0.18433137 -0.15836515  0.14021932  0.05079728 -0.20379946
    -0.19732578]]

  [[ 0.2491069   0.10096157 -0.08504032  0.01521473 -0.18425204
    -0.2392587 ]
   [ 0.16358232  0.15242651 -0.16003762  0.03324039 -0.5945133
     0.1654885 ]
   [-0.03699118 -0.1583401   0.04109935  0.05194823 -0.25511515
    -0.32291266]]

  [[-0.02333567 -0.06027892 -0.15686485 -0.06081858 -0.24170297
     0.03495818]
   [ 0.00600386 -0.14734116 -0.14185752 -0.02860641 -0.27942914
     0.13688299]
   [-0.37987372 -0.27840513  0.0108621  -0.24168435 -0.44831607
    -0.3038015 ]]

  [[-0.01113559 -0.00436523 -0.33999    -0.12158615 -0.24014412
    -0.16402069]
   [ 0.15147786 -0.14634342 -0.11817925 -0.29336852 -0.52159816
     0.02760608]
   [-0.35778308 -0.27525157  0.06315924 -0.4063445  -0.2997216
    -0.13974968]]

  [[ 0.14325456 -0.08784553 -0.16297297 -0.0782091  -0.00163955
    -0.01605074]
   [-0.00272085 -0.11698852 -0.23061544 -0.24814783 -0.38320956
     0.04970967]
   [-0.22106342 -0.18478112  0.01889012 -0.31255987 -0.11231963
    -0.1642342 ]]]]
le_net5_1/conv2d_3/bias:0
(6,)
[ 0.1371379   0.1906494   0.07704815  0.22220373 -0.02886653  0.21239856]
le_net5_1/conv2d_4/kernel:0
(5, 5, 6, 16)
[[[[ 4.80488315e-02  1.06696233e-01 -4.55202192e-01 ... -1.93240508e-01
    -2.96296746e-01 -3.25973868e-01]
   [ 5.21741323e-02  3.32837969e-01 -4.24066484e-01 ...  9.60249230e-02
    -1.60176948e-01 -3.68849218e-01]
   [-1.73288345e-01 -2.52382934e-01  3.46689850e-01 ... -3.97048332e-02
     1.06821395e-01  1.28368765e-01]
   [ 1.10704392e-01  2.43075445e-01 -5.35347521e-01 ...  2.52361953e-01
    -2.49587864e-01 -2.74694145e-01]
   [-1.21629283e-01  3.91892865e-02  5.91600180e-01 ...  1.31401613e-01
    -5.58049828e-02 -8.04878995e-02]
   [-2.02763706e-01  1.77819908e-01 -6.07566655e-01 ...  1.24166928e-01
    -1.79425031e-01 -3.48497838e-01]]

  [[ 1.77996859e-01  1.30121619e-01 -4.55089033e-01 ... -3.00195396e-01
    -1.34229660e-01 -3.59931111e-01]
   [ 1.37874320e-01  3.08243215e-01 -5.79609394e-01 ...  6.80318251e-02
    -1.26857683e-01 -3.48271251e-01]
   [-1.81895614e-01 -1.79126427e-01  3.40778470e-01 ...  1.21949263e-01
     8.87106583e-02  1.79605842e-01]
   [ 3.15797925e-01  3.09735060e-01 -4.39101040e-01 ...  2.04628780e-01
    -1.35610044e-01 -3.99312973e-01]
   [ 3.14442962e-01 -1.52415052e-01  7.51076996e-01 ...  1.37890697e-01
    -2.08338216e-01  5.27396891e-03]
   [-2.67633051e-01  1.55339584e-01 -4.26223725e-01 ...  2.18559289e-04
    -1.94989428e-01 -3.63977134e-01]]

  [[ 2.64405251e-01  5.04022092e-02 -5.17860770e-01 ... -1.74004287e-01
    -5.89535618e-03 -3.06335747e-01]
   [ 1.35931611e-01  2.48952821e-01 -5.00303268e-01 ... -2.12822974e-01
    -1.99835867e-01 -4.52042133e-01]
   [-1.36753678e-01 -1.06210433e-01  2.96173871e-01 ...  1.16006002e-01
     3.35124321e-02  1.71474785e-01]
   [ 5.55697918e-01  3.21702868e-01 -3.65117669e-01 ... -4.36483398e-02
     3.09269428e-02 -4.48907167e-01]
   [ 5.68470180e-01 -1.04097556e-02  7.44376361e-01 ... -9.79354978e-02
    -4.11076427e-01 -1.58772126e-01]
   [-2.68984973e-01  1.99027658e-01 -3.43113840e-01 ... -1.09232299e-01
    -4.19589698e-01 -2.70538986e-01]]

  [[ 2.05238640e-01  1.65327534e-01 -3.79391700e-01 ... -3.46519977e-01
    -4.68241945e-02 -3.09799761e-01]
   [ 1.36311397e-01  3.26763541e-01 -4.32480782e-01 ... -1.25247791e-01
     5.06834351e-02 -3.54728907e-01]
   [-2.58718520e-01 -2.48493001e-01  1.29574820e-01 ...  1.74220517e-01
     1.26637071e-01  1.02979891e-01]
   [ 4.32705909e-01  2.36722678e-01 -3.68846118e-01 ... -3.58924381e-02
     1.74440265e-01 -4.20452416e-01]
   [ 8.54586184e-01 -1.46217719e-01  8.30832005e-01 ... -2.89720982e-01
    -1.02057353e-01 -6.30160496e-02]
   [-1.23372994e-01  1.81512445e-01 -2.00495452e-01 ... -1.63690388e-01
    -2.99962878e-01 -1.05428994e-01]]

  [[ 5.72906584e-02  4.24669981e-02 -4.15311128e-01 ... -2.49972284e-01
    -7.52716213e-02 -3.41399282e-01]
   [ 1.60517037e-01  1.74050882e-01 -3.35190594e-01 ... -1.35216191e-01
     5.02569973e-02 -2.87559330e-01]
   [-2.39106879e-01 -2.17253670e-01  8.51092264e-02 ...  2.07377255e-01
     4.35208008e-02  5.19278459e-02]
   [ 4.69110042e-01  2.73534149e-01 -4.07600611e-01 ... -1.17876612e-01
     2.74266183e-01 -4.38791901e-01]
   [ 8.72097790e-01 -3.62616666e-02  6.73364937e-01 ... -2.37346351e-01
     4.41696309e-02  3.28433216e-02]
   [-1.01231292e-01  1.88574731e-01 -1.95039123e-01 ... -2.54047573e-01
    -1.99897319e-01 -2.93407410e-01]]]


 [[[-3.21017541e-02  4.56821377e-04 -1.94451600e-01 ... -9.35744122e-02
    -7.62695372e-02 -1.83353707e-01]
   [-2.19760045e-01  2.35129118e-01 -2.95835823e-01 ...  2.73052752e-01
    -8.20565131e-03 -1.69033706e-01]
   [ 1.82321183e-02 -1.94268644e-01  1.81528106e-01 ...  8.82962346e-02
     5.25572672e-02  7.90061336e-03]
   [ 9.03301612e-02  2.16952980e-01 -1.90622196e-01 ...  5.67306519e-01
     5.42940535e-02 -1.42770439e-01]
   [-1.38733849e-01 -1.25849158e-01  3.55750859e-01 ...  2.29452237e-01
     4.17709574e-02  1.21622808e-01]
   [-3.57602805e-01  1.33600116e-01 -4.33557183e-01 ...  1.48047134e-01
     5.77355211e-04 -2.23639891e-01]]

  [[ 9.50687826e-02  4.39683609e-02 -2.40350530e-01 ... -6.39786422e-02
    -2.07505777e-01 -1.95695162e-01]
   [-9.24426615e-02  2.72630274e-01 -2.05496818e-01 ...  2.11829990e-01
    -2.91571110e-01 -2.49267057e-01]
   [-2.10763946e-01 -1.48741111e-01  5.57729006e-02 ... -2.22650841e-02
     6.57761022e-02 -6.83025718e-02]
   [ 3.93624365e-01  2.51046091e-01 -2.15879619e-01 ...  3.73428673e-01
    -2.57348686e-01 -2.41320774e-01]
   [ 9.74737555e-02  1.08255567e-02  3.54694813e-01 ...  1.17238075e-01
    -3.28088164e-01 -6.57770485e-02]
   [-3.12683791e-01  3.98473330e-02 -2.85548300e-01 ... -2.64048707e-02
    -1.34806722e-01 -3.33321124e-01]]

  [[ 9.63251814e-02  1.57598555e-01 -3.36731225e-01 ... -1.84726834e-01
     2.29722448e-02 -1.37126833e-01]
   [ 1.95827007e-01  2.26413280e-01 -5.34676798e-02 ... -1.42425239e-01
    -2.04505861e-01 -1.63314417e-01]
   [-1.95501775e-01 -2.34435037e-01  5.30303456e-02 ...  1.06671058e-01
     4.75478955e-02  1.09769173e-01]
   [ 6.24030769e-01  3.47803354e-01 -1.02658533e-01 ... -6.56069517e-02
     3.93995605e-02 -2.14158371e-01]
   [ 3.98597717e-01 -9.14773792e-02  3.67470682e-01 ... -1.02599859e-01
    -3.55416358e-01 -1.59955457e-01]
   [-2.71357924e-01  2.81799491e-02 -1.66908242e-02 ... -1.26475498e-01
    -3.09231281e-01 -1.69937417e-01]]

  [[ 1.22289740e-01  2.49082223e-01 -2.32944801e-01 ... -2.64294684e-01
     9.66574699e-02 -1.07281305e-01]
   [ 2.90989906e-01  2.70821482e-01 -6.65098205e-02 ... -1.61764741e-01
     4.11862731e-02 -2.21065417e-01]
   [-2.63908178e-01 -2.68205255e-01 -2.31514176e-04 ...  4.48980136e-03
    -2.12988746e-03  5.48934303e-02]
   [ 6.80953503e-01  4.38609660e-01 -1.23788886e-01 ... -7.39948750e-02
     3.47099513e-01 -2.73331791e-01]
   [ 6.33434534e-01 -1.56769440e-01  3.46152365e-01 ... -4.58604246e-01
    -2.81121165e-01  1.34186288e-02]
   [-1.79070458e-01  1.88762590e-01 -1.13698289e-01 ... -1.20474532e-01
    -4.07305896e-01 -1.25911504e-01]]

  [[-1.78534184e-02  1.06951542e-01 -3.24235797e-01 ... -1.76608771e-01
     1.66134790e-01 -2.26787254e-01]
   [ 1.78149283e-01  1.86001793e-01  1.27620753e-02 ... -2.26482078e-01
     1.27609104e-01 -1.86674699e-01]
   [-1.71305865e-01 -2.71531373e-01  2.20934488e-02 ...  1.79680914e-01
     8.28898773e-02 -5.49539030e-02]
   [ 2.58574456e-01  2.75525153e-01 -1.21547505e-01 ...  1.67232901e-01
     4.10643905e-01 -2.94857770e-01]
   [ 6.89786732e-01 -7.11856335e-02  3.36903065e-01 ... -2.86576152e-01
     8.84457305e-02  9.43318382e-02]
   [-1.31867126e-01  1.46356970e-02  4.83311750e-02 ... -3.58834773e-01
    -2.79579490e-01 -1.19242705e-01]]]


 [[[-1.59333006e-01  1.93147764e-01  6.61079064e-02 ... -1.11980766e-01
    -2.74162531e-01 -1.48596853e-04]
   [-3.63524020e-01  3.08877170e-01 -5.65781146e-02 ...  3.74990344e-01
    -3.25102243e-03  7.03628510e-02]
   [-2.19289791e-02 -1.83928654e-01 -6.12168806e-03 ...  2.49610562e-02
    -2.17325203e-02 -3.84849384e-02]
   [-5.64193353e-02  2.37342805e-01  1.19287655e-01 ...  7.06341088e-01
    -1.07854772e-02 -2.24709827e-02]
   [-8.77087638e-02 -1.40914947e-01  3.67156208e-01 ...  2.27770746e-01
     2.41695959e-02  2.61693448e-01]
   [-4.71089691e-01  3.21006440e-02 -2.95911908e-01 ...  9.52565297e-02
     4.62603420e-02 -1.14844643e-01]]

  [[-7.87417069e-02  1.31784290e-01  2.03837529e-02 ... -2.06939489e-01
    -7.48105645e-02 -3.51613984e-02]
   [-1.98840514e-01  3.46062779e-01 -1.52121829e-02 ...  3.11723083e-01
    -1.60396948e-01  1.05939908e-02]
   [ 2.76498795e-02 -1.80887431e-01 -9.11034942e-02 ... -4.94282655e-02
     2.17402354e-02 -6.86712489e-02]
   [ 2.85795063e-01  2.91270941e-01  4.60890941e-02 ...  4.79627609e-01
    -2.63930410e-01 -2.03841090e-01]
   [ 1.81881204e-01  1.00427352e-01  2.71982580e-01 ...  2.06660554e-01
    -2.53978431e-01  2.09187910e-01]
   [-5.62316716e-01  2.41920166e-02 -8.69586915e-02 ...  1.16147272e-01
    -1.48390144e-01 -2.17764765e-01]]

  [[ 1.13014504e-01  1.39194757e-01 -9.73116159e-02 ... -2.87743747e-01
     7.55182505e-02  4.02704701e-02]
   [-3.43962051e-02  2.60731459e-01  1.07144535e-01 ... -4.06625904e-02
    -8.59122276e-02 -2.30970457e-02]
   [-1.73431948e-01 -3.05453926e-01  7.23292232e-02 ... -3.75939645e-02
     1.85707256e-01 -1.62559122e-01]
   [ 4.30929631e-01  2.72908151e-01  8.02440345e-02 ... -8.13529789e-02
     9.44817290e-02 -2.16669403e-02]
   [ 2.57259071e-01  4.34263982e-02  2.84751624e-01 ... -2.14158267e-01
    -4.53294098e-01  1.44330904e-01]
   [-3.16654652e-01  1.73308268e-01  6.55719265e-02 ...  5.14406376e-02
    -2.77617604e-01 -2.05179363e-01]]

  [[ 1.11524336e-01  3.36537302e-01 -3.22839655e-02 ... -1.28266364e-01
     2.85951141e-02 -7.47489370e-03]
   [ 2.00292245e-01  3.25327575e-01  1.31598398e-01 ... -3.39935839e-01
     1.58552691e-01  2.35422347e-02]
   [-2.06775442e-01 -1.30615070e-01 -1.20295562e-01 ...  1.23067111e-01
     3.23795974e-02 -1.27496287e-01]
   [ 5.98258913e-01  3.29294354e-01  3.09716184e-02 ... -2.07811669e-01
     4.67319459e-01  9.51685011e-03]
   [ 3.21006656e-01  8.35643187e-02  2.61480600e-01 ... -3.65999550e-01
    -2.83322603e-01  7.27225747e-03]
   [-2.68191755e-01  9.63418372e-03  9.25885513e-02 ... -1.71364471e-01
    -4.45996970e-01 -1.97874621e-01]]

  [[-3.87713872e-02  1.95840508e-01  9.05536581e-03 ... -1.94664285e-01
     1.86660558e-01  9.23037156e-03]
   [-4.48697507e-02  2.91401058e-01  1.82502866e-01 ... -1.53367847e-01
     2.58485794e-01  3.27495486e-02]
   [-2.54123360e-01 -1.99941918e-01  1.31741194e-02 ...  1.83891326e-01
     9.94156301e-02  3.92055418e-03]
   [ 2.77813464e-01  3.28413039e-01 -7.68476864e-04 ...  2.08861709e-01
     5.83196461e-01 -6.03335910e-03]
   [ 3.97852629e-01 -1.26086682e-01  8.57691392e-02 ... -3.21623117e-01
     6.16098084e-02  8.89045298e-02]
   [-6.01755716e-02  6.92078993e-02  1.85955927e-01 ... -4.49206740e-01
    -2.34871045e-01 -2.21688420e-01]]]


 [[[-8.54049474e-02  2.05422044e-01  3.85782830e-02 ...  1.67543050e-02
    -2.97368526e-01  1.68931663e-01]
   [-3.39402080e-01  2.50308722e-01 -5.26328757e-02 ...  2.75485188e-01
    -4.45025563e-02  1.29412338e-01]
   [ 5.64601645e-02 -2.69172013e-01  1.97137222e-02 ...  6.71121180e-02
     3.63439620e-02 -7.60489553e-02]
   [ 8.22874345e-03  3.61062258e-01  9.98264551e-02 ...  7.53010571e-01
    -6.62866747e-03  6.12217225e-02]
   [ 5.49667478e-02  1.09304808e-01  1.27879873e-01 ...  1.95338264e-01
    -1.42375320e-01  5.07904649e-01]
   [-4.55516011e-01 -5.46079725e-02  1.64053831e-02 ...  1.28775120e-01
     3.03126127e-02  2.35419665e-02]]

  [[-7.23643973e-02  2.91377366e-01 -5.65138347e-02 ... -1.92311093e-01
    -9.38312262e-02  1.40303075e-01]
   [-3.08090389e-01  1.93749338e-01 -7.10138157e-02 ...  2.63685971e-01
    -2.20754087e-01  6.01679087e-02]
   [-2.41828077e-02 -1.66323319e-01 -4.87884022e-02 ...  4.56278846e-02
     1.52914256e-01 -1.99354067e-01]
   [ 2.39386663e-01  3.27660352e-01  1.13412939e-01 ...  3.99323165e-01
    -2.23319665e-01  1.04416393e-01]
   [ 1.26143590e-01  1.43196553e-01 -1.22948706e-01 ...  3.06243170e-02
    -2.11359635e-01  5.80428720e-01]
   [-4.28009093e-01  1.07579581e-01  3.06008160e-02 ...  1.46067023e-01
     2.55010044e-03 -4.84178290e-02]]

  [[-3.63093917e-04  2.82335430e-01  1.60015747e-02 ... -2.02628657e-01
    -1.55971330e-02  8.15995224e-03]
   [-1.34090349e-01  3.41439426e-01  1.07507311e-01 ... -5.18652722e-02
    -1.64515421e-01  1.94722474e-01]
   [-1.28663346e-01 -2.93094724e-01 -1.10886544e-02 ...  1.15550935e-01
     2.20912531e-01 -1.68758392e-01]
   [ 4.03088808e-01  3.05379361e-01  6.67565763e-02 ... -8.84496793e-02
    -3.88093218e-02  1.27346605e-01]
   [ 1.22479968e-01  2.70469904e-01 -1.82363644e-01 ... -1.55004397e-01
    -3.49152535e-01  5.75078487e-01]
   [-4.23523247e-01  2.01276597e-02  5.90573251e-02 ...  1.74890399e-01
    -2.16309577e-01 -2.09075157e-02]]

  [[ 2.68262215e-02  3.07360679e-01  3.94764580e-02 ... -2.82063067e-01
    -2.90187541e-02  9.10218582e-02]
   [-5.85874431e-02  2.86662787e-01  1.71830177e-01 ... -2.18644693e-01
     1.73949048e-01  1.51665598e-01]
   [-4.04973589e-02 -3.30412567e-01 -7.20397085e-02 ...  6.65297732e-02
     1.93878133e-02 -2.35461250e-01]
   [ 3.54967266e-01  3.61296624e-01 -7.44030923e-02 ... -1.51304439e-01
     4.73986864e-01  8.71011391e-02]
   [-5.45566157e-03  1.94933802e-01 -1.58950418e-01 ... -2.79766709e-01
    -1.56053692e-01  5.28766513e-01]
   [-3.17663372e-01  8.07172433e-02  1.24402829e-01 ... -2.77513444e-01
    -3.31197351e-01 -1.30280212e-01]]

  [[-1.19956611e-02  1.16707750e-01 -4.91057970e-02 ... -1.30661741e-01
     1.81831911e-01  2.19017565e-01]
   [-1.22710265e-01  2.50132501e-01  9.44189057e-02 ...  6.91444380e-04
     3.63016844e-01  1.64714530e-01]
   [-6.75677136e-02 -1.92940950e-01  2.71150395e-02 ...  1.31556287e-01
    -1.63062126e-03 -1.86615616e-01]
   [ 8.36350769e-02  3.29794437e-01  6.84186369e-02 ...  3.35155785e-01
     5.43375969e-01  2.63116419e-01]
   [-9.00115594e-02  6.16062619e-03  4.28240784e-02 ... -2.45645240e-01
    -4.76071276e-02  4.09061670e-01]
   [-4.65229936e-02  3.91165465e-02  1.74125642e-01 ... -4.41990584e-01
    -4.69857007e-02 -1.81479037e-01]]]


 [[[-1.74802303e-01  9.00051445e-02  2.49670073e-02 ... -1.15587585e-01
    -1.64024919e-01  2.40712121e-01]
   [-4.45579052e-01  1.62711814e-01  3.40275131e-02 ...  1.55748516e-01
    -4.40753810e-02  1.88560054e-01]
   [ 3.74077894e-02 -1.20987669e-01  6.82552680e-02 ... -4.30161133e-03
     6.91580549e-02 -1.44511506e-01]
   [-7.80207664e-02  2.98180044e-01 -1.00316443e-01 ...  5.07216632e-01
    -1.29005089e-02  2.09879369e-01]
   [-1.37351695e-02 -1.22676149e-01  1.30118936e-01 ...  1.96696013e-01
    -1.67153284e-01  4.00945097e-01]
   [-3.68556023e-01 -6.41251653e-02  5.43182455e-02 ...  3.16697896e-01
     3.81765962e-02 -1.23561256e-01]]

  [[-4.28344496e-02  7.36420974e-02 -6.08090730e-03 ... -8.67826864e-02
    -2.37391800e-01  1.93809301e-01]
   [-3.19160551e-01  2.53633201e-01 -1.10598296e-01 ...  1.26689732e-01
    -1.35890052e-01  2.05210134e-01]
   [-3.27670277e-04 -2.39619821e-01 -6.70894235e-02 ... -1.33992797e-02
     1.13127209e-01 -4.97324280e-02]
   [ 1.47295699e-01  1.73911214e-01 -8.06916039e-04 ...  3.15775037e-01
    -1.71559662e-01  9.24110264e-02]
   [-1.24608167e-01 -7.54850581e-02 -4.99554090e-02 ...  2.04672404e-02
    -2.32691601e-01  4.72148240e-01]
   [-3.41743648e-01  8.86890516e-02  1.17284529e-01 ...  1.95469469e-01
    -8.82979557e-02  1.55416317e-02]]

  [[-4.61964607e-02  1.23405397e-01  2.01884601e-02 ... -2.42958203e-01
    -1.57565221e-01  1.84955031e-01]
   [-2.18595952e-01  2.75494009e-01  8.31884816e-02 ... -1.35095017e-02
    -1.75260767e-01  1.73625574e-01]
   [-1.43604487e-01 -2.89672971e-01  2.47275997e-02 ...  9.78152156e-02
     8.49453285e-02 -1.89790502e-01]
   [ 9.37563460e-03  2.63339877e-01 -3.62459421e-02 ...  2.91629191e-02
     4.14261483e-02  8.43373761e-02]
   [ 9.81624424e-03 -4.39757593e-02 -4.41049822e-02 ... -2.18859553e-01
    -1.04196876e-01  6.07658505e-01]
   [-4.10468638e-01  6.37754127e-02  1.24432184e-01 ...  1.13498189e-01
    -2.55262077e-01 -4.91968431e-02]]

  [[-2.23604739e-01  9.31628421e-02 -8.75875652e-02 ... -2.84609646e-01
     4.09578718e-02  2.11596444e-01]
   [-2.93748707e-01  6.49641901e-02  1.33532301e-01 ... -3.31965208e-01
     1.19765207e-01  1.77946121e-01]
   [-4.75065783e-02 -1.63095385e-01  2.06508245e-02 ...  8.11003298e-02
     1.94681644e-01 -1.83700681e-01]
   [ 3.40026543e-02  8.37241933e-02 -2.63859294e-02 ... -1.33218527e-01
     3.56278747e-01  3.06786865e-01]
   [-2.89821755e-02 -1.30161822e-01 -9.54830796e-02 ... -2.22478911e-01
    -2.42018148e-01  6.26438916e-01]
   [-2.85917044e-01 -2.44136658e-02  9.39464569e-02 ... -8.12371448e-02
    -2.84782916e-01 -7.73650035e-02]]

  [[-6.71432614e-02  1.00804575e-01 -7.33736083e-02 ... -1.62260547e-01
     3.44741605e-02  1.99826643e-01]
   [-2.13793203e-01  1.83167923e-02  1.48225561e-01 ... -1.79580480e-01
     3.43138158e-01  8.64180103e-02]
   [-9.85983908e-02 -1.40595153e-01  9.11177248e-02 ...  2.46254265e-01
     1.21746503e-01 -5.20825759e-02]
   [ 6.84813708e-02  8.31529126e-02  5.16095571e-03 ...  2.20283374e-01
     6.47527874e-01  3.04527372e-01]
   [-1.36863500e-01 -2.58437723e-01  1.82444882e-02 ... -7.53833875e-02
    -1.20207191e-01  6.64393246e-01]
   [-2.90898860e-01  3.20507251e-02  1.12045608e-01 ... -3.81631702e-01
    -1.06792510e-01  3.55047062e-02]]]]
le_net5_1/conv2d_4/bias:0
(16,)
[-0.2061255  -0.10043249 -0.02655531  0.08149085  0.10228211 -0.08933568
  0.01690841 -0.18596828 -0.1946964   0.08044726 -0.09294649 -0.06824495
 -0.09414163  0.05534004  0.08103652 -0.10320277]
le_net5_1/dense_2/kernel:0
(400, 120)
[[-9.9724777e-02 -6.2605572e-01  8.2441591e-02 ... -5.2989971e-02
  -7.7473618e-02  2.9731748e-01]
 [-5.4674141e-02 -4.9912083e-01  1.7204207e-01 ...  1.0229476e-02
   9.5148936e-02  3.4436129e-02]
 [ 4.6663493e-01  6.6171966e-02  1.8597285e-01 ...  6.6598237e-02
   1.4500375e-01 -3.8722072e-02]
 ...
 [ 1.9279258e-01  1.4698780e-01 -2.0446856e-01 ...  1.7454351e-01
  -9.3098587e-01  9.3298577e-02]
 [ 1.0679579e-01 -2.4063517e-04 -2.6270548e-01 ...  1.5962245e-01
  -5.6479120e-01  2.1660364e-01]
 [-1.8472977e-02  5.5939008e-02 -3.4738311e-01 ... -2.4483845e-01
   1.2334065e-01  2.0254301e-01]]
le_net5_1/dense_2/bias:0
(120,)
[-0.05484688  0.03335851 -0.0356167  -0.06243482  0.00183882  0.02820049
  0.04919622  0.06020347  0.02152525 -0.02008275  0.10940205  0.03668845
 -0.04454286  0.01715439 -0.01520888  0.04146317 -0.04161916  0.03767731
  0.03197916 -0.04172754 -0.00092865  0.04211246 -0.00309264  0.05418798
  0.11766487  0.01032551  0.05285646 -0.00222419 -0.06993192 -0.00713649
 -0.08441031  0.00587049  0.06488302  0.03191283 -0.04519729 -0.05158851
  0.03533428 -0.01700528  0.13887192  0.04862377  0.03381221 -0.10661253
 -0.03656122 -0.01654436  0.01146081 -0.05373622  0.00235918  0.03942906
 -0.08429147 -0.02417665  0.07564466 -0.05508637 -0.10829508 -0.05933708
  0.00323133  0.07503068 -0.10132109 -0.04441036  0.0195182   0.04222138
 -0.02189603  0.06322669 -0.05820404 -0.05398395 -0.08035967  0.10508435
  0.0603989  -0.04236373 -0.01145619  0.10528049  0.06753779 -0.0257816
 -0.02781649 -0.08536999 -0.03327607  0.04274672  0.02138399 -0.02009812
  0.03034675  0.06488353 -0.03160601 -0.13113761  0.0749881  -0.01550778
  0.05276961 -0.03163819  0.07120677  0.00705499 -0.06457782 -0.06894226
  0.04375912 -0.06998638 -0.02437533 -0.0701431   0.04575288 -0.00986046
 -0.08397524 -0.08994687  0.01347348 -0.0196589   0.02014259 -0.03485287
 -0.00955752  0.08233254 -0.00307742  0.11955045 -0.01213364  0.00264452
 -0.08346526  0.08553301  0.07130255  0.05582052 -0.02895512 -0.0554227
 -0.08394872 -0.03241301 -0.01415985 -0.00879013 -0.06782901  0.00706172]
le_net5_1/dense_3/kernel:0
(120, 84)
[[ 0.24877922  0.03432848 -0.00909686 ... -0.05100264 -0.03264787
   0.05069077]
 [-0.3059079  -0.01120398 -0.00654571 ...  0.11173335  0.2413862
   0.04278371]
 [ 0.22463082 -0.4777858   0.01545782 ... -0.55002487 -0.09873449
  -0.4467055 ]
 ...
 [ 0.12199994 -0.27512223  0.05781849 ... -0.15598746 -0.0567544
  -0.31489757]
 [-0.05489499 -0.18403555  0.17565933 ... -0.23534831 -0.3082061
  -0.09543154]
 [ 0.24318303 -0.01630379  0.08927375 ...  0.06652626  0.19446094
   0.1404442 ]]
le_net5_1/dense_3/bias:0
(84,)
[ 2.7674599e-02 -5.2769231e-03 -5.7919361e-02 -6.5730247e-03
 -5.7605999e-03  5.2973926e-02 -2.7498645e-03  1.6507091e-02
 -1.9779844e-02 -1.1157802e-02  1.4142632e-02  7.2300918e-03
 -4.1732889e-02 -4.7169317e-02 -5.3926315e-03  4.2110153e-02
  1.3130988e-02 -2.2900017e-02  4.9490272e-04 -3.4138937e-02
 -7.1398439e-03 -6.2104464e-02 -1.0569075e-02 -1.5178788e-04
  1.9186144e-03 -3.7503749e-02 -6.8126239e-02  9.9856053e-03
 -5.3825406e-03  2.4030061e-02  2.4815336e-02  1.7058687e-02
 -8.1415451e-04 -2.3856165e-02 -1.1163576e-02 -3.7515532e-02
  5.8572139e-03  3.0307174e-02  2.8619502e-02 -1.9425333e-02
  1.4870441e-02 -3.5624690e-02 -1.3623705e-02 -5.6598838e-03
  9.0808915e-03 -4.6885617e-02 -2.3160544e-03 -6.1563935e-02
 -2.8328171e-02  2.3012528e-02 -6.1011333e-03 -5.2698616e-02
 -1.9456064e-02 -3.3128406e-03 -3.1490501e-02 -1.5651889e-02
  5.2767817e-04  1.3018824e-02 -7.5843684e-02 -1.0154089e-02
 -2.9591978e-02 -5.2065935e-02 -3.1961907e-02  2.8470319e-02
 -2.8801853e-02 -3.1948423e-03 -2.0293120e-02  1.8838607e-02
 -2.7564168e-03 -4.1520752e-02 -8.4676100e-03 -2.1061264e-02
 -5.0101634e-02  5.2272752e-03 -5.3617470e-02  6.0978316e-05
  3.7123386e-03 -2.8868042e-02 -1.4826856e-02  6.5209223e-03
 -1.3574326e-02 -1.6470872e-02  2.3840576e-02 -4.2332631e-02]
le_net5_1/dense_4/kernel:0
(84, 10)
[[-2.39718258e-01 -2.90884733e-01 -2.84821361e-01  2.69535542e-01
  -2.55607635e-01  2.29350567e-01  7.15484917e-02  2.93508887e-01
  -3.37440073e-01  2.13846520e-01]
 [-4.15162951e-01 -9.30361152e-02  1.10592738e-01  3.00625652e-01
   2.12910905e-01  2.16797709e-01  2.90054739e-01 -3.55553210e-01
   1.24599844e-01  1.43249914e-01]
 [ 4.47053947e-02 -6.17670082e-02  3.60023618e-01 -2.14121297e-01
   8.73122960e-02 -2.85467118e-01  9.01440531e-02  8.58232379e-02
  -1.92862928e-01 -2.60291755e-01]
 [-4.96224225e-01 -7.09087253e-02  8.42341781e-02  1.00751109e-01
  -1.66350499e-01  2.07429066e-01  3.83162171e-01 -4.54017550e-01
   1.57043681e-01  1.83672071e-01]
 [ 5.03542349e-02  3.24703187e-01 -3.31852347e-01  2.40437299e-01
  -6.03221022e-02 -2.47695133e-01 -2.77214292e-02 -1.78680032e-01
  -2.07599998e-01  9.07056630e-02]
 [ 1.01931773e-01  3.17563750e-02 -3.78661692e-01 -2.71448702e-01
   4.59105857e-02 -4.64290917e-01  9.08541158e-02  3.58579069e-01
   2.55410612e-01  3.77175391e-01]
 [ 4.58085909e-02 -4.17450696e-01  1.36741519e-01  2.30424985e-01
   5.25888316e-02  3.30837131e-01  2.03024819e-01  1.59425661e-01
   1.42876297e-01 -2.17813984e-01]
 [-1.80747703e-01 -3.81171733e-01 -1.51165843e-01  1.02903239e-01
   3.46400112e-01  1.37870893e-01 -3.03611666e-01  1.14754908e-01
  -3.71721089e-01  8.02063197e-02]
 [ 3.68231088e-01 -5.57482317e-02  2.36472115e-01 -4.92738895e-02
   1.88743234e-01 -4.73961011e-02  7.91892633e-02 -3.06408644e-01
   3.72537345e-01 -2.17245355e-01]
 [ 4.84614335e-02  4.04863536e-01 -1.60599262e-01  2.87465930e-01
   4.85852212e-02  2.04365671e-01  2.20149085e-01 -1.72728062e-01
  -2.88543552e-02  1.61266670e-01]
 [ 3.25822830e-01 -3.16805720e-01 -2.84939054e-02 -7.16853812e-02
  -2.75367144e-02 -1.52953029e-01  2.02944636e-01 -1.89296499e-01
  -3.44934687e-02 -4.48902957e-02]
 [ 3.12947273e-01  2.71158159e-01 -1.74100548e-01  4.99527305e-02
  -4.32087004e-01  3.98235209e-02 -3.96759868e-01 -2.32489616e-01
   2.86191851e-01  1.65413052e-01]
 [ 1.53645992e-01  1.96644828e-01  2.37796977e-01 -1.43437758e-01
   1.05887219e-01  9.07569006e-02  1.42258495e-01 -3.02871108e-01
   3.52483392e-01 -1.87886134e-01]
 [-1.62105769e-01  3.61394644e-01  4.98635061e-02 -3.65087464e-02
  -1.18486106e-01  1.81331918e-01 -7.00949207e-02 -6.44451827e-02
  -2.12457135e-01 -9.85686481e-02]
 [ 1.20925136e-01  3.26799721e-01  1.10740617e-01 -4.91552576e-02
   1.08007133e-01 -4.07936461e-02 -4.80038226e-01 -2.13380024e-01
   2.44613171e-01  1.89595014e-01]
 [-2.21443012e-01 -3.33296835e-01 -9.53566507e-02  2.26271659e-01
   1.31696224e-01  3.32155079e-01  9.47145671e-02 -3.18915606e-01
  -8.19615126e-02  1.89298764e-01]
 [-1.50356650e-01 -3.85639489e-01 -1.38431281e-01  7.87012503e-02
  -9.92081687e-03  2.46798262e-01  1.61133066e-01 -2.22640838e-02
  -2.12690309e-01  6.71726987e-02]
 [-3.57293576e-01 -4.46984805e-02 -3.56050245e-02 -3.53837050e-02
   1.49889644e-02  1.56726003e-01  2.36988738e-01 -3.74740779e-01
   1.26998693e-01 -3.02981704e-01]
 [ 2.50914961e-01 -2.79228896e-01 -2.48300985e-01 -3.46393585e-02
  -1.77620262e-01 -4.00691152e-01  1.07198775e-01 -3.14905494e-01
   1.51138708e-01  4.55491096e-02]
 [ 2.17388913e-01 -1.22924291e-01 -1.89359903e-01  1.29375532e-01
   8.31978247e-02 -1.72595959e-02 -4.31466758e-01  3.66643786e-01
  -2.44296178e-01 -1.84272230e-02]
 [ 2.42645949e-01 -4.01281208e-01  3.52459997e-01  2.19992787e-01
   2.93315172e-01  1.25228807e-01  1.01615749e-01  1.59917831e-01
  -2.90882289e-01 -3.07796687e-01]
 [ 2.19131544e-01  2.32045844e-01  2.91290909e-01 -3.74039590e-01
   2.32035816e-01 -3.09729092e-02 -4.78460081e-02 -1.20233454e-01
   7.62355328e-02  4.24629673e-02]
 [-7.72821754e-02 -3.97395253e-01  1.85970590e-02 -1.67445824e-01
   3.28515768e-01  1.03622619e-02  1.14833973e-01 -1.84199974e-01
  -3.18004414e-02 -1.39400929e-01]
 [ 3.36618930e-01  4.33231503e-01 -2.28913531e-01 -2.67411768e-01
   1.06508620e-01 -1.40057564e-01 -2.33339652e-01 -3.62668693e-01
   2.07255244e-01  2.14246497e-01]
 [ 1.65707484e-01  1.52650908e-01 -2.69674033e-01 -3.53541732e-01
  -3.35101783e-01 -1.93366989e-01 -3.70203286e-01  1.72957763e-01
  -2.20840454e-01  3.43614191e-01]
 [ 3.30392897e-01  4.41294797e-02  6.65889457e-02 -3.61390471e-01
  -1.65015817e-01 -1.73379764e-01 -3.69469553e-01  2.87611097e-01
   2.64632374e-01 -1.09719969e-01]
 [-2.62148142e-01 -1.95802987e-01 -2.88156932e-03 -4.71688050e-04
   1.44112539e-02  2.63448387e-01 -6.20821752e-02  1.41664669e-01
  -1.27939180e-01 -3.29981536e-01]
 [-3.86994362e-01 -2.32058257e-01  5.24536194e-03 -8.67442694e-04
  -1.08774960e-01  1.05456516e-01 -1.11033842e-02  2.32138261e-01
  -4.89533246e-01  1.92819685e-01]
 [-2.11731836e-01 -5.87451123e-02 -2.47509763e-01  4.56737019e-02
  -3.30362886e-01  1.44411787e-01 -4.38154459e-01 -4.76660803e-02
   3.88272017e-01  1.51002049e-01]
 [ 9.98879075e-02 -2.10106000e-01 -2.52993852e-01  3.15768629e-01
  -2.38579318e-01 -4.24602032e-02  4.66964304e-01  1.25970945e-01
  -3.23063433e-02 -3.18945467e-01]
 [-1.20404966e-01 -1.74137756e-01  2.10211519e-02 -3.95373739e-02
   2.34564431e-02  6.01416826e-02  1.64269447e-01  1.67320594e-01
  -5.28419197e-01  2.11572975e-01]
 [ 3.72418731e-01  3.33873123e-01  8.75377208e-02 -9.55248922e-02
  -3.16595316e-01 -2.74625272e-01  3.10503989e-01 -3.28565627e-01
  -1.40477881e-01  1.98027194e-01]
 [ 3.13487142e-01 -1.23587847e-01  1.06919762e-02  1.56694770e-01
   9.93318707e-02 -1.25102196e-02  2.51416296e-01 -1.05679981e-01
  -2.56851584e-01 -3.41128945e-01]
 [ 1.22364955e-02  1.20097818e-02  2.01226741e-01  2.30841264e-01
  -3.20131928e-01 -9.09118652e-02 -1.41586512e-01 -2.92166591e-01
  -2.79244661e-01 -1.21888146e-01]
 [-4.04740512e-01 -1.49528220e-01 -2.28076205e-01  1.15951136e-01
   1.97550014e-01  1.95505507e-02  2.03941995e-03  3.11949134e-01
  -2.29835212e-01 -1.27626091e-01]
 [ 8.93786997e-02  1.90820634e-01 -1.10969558e-01 -2.50875294e-01
  -3.39517117e-01  1.44046962e-01 -4.46747422e-01  2.82157660e-01
   2.11310104e-01 -1.06020927e-01]
 [-2.20895261e-01  2.50231236e-01  1.10563301e-01  6.69350624e-02
   5.16502140e-03  1.04280807e-01 -6.14541322e-02  1.75097764e-01
  -4.82095003e-01 -1.63058087e-01]
 [ 2.13186637e-01 -2.16803089e-01  2.32242912e-01  8.00164491e-02
  -5.05560160e-01 -1.88822269e-01  2.50295281e-01  4.76523608e-01
  -2.16652259e-01  4.11422521e-01]
 [-3.53560075e-02  1.42364919e-01 -3.21293503e-01  1.86877891e-01
  -3.00735980e-01 -9.82274935e-02  6.16131872e-02 -2.71638095e-01
   2.44444773e-01  1.91994980e-01]
 [ 3.15310776e-01 -4.35619876e-02  1.58626139e-01  4.04704958e-02
  -1.50327057e-01  2.17622951e-01  1.10239312e-01 -4.09421086e-01
   2.61050671e-01 -3.39195430e-01]
 [-9.44556966e-02 -4.43518817e-01 -5.92272356e-02  5.40060960e-02
  -7.50864819e-02  1.97165862e-01  3.27855408e-01 -1.99013695e-01
  -4.10134912e-01 -2.45425940e-01]
 [ 6.01184182e-02  3.26299489e-01  7.86871184e-03 -7.84196611e-03
  -3.69333625e-01  2.62313914e-02  1.18786961e-01 -2.41197184e-01
   3.80012274e-01  6.26877248e-02]
 [ 2.59208828e-01 -1.39296576e-01  2.00390279e-01  1.12598538e-02
   2.90884316e-01 -3.51897061e-01  1.24552637e-01 -1.76221371e-01
   2.92549431e-01 -9.59429517e-02]
 [-3.30170840e-01  1.84360534e-01 -1.40538082e-01 -5.73435836e-02
  -5.81279434e-02  4.20593210e-02  1.42367318e-01 -4.82086278e-02
  -5.14169753e-01  2.53925592e-01]
 [ 1.52659550e-01  2.26807043e-01 -2.84370869e-01 -2.05626085e-01
  -2.23995864e-01 -9.95120406e-02  3.01045805e-01  1.96336582e-01
  -5.00819206e-01  1.21375896e-01]
 [ 1.65544316e-01  3.75287235e-01  1.27865046e-01 -1.71401531e-01
   2.98894167e-01 -2.38464490e-01 -5.61816692e-02  1.71115682e-01
   9.93349031e-02 -3.21632102e-02]
 [ 7.29945078e-02  2.05127016e-01 -3.20101500e-01 -8.93719494e-02
   1.44130215e-01 -4.03682627e-02 -2.62674034e-01 -9.26680788e-02
   2.87116587e-01  3.46077055e-01]
 [ 1.51220351e-01 -2.87807971e-01  6.87800944e-02  1.43628180e-01
   6.56672716e-02  1.83684051e-01 -3.40430439e-01  1.77777737e-01
   2.22032405e-02 -2.79155374e-01]
 [ 2.08244324e-01 -1.70938447e-01  1.68591022e-01  1.45646363e-01
  -1.13550574e-01  2.26857796e-01  3.71520445e-02 -7.33282045e-02
  -3.68823856e-01 -2.42267326e-01]
 [ 2.19993368e-01 -3.97073030e-01  3.06989521e-01  1.27281398e-01
  -1.98943913e-01 -2.62051702e-01  6.44902587e-02 -3.71502399e-01
   7.53609389e-02  1.66511834e-01]
 [-3.76716286e-01 -1.08044885e-01  1.17171615e-01  2.62723655e-01
  -1.73481405e-01 -1.72105670e-01  3.07044566e-01  2.52196252e-01
  -8.63673240e-02 -1.46919101e-01]
 [-1.75843507e-01  9.62722227e-02  2.37382233e-01 -2.51005620e-01
   6.96638972e-02 -2.55250871e-01 -3.13226908e-01 -3.17855656e-01
  -7.15082437e-02 -3.48620832e-01]
 [-3.14265043e-01  2.94283539e-01 -2.47172788e-01 -1.99114814e-01
   2.50702173e-01 -7.77454823e-02  1.43402725e-01  1.56102553e-01
  -1.50590777e-01  2.60649294e-01]
 [-2.17698961e-01  4.83048975e-01  1.51272312e-01  3.31133865e-02
  -1.97212577e-01  3.60447206e-02 -2.21933588e-01 -3.88267368e-01
   6.92289919e-02  2.95952797e-01]
 [-8.39001760e-02 -7.41591454e-02  2.52903074e-01  1.91845119e-01
  -2.98607945e-01  3.62624615e-01 -4.57464010e-01  7.19245449e-02
  -2.57457048e-01  5.97075410e-02]
 [-1.50971562e-01  3.93178612e-01 -3.32772613e-01 -2.74886310e-01
   3.82210240e-02 -1.88871920e-01  1.28666446e-01 -2.44527608e-01
   3.00330129e-02  2.89438255e-02]
 [-3.00945103e-01  1.18640862e-01 -2.22967863e-01  1.45247221e-01
  -3.28307748e-01  1.42315716e-01 -3.64535093e-01  9.95060802e-02
  -1.81974340e-02  2.88786858e-01]
 [ 5.22546828e-01 -7.88959383e-04 -8.46254453e-02 -3.32603276e-01
  -2.52220243e-01 -2.17596337e-01 -1.50600374e-01 -2.46410847e-01
  -1.42122194e-01 -2.64009893e-01]
 [-2.10794926e-01 -3.54786724e-01  3.89853239e-01 -2.29557410e-01
   3.43821734e-01  2.06191823e-01 -2.53891610e-02  6.10501729e-02
  -1.86191589e-01 -1.13459066e-01]
 [ 7.20866174e-02 -3.07784736e-01  2.18991078e-02 -1.28701717e-01
   1.69732317e-01  1.55497149e-01  2.13255525e-01  8.67294595e-02
   1.55754223e-01 -3.76793921e-01]
 [-7.86451027e-02  7.59351104e-02 -8.69991630e-02  2.16975629e-01
   1.79937944e-01 -8.85842964e-02 -3.43492366e-02  2.98365831e-01
  -3.31871569e-01 -3.33931953e-01]
 [ 2.70164847e-01 -2.01764300e-01 -2.11620435e-01  1.37191452e-02
  -1.03058042e-02  1.30716473e-01 -1.63348719e-01 -5.85005358e-02
  -2.03732461e-01 -1.96705177e-01]
 [-5.91597892e-02 -4.02166367e-01 -5.91607019e-02  2.85427481e-01
  -2.27679506e-01  2.03810468e-01 -2.47741744e-01 -3.75775620e-02
   3.89878094e-01 -2.64321506e-01]
 [-2.02026796e-02  7.42487386e-02 -3.94854486e-01 -2.57888734e-01
  -2.08247364e-01 -2.61730403e-01 -3.45352799e-01  3.63144279e-01
   2.98028529e-01  3.79369587e-01]
 [-6.27425611e-02 -2.52410293e-01  2.12021798e-01  3.16454023e-01
   1.93809122e-01  2.31393754e-01  3.31986286e-02  1.50458351e-01
   2.42211878e-01 -3.72715801e-01]
 [ 4.24358457e-01 -2.72615910e-01  5.18460348e-02 -9.54872444e-02
   6.97070584e-02 -1.41535118e-01 -8.35462660e-02  1.81075349e-03
   2.91560024e-01 -3.71694535e-01]
 [ 2.28481874e-01 -1.59229144e-01  3.34525675e-01 -4.97616604e-02
  -2.19211549e-01  8.09326023e-02  7.52802342e-02  3.13616276e-01
  -2.12775156e-01 -3.88386361e-02]
 [ 1.27438441e-01 -4.43134427e-01  2.58704990e-01  1.81873545e-01
   3.40184420e-01 -1.60805240e-01  3.02057356e-01  1.33955613e-01
  -7.30113536e-02  1.59539506e-01]
 [-8.88196453e-02  3.16987902e-01 -4.64724861e-02 -2.99291015e-01
  -1.08596027e-01 -1.81106195e-01  1.00703221e-02 -2.38078281e-01
   2.82220751e-01  3.58156860e-01]
 [ 5.51332347e-03  7.31476992e-02  3.25476527e-01 -1.29571915e-01
   3.68505120e-01 -1.02194615e-01  2.72147417e-01  6.38244674e-02
  -3.64384145e-01 -3.77370179e-01]
 [ 3.82883698e-02 -2.02102423e-01 -2.54560500e-01 -3.16389352e-02
   1.37178391e-01 -4.23887700e-01 -4.39672917e-01 -1.13536149e-01
   2.28408292e-01 -6.43350184e-03]
 [-4.24804240e-02 -3.14252019e-01 -1.17052067e-02  5.33282431e-03
  -1.76842511e-01 -1.28186747e-01  1.94509909e-01  1.83042020e-01
  -4.87629801e-01 -3.52567703e-01]
 [ 2.35912666e-01 -1.79936498e-01  1.68134332e-01 -2.09310278e-01
  -5.61188683e-02 -2.84783602e-01 -3.68889153e-01  7.30512962e-02
   1.86178684e-02  1.31950378e-01]
 [-2.12605909e-01  2.19096639e-03 -3.29655439e-01  2.37019718e-01
  -4.41244304e-01 -5.80498837e-02 -2.88695276e-01 -1.55827310e-02
   3.06693584e-01 -5.65211698e-02]
 [-2.46875584e-01  1.94707680e-02  1.77213088e-01  1.56203089e-02
   2.32173190e-01  1.76971048e-01 -4.12812144e-01  2.88951576e-01
  -3.35263312e-01 -1.62389457e-01]
 [ 2.16497779e-01 -2.17799470e-01  1.94153041e-01  6.02844507e-02
   5.77394366e-02 -3.24325204e-01  4.05176431e-01 -3.38679552e-01
   1.73923761e-01 -3.61812890e-01]
 [-1.85783535e-01  2.82057792e-01 -1.87341437e-01  3.11658476e-02
   2.84261853e-01 -2.25076452e-01  2.40633741e-01 -2.63906419e-01
  -1.33352458e-01 -2.64813811e-01]
 [ 3.43043283e-02 -2.42473558e-01  4.39931527e-02  1.67916194e-01
   2.90456653e-01  3.05613637e-01 -4.20530915e-01  2.63954043e-01
   1.66090965e-01 -1.55002281e-01]
 [ 1.54366404e-01 -3.40028048e-01  6.20486364e-02 -1.90441757e-02
  -1.77381635e-01  2.79382318e-01 -3.33467796e-02  1.52388096e-01
  -3.91426444e-01  2.88052350e-01]
 [-4.07911837e-02  2.23691881e-01  5.73276803e-02 -3.28308612e-01
   2.03540057e-01 -2.01584622e-01 -5.06779134e-01  1.76618442e-01
   2.01925382e-01  2.36912921e-01]
 [ 2.54562944e-01  1.55456677e-01 -8.97149220e-02 -1.11843318e-01
  -3.18152159e-02 -1.77209064e-01 -2.25195691e-01 -4.05840486e-01
   2.06531525e-01  1.93511918e-01]
 [-3.64210278e-01 -8.83716866e-02  2.40593165e-01  8.28971118e-02
  -1.60970449e-01 -1.71372861e-01  2.99657077e-01 -1.58371210e-01
   8.12786147e-02  1.11859500e-01]
 [-2.67561972e-01  1.18639916e-01 -1.50508001e-01  7.98194855e-02
   3.13060880e-01 -3.26687753e-01  2.00990155e-01 -8.07854757e-02
   1.97017282e-01  1.58222988e-01]
 [-3.83220285e-01  4.52966318e-02  1.97288826e-01  2.00340495e-01
  -1.72988400e-01  1.78860247e-01  2.10066482e-01 -6.61338121e-02
   1.32493466e-01 -1.79133743e-01]]
le_net5_1/dense_4/bias:0
(10,)
[-0.00441076  0.0336831   0.01011097  0.00624669  0.00103882 -0.00304835
 -0.03760713 -0.00990368 -0.00427196  0.01646747]
