baseline_1/conv2d_1/kernel:0
(5, 5, 3, 6)
[[[[-0.17530392  0.0006746  -0.00359606  0.10789135 -0.07106388
    -0.11217068]
   [-0.13133977  0.01054788  0.05269654  0.03651408 -0.03342998
     0.01951481]
   [ 0.00832513 -0.1603458   0.04548811 -0.10125129  0.06121175
    -0.02275005]]

  [[ 0.04038561  0.08233341 -0.00204696  0.10828906 -0.17649245
    -0.01401056]
   [-0.04435764  0.22824258 -0.05602993  0.087446    0.12960064
     0.15787685]
   [-0.0069799   0.06206383  0.09349301  0.00946088  0.11257296
     0.1477888 ]]

  [[ 0.1032504  -0.02889785 -0.0206857   0.15722983 -0.0608363
    -0.13101606]
   [-0.05724496 -0.21162765 -0.20988226 -0.07217146  0.03896055
    -0.02837419]
   [-0.07999589 -0.04522299 -0.09235626  0.03784675  0.02178965
     0.08487518]]

  [[ 0.01963458 -0.14191377  0.2112467  -0.20448755  0.03098643
    -0.02314545]
   [-0.02803163  0.00666537 -0.052967   -0.0105717  -0.15605067
     0.01531379]
   [ 0.25481138 -0.11423147  0.04080502 -0.00769643  0.16485319
     0.21883948]]

  [[-0.07155669  0.08090013  0.27620652 -0.0758388  -0.01850063
    -0.12695679]
   [-0.00376945 -0.01914512 -0.07305833 -0.10233414  0.06471507
     0.1125185 ]
   [ 0.17844684  0.21759477 -0.22714892  0.00391729  0.1336023
    -0.02782086]]]


 [[[ 0.16107592 -0.06189777 -0.09141602 -0.06586781  0.097971
    -0.20601673]
   [-0.14527713 -0.07942125  0.10979281 -0.0863815  -0.11016907
     0.18383697]
   [ 0.01924894 -0.10902365  0.09827051 -0.12199668  0.10189407
    -0.09869993]]

  [[-0.10787317  0.06818393 -0.06789541 -0.07764947  0.09366905
    -0.22601222]
   [ 0.07084474  0.29393068  0.12472248 -0.01361307  0.17828842
     0.22948535]
   [ 0.22914709  0.13031423  0.18546647  0.10389362 -0.09759487
    -0.02098925]]

  [[-0.0680377   0.07789531  0.09074918 -0.20849414 -0.04806326
    -0.2552521 ]
   [ 0.19016229 -0.09139812 -0.21288851 -0.0823452  -0.142327
     0.16719355]
   [ 0.05450293 -0.12710068 -0.0159926   0.01409193 -0.07466861
     0.22061065]]

  [[ 0.01017613 -0.06973915  0.15530288 -0.09571915  0.12359752
    -0.22368096]
   [ 0.25833476 -0.10986248 -0.18775395 -0.0825626  -0.0744409
    -0.00867044]
   [ 0.32854503  0.03886861  0.00608685 -0.01851892 -0.06823974
     0.19542152]]

  [[ 0.02803486 -0.0100012   0.02926755  0.07239312 -0.04170154
    -0.03207999]
   [ 0.00995712 -0.04640756 -0.16482945  0.2346399  -0.01914843
     0.06514451]
   [ 0.17695972  0.0723694  -0.11450544  0.2399287  -0.12742949
     0.0056856 ]]]


 [[[-0.0663741   0.03267187 -0.10518406 -0.04185047  0.00521559
     0.00169723]
   [-0.07738677 -0.09620432  0.18953556  0.1483854  -0.12316494
    -0.0643636 ]
   [-0.13447542  0.02895111  0.27036548 -0.19974598 -0.23623268
    -0.14280578]]

  [[-0.04630101 -0.11046574 -0.07372443 -0.09452762  0.01586167
    -0.22825956]
   [ 0.00671162  0.14665659  0.19968459 -0.20874767  0.05991538
    -0.08334256]
   [ 0.00800174  0.15407522  0.07245719 -0.19562176  0.04952076
     0.04200602]]

  [[-0.02010737 -0.04462947 -0.01217764 -0.03547488  0.25474915
    -0.04403517]
   [ 0.08138367 -0.09917127 -0.00348373 -0.2526783  -0.04848366
     0.06268678]
   [-0.03206438 -0.3093577  -0.11860401 -0.22040398 -0.10484708
     0.03299239]]

  [[-0.04706898 -0.12494299  0.0266847   0.26225385  0.35956252
     0.00411067]
   [ 0.10799165  0.19305919 -0.1853267   0.00297349 -0.07915936
    -0.00419151]
   [ 0.18575536  0.02622424 -0.11413156  0.20895548  0.10407864
     0.03253762]]

  [[-0.10927624  0.05510298  0.0372808   0.31899726  0.16378057
    -0.14983831]
   [ 0.07326443  0.0780663  -0.04794696  0.14937496 -0.01777186
    -0.03773845]
   [ 0.24935254 -0.01331148 -0.28777668  0.22731209  0.15181111
     0.18335055]]]


 [[[-0.06687316  0.06669947  0.01665309  0.1309065   0.18496072
     0.17199911]
   [-0.04156007  0.22288886 -0.03771976  0.07027666  0.08756025
    -0.1878784 ]
   [-0.19862364  0.05768633  0.2010134   0.00429902 -0.08539255
     0.00089601]]

  [[ 0.1668131  -0.0456678   0.1360104  -0.09564757  0.19850312
    -0.00954682]
   [ 0.02703087  0.00630872  0.10404279 -0.09272473  0.13895804
    -0.14160745]
   [-0.18846075 -0.14802793  0.11922163 -0.12560232  0.16895473
    -0.02068877]]

  [[ 0.12329252 -0.02812579  0.08817476 -0.05287359 -0.02305155
    -0.10067768]
   [-0.15542671 -0.2533407  -0.09161044 -0.22180626 -0.03985705
    -0.26113915]
   [-0.09468523 -0.17241755  0.13337655 -0.14896603 -0.09978876
    -0.23104218]]

  [[ 0.1731196   0.31179264 -0.02990662 -0.0215997  -0.03772093
    -0.1903447 ]
   [ 0.09726262  0.14464246 -0.14633945 -0.06147395 -0.16797404
    -0.11155204]
   [ 0.05863742  0.1479133  -0.09884963  0.16042463  0.07623832
    -0.24789059]]

  [[-0.03104616 -0.12794952  0.03330422  0.1917686  -0.1824458
    -0.14735547]
   [ 0.05236912 -0.0177207  -0.24285053 -0.10088658 -0.06543335
    -0.16808349]
   [-0.15508404 -0.12764849 -0.17906909  0.25195253 -0.14503005
    -0.07601283]]]


 [[[ 0.05568831  0.04108329 -0.05330544 -0.03431955 -0.18473303
     0.0866982 ]
   [-0.04375291  0.08768435  0.03487562  0.07240328  0.04633648
     0.07747708]
   [-0.2578273   0.03210187  0.3030476   0.12732837  0.09787709
     0.09283727]]

  [[ 0.0324008  -0.16886543 -0.11490997  0.18522786 -0.12991998
     0.24386752]
   [ 0.06639643 -0.02645799  0.18065074  0.08382766 -0.10204703
     0.04301076]
   [-0.15860777 -0.15329719  0.2083826  -0.07049983  0.01923974
     0.00802983]]

  [[ 0.12415656 -0.08568971 -0.0837191  -0.09167012 -0.27078897
     0.15632671]
   [ 0.00132169 -0.01552335 -0.1379771  -0.17784627 -0.12761842
     0.10886036]
   [-0.16124998  0.01337926 -0.06329793 -0.1107439  -0.07234967
     0.07923685]]

  [[ 0.25567678  0.1777574  -0.06103402 -0.14083579  0.05457521
     0.19440275]
   [-0.03477813  0.1439677  -0.02854845 -0.07552961  0.08559901
     0.1708664 ]
   [-0.10333662  0.19532509  0.07020742  0.08577807 -0.03574417
     0.00477192]]

  [[ 0.07358564 -0.16857378 -0.06881107  0.01057557 -0.14306118
     0.19711973]
   [ 0.10039375 -0.11572292 -0.13439469  0.06316733 -0.02803939
     0.01004715]
   [-0.06066187 -0.04376932 -0.2468207   0.11090311  0.1501225
     0.01461876]]]]
baseline_1/conv2d_1/bias:0
(6,)
[-0.06676366  0.05196413 -0.02667073  0.02311997  0.03624607  0.00148543]
baseline_1/batch_normalization/gamma:0
(6,)
[0.6789679  0.7693701  0.8838511  0.8096636  0.8509713  0.84387535]
baseline_1/batch_normalization/beta:0
(6,)
[-0.40953293 -0.23650698 -0.251639   -0.28476685 -0.39218494 -0.29009032]
baseline_1/dense/kernel:0
(1536, 128)
[[ 0.03981829  0.02239444 -0.01601498 ... -0.07349887 -0.04591652
  -0.00682825]
 [ 0.03928437  0.02443122 -0.03312906 ...  0.00825989 -0.03062599
   0.03198916]
 [-0.04105271 -0.03284607 -0.0326381  ... -0.03532956  0.00206013
  -0.04994807]
 ...
 [ 0.04020759  0.04848264  0.03015748 ... -0.04036976 -0.04719315
   0.00461991]
 [ 0.00494484 -0.06489966 -0.0421576  ... -0.01900069  0.00294862
  -0.07200094]
 [-0.03581759 -0.02050216  0.02954253 ...  0.04170068 -0.02357483
   0.03056155]]
baseline_1/dense/bias:0
(128,)
[-0.02783277 -0.0284102  -0.04768012 -0.028979   -0.01017962 -0.0393164
 -0.02881207 -0.02746501 -0.01599345 -0.02032472  0.08860195 -0.02728163
 -0.03634875 -0.03063488  0.21258597  0.23429571 -0.03640137 -0.02252043
 -0.03675764  0.13718706 -0.03206748 -0.02415879  0.04204681 -0.01205936
  0.21264924  0.02135932 -0.02578308  0.20704435 -0.00434512 -0.00497557
 -0.05198564 -0.03424528 -0.010202   -0.16010945 -0.01637241 -0.04311549
 -0.00842469 -0.02338302 -0.04021518 -0.02126782 -0.02187279  0.0788296
  0.1177194  -0.00290616  0.13366085 -0.02261928 -0.01864456 -0.01521936
  0.10202753 -0.01916011 -0.01812906 -0.01185822 -0.02183608 -0.03513894
 -0.05115925  0.00493762 -0.02208945 -0.02340926 -0.02299983 -0.03080422
 -0.03521787 -0.01273248 -0.02501271 -0.01795306 -0.01129444  0.21874224
 -0.02957187 -0.01291764  0.02055783 -0.01716792 -0.03748586 -0.04432223
 -0.00185033 -0.02621247 -0.15544432 -0.027601   -0.01750427 -0.12769774
  0.1594322  -0.01908594 -0.02879574 -0.03607663 -0.01469132 -0.08337029
 -0.01030477  0.04473101 -0.02212502  0.17564341 -0.02060844 -0.00317453
 -0.00290004 -0.01894176  0.1422073  -0.15874267  0.07498197 -0.03452961
  0.17614903 -0.01620534 -0.00740598  0.09082494 -0.03715207 -0.06283549
  0.22025155 -0.02698451 -0.02786949 -0.01834691  0.1639431  -0.01175086
 -0.01045984  0.30258274 -0.02563087  0.08704679 -0.16644435 -0.04415887
 -0.02194787 -0.02664588 -0.06968468 -0.03409445 -0.0256901  -0.01459182
 -0.00819161 -0.03145728 -0.02541937 -0.03604367 -0.0215165  -0.00513457
 -0.01382524 -0.02473469]
baseline_1/dense_1/kernel:0
(128, 10)
[[-0.19165184  0.11200269  0.14265469 ... -0.1979458  -0.01947268
   0.18622255]
 [ 0.10142112 -0.12655696  0.09798254 ... -0.21241556 -0.03369683
   0.1261331 ]
 [ 0.06606073  0.16526748 -0.18348403 ... -0.11883106 -0.09482665
  -0.06898822]
 ...
 [ 0.08296195 -0.08343308  0.01397014 ... -0.0057627  -0.13969903
  -0.18042484]
 [ 0.16055761  0.1881903   0.09071469 ...  0.1006038  -0.08245087
   0.0841146 ]
 [ 0.05558791 -0.2083357  -0.00370926 ... -0.21672003 -0.13845061
  -0.15968108]]
baseline_1/dense_1/bias:0
(10,)
[-0.20523305 -0.23238443  0.12039342  0.06063954  0.271856   -0.05729266
 -0.00032617 -0.05822568  0.0206453   0.03690556]
