alex_net8_2/conv2d_5/kernel:0
(3, 3, 3, 96)
[[[[-0.10075078 -0.05009445 -0.04498581 ...  0.13825218 -0.1176604
    -0.17385907]
   [ 0.0927906   0.07795243  0.01430768 ...  0.12196482 -0.10740353
     0.01866292]
   [ 0.0585588  -0.08485485 -0.05046436 ...  0.06461319 -0.05485734
     0.12964371]]

  [[ 0.00759679 -0.06632752 -0.04434702 ...  0.00217787 -0.11330645
    -0.07796978]
   [ 0.0822878   0.15343177 -0.02909004 ...  0.01004713 -0.10449594
     0.01798691]
   [ 0.10203382 -0.07455094 -0.08910877 ...  0.1091161  -0.0932272
     0.06243175]]

  [[-0.1145483  -0.09841944 -0.06588889 ... -0.07431658  0.1817303
    -0.06150321]
   [ 0.06560227  0.1381096   0.00854492 ... -0.13264625  0.21504013
     0.09815142]
   [ 0.13339151 -0.03643567  0.02456651 ... -0.06061769  0.1240758
     0.05984632]]]


 [[[-0.12152387 -0.1455086  -0.03713486 ...  0.13555214  0.06191977
    -0.1538314 ]
   [ 0.05272628  0.14949109  0.05097052 ...  0.01501504  0.10943199
     0.02012837]
   [-0.00126827 -0.02142431 -0.14519364 ...  0.13402997 -0.02732137
     0.10823628]]

  [[-0.1179176  -0.10015731 -0.04574061 ...  0.05995214 -0.03329897
    -0.08413774]
   [ 0.03489728  0.19845709 -0.04999921 ...  0.01585228 -0.09665042
     0.07996254]
   [ 0.06325544 -0.104567   -0.28176358 ... -0.00321333  0.02234876
     0.0556635 ]]

  [[-0.1222329  -0.11285545 -0.04361985 ... -0.15058407 -0.00259601
     0.02588413]
   [ 0.02054235  0.2268269   0.0620189  ... -0.19006963 -0.09289274
     0.0791521 ]
   [ 0.06585155 -0.11778788 -0.15429148 ... -0.08734925 -0.01997465
     0.01898352]]]


 [[[-0.10262268  0.01217048 -0.08041573 ...  0.13316914  0.02696506
    -0.17701337]
   [-0.08629333  0.10884257  0.01096568 ...  0.15050842  0.00425872
    -0.10683894]
   [ 0.10092092 -0.15431306 -0.08983802 ...  0.08014207  0.125797
     0.02314747]]

  [[-0.02370942 -0.10401318 -0.16601308 ...  0.01260002  0.07535211
    -0.18120565]
   [-0.02679709  0.11519229 -0.04260111 ... -0.05121703  0.12551281
     0.01399812]
   [ 0.10333598 -0.07028221 -0.28908607 ... -0.03806226  0.02601682
    -0.04410733]]

  [[-0.15344869 -0.04333816 -0.06862157 ... -0.12137058 -0.15680532
    -0.01961878]
   [-0.05028589  0.17945443  0.11018317 ... -0.13772175 -0.14538948
     0.10903267]
   [ 0.03088547 -0.13542847 -0.12890315 ... -0.11431362 -0.19119185
     0.09681195]]]]
alex_net8_2/conv2d_5/bias:0
(96,)
[-1.26879299e-02 -1.06767036e-01 -4.98896167e-02 -1.39034435e-01
 -1.86206140e-02 -1.17708459e-01  1.08293533e-01  1.13866311e-02
  2.30746381e-02  1.78067703e-02  1.08967043e-01 -2.84006633e-02
 -4.30033468e-02 -2.02944443e-01  8.26615170e-02 -4.30648364e-02
 -1.17509617e-02  2.39694361e-02  8.25625509e-02  1.30715325e-01
 -1.06017226e-02  3.64165567e-02  1.68822546e-04 -4.36943956e-02
  9.41040963e-02  1.15114428e-01  2.34327335e-02  3.89292277e-02
 -8.97393823e-02 -9.36580449e-03  9.05050263e-02 -6.59460714e-03
 -1.01979263e-01  3.80409369e-03 -5.23479059e-02 -4.93424386e-02
 -5.76170199e-02 -2.02974584e-02 -3.25964130e-02  9.04405490e-02
  5.59491441e-02  3.00538428e-02  2.82704271e-02  5.17530972e-03
 -3.41649689e-02  6.36245087e-02 -7.97322989e-02  7.05222017e-04
 -2.23951717e-03 -1.44273236e-01 -3.98480594e-02  6.36521205e-02
 -6.03780430e-03 -4.45021093e-02 -3.91325764e-02  7.70943146e-03
  5.54655725e-03  8.83317888e-02 -2.10602004e-02 -2.17521954e-02
 -5.07577173e-02  8.21510553e-02 -3.17458026e-02  1.73908904e-01
  6.90441504e-02  1.46645457e-01  8.59625638e-02 -8.35424662e-02
 -1.51190003e-02 -3.13654765e-02  3.46219204e-02  1.20513672e-02
 -3.67649347e-02 -6.31947368e-02  4.66861352e-02  4.25934903e-02
 -5.58343902e-03  4.78801085e-03  2.53704693e-02  5.04987538e-02
 -6.77538291e-03 -1.10432550e-01 -2.66809631e-02 -8.13869536e-02
 -3.79909240e-02  7.38377124e-02  4.37665321e-02 -3.73604223e-02
 -1.09080272e-02  8.66613090e-02  2.25678533e-02 -6.35055602e-02
 -4.97880168e-02  1.31302029e-01 -1.42329961e-01 -4.94980998e-02]
alex_net8_2/batch_normalization_1/gamma:0
(96,)
[0.79293543 1.3224006  0.8344775  1.1746358  0.90440935 0.92429185
 0.93586546 1.0719928  0.9067456  0.8240409  0.684084   0.80116004
 1.069608   1.026811   0.8429067  1.2875289  0.6568481  0.83499897
 0.9316237  0.8143909  0.7781296  0.9838535  0.78148514 0.7611318
 1.3383087  0.7990107  1.0888492  1.1085155  0.9051157  0.7949133
 0.97164315 0.8923748  0.83495355 0.7498437  0.7974573  0.9331194
 0.8590324  0.87105817 0.7673602  1.1788174  1.0746589  0.95164365
 0.6512313  0.7776787  0.7423678  0.6240061  1.1218642  0.8120674
 1.0593414  0.8352864  0.8205023  0.9018701  0.7436795  0.78057045
 0.98134595 0.74932903 0.7669484  0.79866695 0.89529943 1.0143479
 1.3091456  0.79967755 0.7674289  0.8513014  1.0500435  1.1856414
 0.8598427  1.4640484  0.813578   0.819326   0.7962947  1.0793618
 1.1944607  0.83810157 0.97152156 0.85967314 0.9870807  1.1961353
 1.183285   1.0730867  0.98960656 0.9061555  0.9111089  0.91298056
 0.85817707 0.6646374  0.77699465 0.9838617  1.0299169  0.84553695
 1.213454   0.9361628  0.68079907 1.0651846  1.1443467  0.8310925 ]
alex_net8_2/batch_normalization_1/beta:0
(96,)
[-0.04642788  0.10273945 -0.28315586  0.01318081 -0.08522826 -0.02203016
 -0.03553198  0.08881762 -0.05745659 -0.18985878 -0.45555276 -0.2827678
  0.04338712 -0.15035145  0.05248837 -0.31664923 -0.34969598 -0.28723678
 -0.43751836 -0.34035066 -0.3141044  -0.08389575 -0.3992517  -0.19702508
  0.26754332 -0.3514259   0.04105775  0.0008542  -0.18905415 -0.16499953
  0.1093446  -0.04899696 -0.22349039 -0.0277954  -0.16232394 -0.34657562
 -0.350894   -0.02659294 -0.18829912 -0.20808466  0.26096937 -0.2320131
 -0.41994932 -0.134491   -0.13519275  0.13249601 -0.39325875 -0.44223276
  0.05125309 -0.3529482  -0.3722123  -0.10449655 -0.21597916 -0.27412766
  0.02266212 -0.24981536 -0.10012506 -0.2506762  -0.35485196 -0.29475862
  0.20105365 -0.2692061  -0.46859095 -0.471452   -0.03202271  0.09440589
 -0.28756502  0.14891265 -0.26098737 -0.3370447  -0.40619484  0.06487292
  0.08362259 -0.3112192  -0.06204475 -0.2308061  -0.04219821 -0.00538546
 -0.28832573  0.1114478   0.08751609 -0.08904341  0.10260987 -0.03265804
 -0.39416853 -0.5062862  -0.119173   -0.36384723 -0.10191346  0.03493993
 -0.2140665  -0.09577165 -0.48285198 -0.10212055  0.16405025 -0.11188859]
alex_net8_2/conv2d_6/kernel:0
(3, 3, 96, 256)
[[[[-2.54774070e-03  1.28745344e-02  4.08983454e-02 ...  2.49672141e-02
    -4.20746841e-02 -4.66326065e-02]
   [-1.05467334e-01 -1.63993597e-01  3.19211297e-02 ...  1.40699193e-01
    -1.63416043e-02  4.28968994e-03]
   [-5.47845922e-02 -8.98328125e-02 -3.76195386e-02 ...  3.13502885e-02
     8.16171542e-02  7.09077939e-02]
   ...
   [ 1.33837909e-01  6.05751947e-02  8.18207413e-02 ...  7.66230095e-03
    -5.73012382e-02  1.92169361e-02]
   [ 8.47289860e-02 -8.40226281e-03  3.18005942e-02 ... -2.58248597e-02
    -7.59035423e-02 -1.89880639e-01]
   [-7.36679733e-02  1.69281028e-02  5.29103987e-02 ...  7.53422305e-02
     1.21877913e-03 -8.81162286e-03]]

  [[ 3.12622041e-02  6.41883463e-02  7.92959854e-02 ... -1.61497027e-01
    -1.32410988e-01 -3.18486206e-02]
   [ 4.26475443e-02 -1.40596986e-01  6.30641878e-02 ...  1.54420510e-01
    -1.52805522e-02 -4.25193869e-02]
   [ 2.39161681e-02 -6.56278133e-02 -1.39788672e-01 ...  6.32560179e-02
    -3.19550447e-02 -4.40289862e-02]
   ...
   [ 2.32891124e-02  1.19143695e-01  2.46539637e-02 ...  4.08043452e-02
    -2.39777401e-01 -5.75108491e-02]
   [ 1.12673096e-01 -4.17328104e-02  7.36788362e-02 ...  7.69896731e-02
    -4.83746156e-02 -1.62551701e-01]
   [ 5.74712567e-02  7.27182552e-02 -1.91998761e-02 ... -1.06554843e-01
    -8.63196403e-02 -4.04767096e-02]]

  [[ 6.24257885e-02  1.31033212e-01  2.85013150e-02 ... -8.02304819e-02
    -5.61450310e-02 -5.37942117e-03]
   [ 1.32526249e-01 -7.49139339e-02  5.89972101e-02 ...  1.12199336e-01
     2.67141324e-04 -8.45449418e-02]
   [-1.60148405e-02 -6.87878504e-02 -6.44149706e-02 ...  3.76577228e-02
     4.00303863e-02 -4.53285575e-02]
   ...
   [-1.09251566e-01  3.21734697e-02 -4.83300649e-02 ...  1.21471449e-03
    -1.46834120e-01  1.77434728e-01]
   [-7.65188485e-02 -1.70889441e-02  3.01963314e-02 ...  2.03280613e-01
    -2.20827445e-01 -7.49276131e-02]
   [ 1.08111203e-01  1.08828947e-01 -1.23027782e-03 ... -1.91312104e-01
    -6.06164075e-02 -6.60066381e-02]]]


 [[[-7.63846785e-02 -2.57957056e-02  1.45344948e-03 ...  7.18301833e-02
    -4.55566868e-02  3.69695313e-02]
   [-7.18478486e-02 -4.45437729e-02  6.10050224e-02 ... -4.99361567e-02
     1.15386155e-02  1.61814559e-02]
   [ 2.58788671e-02 -9.08062682e-02  5.23201898e-02 ...  8.51556435e-02
     7.07498044e-02 -6.57207370e-02]
   ...
   [ 9.94517058e-02  5.43038398e-02  2.17501447e-02 ... -4.08349521e-02
     1.62378959e-02 -4.11706083e-02]
   [ 4.50181849e-02 -1.16639517e-01  7.01023266e-02 ... -4.92656082e-02
     1.23717807e-01 -2.09163994e-01]
   [-1.11114264e-01  2.23197844e-02 -1.26029188e-02 ...  1.37723967e-01
    -3.27689201e-02 -1.26140676e-02]]

  [[ 2.63815559e-02 -1.01709822e-02 -8.60442594e-02 ... -4.51820903e-02
    -6.43959492e-02 -3.45797874e-02]
   [ 6.02700748e-02  1.07653560e-02  9.74675938e-02 ... -8.18242226e-03
     3.27025689e-02 -5.04304888e-03]
   [ 4.58464399e-02 -1.25146553e-01  4.44873758e-02 ...  7.16558620e-02
     6.70674816e-03 -9.81064513e-02]
   ...
   [-4.93240543e-03  5.17388135e-02 -8.24194402e-02 ... -4.86633442e-02
    -2.15373844e-01  8.95934552e-03]
   [-7.29135796e-02 -5.13299219e-02 -6.66852742e-02 ...  5.23146540e-02
    -5.22036441e-02 -1.88491240e-01]
   [-2.47140229e-02  1.04184486e-02 -6.20700046e-02 ... -1.66013353e-02
    -6.65176660e-02 -6.06836267e-02]]

  [[ 1.00215171e-02  2.99473461e-02 -9.76262465e-02 ... -6.58762753e-02
    -7.99378380e-02 -3.16380002e-02]
   [ 1.36312619e-01  7.63470680e-02  8.10896531e-02 ...  4.76764794e-03
     5.08290678e-02 -5.68543747e-02]
   [ 1.44903930e-02 -1.15366526e-01  9.48158093e-03 ...  8.78686830e-02
     2.12823451e-02 -8.80885273e-02]
   ...
   [-2.18089342e-01  9.86869559e-02 -1.33897871e-01 ...  4.86019403e-02
    -1.21650539e-01  9.64594334e-02]
   [-1.95845202e-01 -3.58688110e-03 -6.39613047e-02 ...  8.73390362e-02
    -7.36248642e-02 -2.07791567e-01]
   [-3.29750068e-02  4.50597741e-02 -1.03086960e-02 ... -1.53852910e-01
    -8.43365490e-02 -4.65521701e-02]]]


 [[[-1.69256255e-01 -1.18745834e-01 -9.76427123e-02 ...  1.08518638e-01
     1.32069625e-02  1.52681842e-02]
   [ 2.67773662e-02  1.84373315e-02  9.45084319e-02 ... -8.56508166e-02
    -2.85009444e-02  1.38221215e-02]
   [-2.77405517e-04 -1.41907409e-01  1.48312271e-01 ... -8.93973112e-02
     9.57273412e-03 -2.71225888e-02]
   ...
   [ 1.27915487e-01 -6.83193803e-02  2.66253203e-02 ... -5.52502135e-03
     8.81205723e-02 -3.51957418e-02]
   [ 1.23017102e-01 -1.80421621e-02 -4.26805131e-02 ... -2.52901260e-02
     1.30011350e-01 -2.25236371e-01]
   [-2.00814754e-01 -5.60082495e-03 -1.13177896e-01 ...  1.20215878e-01
     1.10098757e-01  3.23486887e-03]]

  [[-1.80683121e-01 -5.82621396e-02 -1.02613553e-01 ...  3.27425473e-03
     5.57369627e-02  3.19392756e-02]
   [ 1.01201922e-01  1.11127228e-01  1.03409015e-01 ... -1.66953817e-01
    -6.92114905e-02  5.26570529e-02]
   [ 1.33219012e-03 -1.24158755e-01  1.15656607e-01 ...  1.85146723e-02
    -5.94840050e-02 -6.23306818e-02]
   ...
   [-1.04970388e-01  1.90084111e-02 -1.44501207e-02 ... -4.72272858e-02
    -1.78024933e-01  4.30583442e-03]
   [ 7.09279329e-02 -1.23991363e-03 -9.09174755e-02 ... -2.07932834e-02
    -2.62535531e-02 -2.32291579e-01]
   [-1.08486429e-01 -3.02766822e-02 -9.28505808e-02 ...  8.82166699e-02
     7.64087364e-02 -2.86377054e-02]]

  [[-1.48810983e-01  3.24865878e-02 -1.53285936e-01 ... -6.66202381e-02
     4.27043904e-03 -1.35319978e-02]
   [ 1.32220581e-01  7.70933926e-02  1.37357324e-01 ... -1.23277172e-01
    -3.09724752e-02 -2.78856065e-02]
   [-2.38881763e-02  6.08350746e-02  1.03863411e-01 ...  3.91763262e-02
    -6.99641556e-02 -2.76389103e-02]
   ...
   [-3.21598202e-01  8.86269361e-02 -1.18441887e-01 ...  2.36678254e-02
    -1.99300453e-01  8.00760239e-02]
   [-5.13142087e-02 -2.62834914e-02 -2.46639550e-02 ...  3.72629277e-02
     2.36165337e-02 -3.17194760e-01]
   [-1.37622759e-01 -3.71640213e-02 -1.11840025e-01 ... -3.97633351e-02
     4.11726385e-02 -1.02406621e-01]]]]
alex_net8_2/conv2d_6/bias:0
(256,)
[-4.04228282e-04  1.01490870e-04 -1.61957229e-04  3.55125288e-04
 -3.15254438e-04  9.96557865e-05  2.64053786e-04  2.09941631e-04
  7.04586564e-05  1.92461768e-03 -2.32432780e-04  6.73537899e-04
  7.42682663e-04 -3.26032605e-04  9.21942992e-05  1.65690042e-04
  5.62268193e-04 -5.26072399e-04 -4.94391541e-04 -3.53319861e-04
 -8.42475347e-05  5.00918890e-04  6.94539456e-04 -3.81878344e-03
 -7.15229718e-04  2.98379513e-04  1.06048922e-03  2.04475364e-04
  5.41475078e-04  1.09587672e-04 -1.01347291e-03 -4.11011242e-05
  6.13374636e-04 -6.20342500e-04 -5.62114757e-04 -1.01046553e-05
  1.94642897e-04  1.32950052e-04 -1.23315107e-03  1.29834900e-03
 -8.99816398e-04  2.45046976e-04  1.17207924e-03 -3.67839908e-04
  2.46651325e-04 -4.41321783e-04 -5.57558495e-04  6.24182576e-04
  6.14886289e-04 -1.63299512e-04  6.04231391e-05  5.29387500e-04
  5.47982287e-04 -1.09562709e-04  6.98966833e-05 -9.63117462e-04
 -1.53527959e-04 -5.73011755e-04 -1.24419515e-04 -2.59115128e-04
 -3.62821913e-04 -1.48240695e-04  7.01016052e-06 -8.53427046e-04
 -1.06283096e-05 -3.78647790e-04  9.22587817e-04  8.88548733e-04
  5.09228092e-04  3.73434508e-04  1.58852036e-03 -1.02437590e-03
 -1.75966672e-03  7.09227636e-04 -1.82614589e-04 -6.80684097e-05
  4.09039494e-04 -1.01049627e-04  2.35159008e-04 -6.19962593e-05
 -3.89094959e-04  1.22055889e-03  7.12146750e-04  5.72478049e-04
 -3.19719460e-04 -4.73649816e-05  6.92195084e-04  9.24848136e-04
  1.61292264e-04  3.54347780e-04  1.99887203e-03 -9.35429009e-04
 -3.63809726e-04  1.65839924e-03 -1.12614303e-03 -9.40299011e-04
  7.73354608e-04 -2.50519719e-04 -6.47581241e-04 -3.17553175e-03
  1.36878458e-03  1.78285380e-04  1.35550159e-03  4.25009115e-04
 -5.23598981e-04  4.49180166e-04  1.43472033e-04 -1.65974023e-03
 -1.71704509e-03 -7.06734543e-04  1.72783772e-03  5.83910849e-04
  1.64494209e-04  6.73606526e-04 -5.38828317e-04 -1.14337774e-03
 -2.14987248e-03  5.76950784e-04  8.68261384e-04  1.57630269e-03
 -5.26752730e-04 -1.06826818e-04  9.11558629e-04  7.36530055e-04
  4.13354865e-04  6.34215467e-05 -9.60442296e-04  1.78778631e-04
 -4.46490245e-04  1.00726218e-04  8.39362328e-04 -3.76555079e-04
  6.58570905e-04 -1.05633354e-03  8.14611092e-04  8.13663937e-04
 -6.92991482e-04  2.94940942e-03 -3.26119392e-04 -6.30647351e-04
 -1.20918325e-03  1.36983371e-03 -2.36610678e-04 -3.29388567e-04
 -2.22315255e-04  1.18646212e-03 -1.11001209e-04  1.26811839e-03
 -6.20270381e-04  3.55248252e-04 -1.09953166e-03  1.56835583e-03
  4.90866776e-04 -2.09928941e-04  1.86630379e-04  9.74465045e-04
  3.89805879e-04  7.85199867e-04 -3.71468224e-04 -2.94394267e-04
 -1.05706288e-03  1.11057749e-03  2.88950832e-04  7.37988623e-04
  1.35108712e-03 -4.98705951e-04 -5.17733570e-04 -1.46432745e-03
 -1.32685134e-04 -4.14982151e-06  5.38424414e-04 -2.50183570e-04
 -2.07897378e-04  7.16800714e-05  2.09834077e-04  5.26237884e-04
  9.63867860e-05  9.20860257e-05 -7.90817779e-04  1.30557583e-03
 -2.67937576e-04 -5.10687358e-04 -2.89895164e-04  8.77349303e-05
 -1.73875398e-03 -4.70325397e-03 -3.34816752e-04 -5.57574094e-04
 -2.69128155e-04 -1.86358491e-04  1.75656591e-04 -8.85982226e-05
  3.95193609e-04 -5.21826150e-04  1.10116461e-03  6.76079362e-04
  1.19398546e-03 -2.11496939e-04  2.13082239e-04 -1.65872261e-04
  9.06752830e-04 -6.35520322e-04  6.40924030e-04 -5.23952258e-05
  2.18426358e-04  2.07780176e-04 -1.56340608e-03  3.16690683e-04
 -1.29152718e-03  4.93036641e-04  2.07593502e-03 -4.62781521e-04
 -1.48900523e-04 -4.45761361e-05  9.90236178e-04  9.79263219e-04
 -7.79811584e-04  6.15701312e-04 -2.59563909e-04  1.23883958e-03
  1.05648454e-04 -1.59102769e-04 -2.22131828e-04 -7.26512168e-04
 -1.39444508e-03  5.19800560e-05 -1.34047726e-03 -8.34648905e-04
  3.24137131e-04 -5.21879774e-05  1.55969305e-04  6.71199057e-04
  7.42787088e-04  8.94226134e-04 -8.34541745e-04 -4.44809237e-04
  1.02259684e-03 -2.16016124e-05  3.36180601e-05  5.51282021e-04
 -5.46178955e-04 -1.84251100e-03 -4.42213175e-04  3.38463760e-05
 -1.12862012e-03  4.89584811e-04  9.05369961e-05  4.10428293e-05
 -4.96714259e-04  9.16991034e-04  4.15552204e-04  7.98730878e-04
 -5.95225254e-04  9.15691897e-04 -2.05989098e-04  1.60454877e-03]
alex_net8_2/batch_normalization_2/gamma:0
(256,)
[0.78397125 0.59483075 0.7086721  0.8239006  0.66870683 0.6504051
 0.8475328  0.7597529  0.86325496 0.73627293 0.8191299  0.7439717
 0.8147605  0.770299   0.7053885  0.9551825  0.9220476  0.7767087
 0.8403953  0.6718549  0.89366215 0.64703816 0.8122193  1.0580363
 0.63524973 0.8314557  0.8040847  0.77614474 0.8693891  0.62855643
 0.73377717 0.5928601  0.7414328  0.7735716  0.8371538  0.7778356
 0.5849698  0.79840285 0.8021215  0.67223793 0.7953632  0.6986279
 0.70383    0.86404526 0.9216993  0.68875754 0.73899233 0.8343589
 0.7576221  0.7453596  0.78204125 0.75716454 0.68114036 0.59410155
 0.85569906 0.83874494 0.72298396 0.771703   0.7216762  0.6530737
 0.97632307 0.6452552  0.74338704 0.77184695 0.81943643 0.66462404
 0.7941231  0.7225153  0.72828346 0.60636395 0.7913584  0.83107775
 0.80613554 0.70151347 0.67135185 0.56214917 0.82206196 0.81169915
 0.7692351  0.58179814 0.8093278  0.9818147  0.7415398  0.80013835
 0.87380105 0.8431701  0.74336034 0.82579523 0.8727437  0.8819439
 0.9230474  0.9320381  0.7608601  0.7647286  0.85170054 0.9253429
 0.75570124 0.72565883 0.84311074 0.9296051  0.9365453  0.60804844
 0.8448213  0.719769   0.63264394 0.69698924 0.60767597 0.7594956
 0.8834708  0.8527888  0.8381721  0.6865752  0.81193304 0.70612663
 0.85110945 0.70679003 0.8620461  0.7548627  0.69616395 0.9102735
 0.6512707  0.756538   0.70924824 0.72996765 0.9419322  0.66548264
 0.6698031  0.618289   0.69915    0.76000667 0.6820803  0.6406423
 0.68761843 0.8906771  0.6854487  0.88423777 0.6939689  0.8693004
 0.68448824 0.6669284  0.8541148  0.8247409  0.8488537  0.5637507
 0.73413116 0.862691   0.6440509  0.8294606  0.882315   0.69000417
 0.81224936 0.7105629  0.79835606 0.58680177 0.82314473 0.9013721
 0.86768615 0.6974724  0.71433324 0.75135916 0.80137527 0.7876563
 0.74290586 0.768208   0.78877753 0.8471822  0.8140644  0.79249436
 0.76580644 0.6620686  0.8213222  0.7211438  0.7174445  0.6416438
 0.55204856 0.8001565  0.6957534  0.7098999  0.80111235 0.8012198
 0.5226834  0.8161299  0.83624816 0.651137   0.7602214  0.83743
 0.6635128  0.7292301  0.9499426  0.7893637  0.6043375  0.6635439
 0.7074822  0.7663116  0.8525173  0.52954054 0.7615888  0.7466849
 0.72762084 0.70081353 0.77111095 0.6782765  0.7580162  0.8383243
 0.71299636 0.85463303 0.9034213  0.7301194  0.87294245 0.65937436
 0.8638093  0.6573636  0.8044909  0.85363555 0.8150916  0.83934397
 0.80350995 0.8139889  0.8485983  0.7622999  0.5354127  0.62166584
 0.6045627  0.83610386 0.84714776 0.9171013  0.8591311  0.687857
 0.76325214 0.8067251  0.640403   0.78258467 0.7100513  0.957649
 0.89193577 0.7833871  0.86490077 0.6903297  0.9137111  0.7095718
 0.75949144 0.8793352  0.6135648  0.7407702  0.78877956 0.723967
 0.87320745 0.7294936  0.8614058  0.78524894 0.61776805 0.6249718
 0.8184912  0.8291676  0.6535972  1.0818665 ]
alex_net8_2/batch_normalization_2/beta:0
(256,)
[-0.3128244  -0.4119285  -0.45527613 -0.35398567 -0.4968317  -0.40982258
 -0.48163214 -0.28404927 -0.3583575  -0.3762643  -0.31673354 -0.2459287
 -0.26544327 -0.35519683 -0.3235909  -0.27675015 -0.43329212 -0.27236786
 -0.3930773  -0.44862413 -0.29214412 -0.3711706  -0.43789303 -0.19753464
 -0.40227562 -0.42935658 -0.32361293 -0.23164722 -0.35987893 -0.25050625
 -0.11364863 -0.37167674 -0.23814148 -0.38693503 -0.19880654 -0.22729748
 -0.3483367  -0.34435147 -0.10918809 -0.3976777  -0.25409403 -0.28262436
 -0.27158582 -0.42811102 -0.14380921 -0.45604455 -0.3795697  -0.3282336
 -0.41649473 -0.15996721 -0.23529418 -0.23319636 -0.46408767 -0.3586727
 -0.20684609 -0.16486864 -0.4324228  -0.4208343  -0.34717873 -0.37102985
 -0.21618186 -0.436538   -0.35467592 -0.23257169 -0.47152352 -0.39690572
 -0.52623695 -0.4283389  -0.17791504 -0.3880308  -0.26481333 -0.2742161
 -0.21747887 -0.33983707 -0.2752402  -0.50325006 -0.33559334 -0.37703955
 -0.42618296 -0.4174755  -0.22695677 -0.28203216 -0.33942345 -0.41777188
 -0.34849516 -0.24960041 -0.16272335 -0.32366368 -0.30821112 -0.35046747
 -0.30800846 -0.26305288 -0.25544673 -0.36508223 -0.3688806  -0.26999748
 -0.21107745 -0.37870422 -0.37406188 -0.29523245 -0.32574525 -0.47703615
 -0.4031981  -0.41731733 -0.2509147  -0.34901488 -0.43240118 -0.43210322
 -0.15638335 -0.35126665 -0.37191114 -0.41367295 -0.4056714  -0.5145417
 -0.2928096  -0.34216076 -0.23576832 -0.52078336 -0.4680206  -0.28508747
 -0.4578077  -0.14784394 -0.29794663 -0.4590429  -0.22008798 -0.37772685
 -0.46678436 -0.38509795 -0.48855206 -0.0963214  -0.43043858 -0.3806515
 -0.35749373 -0.2923955  -0.45390162 -0.25115883 -0.35363024 -0.22591546
 -0.47112572 -0.38626    -0.30266604 -0.3058737  -0.18889505 -0.44927502
 -0.40732232 -0.3528865  -0.4344932  -0.25425357 -0.32188174 -0.3373359
 -0.43939424 -0.19372411 -0.260646   -0.5075414  -0.24472614 -0.19387314
 -0.3279799  -0.39071542 -0.2632405  -0.2555807  -0.41091245 -0.3596194
 -0.34811285 -0.34213924 -0.41982028 -0.22416326 -0.42312667 -0.17936513
 -0.17121747 -0.3461549  -0.41507688 -0.29356968 -0.20183668 -0.32546535
 -0.48101026 -0.15573682 -0.30473697 -0.37784594 -0.10518918 -0.44250265
 -0.38747707 -0.3734743  -0.27826792 -0.2507703  -0.2018237  -0.21187456
 -0.36921123 -0.22279808 -0.16551444 -0.26562366 -0.32754156 -0.4447639
 -0.43843752 -0.16635707 -0.27499357 -0.36377    -0.41004246 -0.32722226
 -0.31122094 -0.1928857  -0.25256556 -0.34661862 -0.18004659 -0.34773564
 -0.42660856 -0.3013893  -0.22267707 -0.3939112  -0.29580626 -0.31041557
 -0.3199786  -0.33584216 -0.31200203 -0.3163921  -0.15793224 -0.27610728
 -0.41724578 -0.4778113  -0.39110452 -0.2751991  -0.42864028 -0.45224726
 -0.50600475 -0.30945632 -0.34258    -0.35912943 -0.3360597  -0.3767407
 -0.1832001  -0.38911447 -0.47410685 -0.38283694 -0.41718495 -0.19293799
 -0.23219916 -0.26969975 -0.42195782 -0.3951691  -0.28908667 -0.43117946
 -0.47589543 -0.28448114 -0.43920484 -0.28515732 -0.30800885 -0.38634026
 -0.13696152 -0.42148128 -0.20735061 -0.20644411 -0.38235512 -0.40414637
 -0.3079388  -0.25741997 -0.50954235 -0.28141746]
alex_net8_2/conv2d_7/kernel:0
(3, 3, 256, 384)
[[[[-0.0180787   0.00094874 -0.00212874 ... -0.0055297   0.01954814
    -0.0110581 ]
   [-0.00108654  0.02202769 -0.00707955 ... -0.03056673 -0.0099383
    -0.033056  ]
   [ 0.02035304 -0.00615082  0.02102875 ... -0.02885844 -0.03279397
     0.00284061]
   ...
   [-0.00142513  0.01735426  0.00780971 ... -0.02947097  0.01391976
    -0.01151273]
   [-0.01514538 -0.00740312 -0.01750708 ... -0.0265333  -0.02252234
    -0.03120447]
   [-0.01150671 -0.02946119 -0.0055945  ... -0.01105108  0.0118617
    -0.04508008]]

  [[-0.02074274  0.00600999  0.02233365 ... -0.01073951  0.01601577
    -0.0278347 ]
   [-0.03631771 -0.02601096  0.02548395 ...  0.01368005 -0.02707981
    -0.04311492]
   [ 0.00081024  0.00058072 -0.02694844 ...  0.01129317 -0.03186802
    -0.00198948]
   ...
   [-0.01103083 -0.02539946 -0.0126999  ...  0.00964503  0.02160701
    -0.02752518]
   [-0.02211137  0.01034557 -0.03522179 ... -0.00819672  0.00346431
     0.00511013]
   [-0.0145033  -0.02742951 -0.00890655 ... -0.0307869   0.02674153
     0.02125535]]

  [[ 0.00632494 -0.00137525 -0.01035966 ... -0.01309472  0.00682162
    -0.00406754]
   [-0.05092493  0.02763691 -0.03647601 ...  0.0247469  -0.01815727
     0.01370191]
   [-0.02287501 -0.00375358  0.02226571 ... -0.0101784  -0.02636015
    -0.00112326]
   ...
   [ 0.03425115 -0.02021172  0.01048226 ... -0.01876634  0.02665657
    -0.01550366]
   [-0.05564336 -0.00978871  0.01370364 ...  0.01309907  0.00352881
    -0.01265804]
   [-0.00409032 -0.01378192 -0.0154186  ... -0.00951329 -0.02644373
     0.03579546]]]


 [[[ 0.02406133 -0.01735115 -0.00326042 ... -0.03654563 -0.00729707
    -0.0443327 ]
   [-0.01034671 -0.02298453  0.01412279 ...  0.02167818 -0.00381497
    -0.04408742]
   [-0.00905916 -0.00103932  0.02062837 ...  0.0142622   0.01913423
    -0.02063868]
   ...
   [ 0.01197222 -0.01101967 -0.03726409 ...  0.02436931  0.00621764
    -0.04870956]
   [-0.01266282 -0.01090572  0.01958187 ... -0.03542127 -0.02115153
     0.00139579]
   [-0.01440121  0.02419593  0.02422982 ...  0.0116      0.00588993
    -0.00839877]]

  [[ 0.00237494  0.00353486 -0.0079028  ... -0.01726745 -0.00400733
    -0.04848389]
   [-0.00224107  0.01240816  0.0040651  ... -0.03618933  0.01666074
    -0.06140156]
   [-0.02576869 -0.03226202 -0.03298297 ... -0.00534191 -0.00591139
    -0.03654888]
   ...
   [ 0.00598372 -0.01995916 -0.0001833  ...  0.01289528  0.02644469
    -0.0746639 ]
   [ 0.00788257 -0.03110476 -0.00785843 ... -0.00773509 -0.02581479
    -0.01292618]
   [-0.03249963  0.02122666 -0.03412041 ...  0.01781788 -0.02059006
    -0.03187227]]

  [[-0.01795566 -0.03449263  0.00735843 ...  0.02583584  0.01244439
     0.01219507]
   [-0.02310383 -0.00405628  0.00296156 ... -0.01606191 -0.01787832
    -0.0138148 ]
   [-0.03513477 -0.0312577  -0.03383614 ... -0.01522471 -0.03808187
    -0.04676819]
   ...
   [ 0.00717215 -0.03622307 -0.02088439 ...  0.00361261 -0.02016642
    -0.05143326]
   [-0.0021311  -0.02375041 -0.00069365 ...  0.00806409 -0.02705456
    -0.03306749]
   [-0.01543846 -0.00759013 -0.03111368 ...  0.01778636 -0.03779747
    -0.04007383]]]


 [[[ 0.00482998 -0.02798591 -0.00082542 ... -0.03809301 -0.0032448
    -0.02914457]
   [-0.01566494 -0.01453219  0.01871364 ... -0.01590179  0.00695711
    -0.02203349]
   [-0.01546677 -0.0154801   0.00531259 ...  0.00294896 -0.01663828
    -0.02550479]
   ...
   [-0.03492217  0.00848753 -0.02005806 ...  0.00191488  0.02239775
     0.01891211]
   [-0.03756071 -0.00860406 -0.01366129 ... -0.02196817 -0.03478856
    -0.00885149]
   [-0.01074746 -0.01168958  0.01106801 ... -0.03143993 -0.02465189
    -0.00065872]]

  [[ 0.01952287  0.01339284 -0.00151553 ...  0.01954917  0.01785328
    -0.02734875]
   [-0.02315166  0.00124915  0.02091609 ... -0.01156795  0.00965032
     0.01190605]
   [-0.01984755 -0.0290318   0.00533574 ... -0.02737436 -0.00168994
    -0.03185803]
   ...
   [ 0.00933504  0.02486677 -0.02027072 ... -0.02962482 -0.01964095
    -0.04455674]
   [-0.03565937  0.00144099 -0.00897436 ...  0.00075161 -0.01849904
    -0.03681207]
   [-0.04827368 -0.0223088  -0.03814434 ... -0.0171368   0.02396146
    -0.01776102]]

  [[-0.03412909  0.00039108  0.00914522 ...  0.01575365  0.00180796
    -0.02893987]
   [-0.01300913 -0.02527921  0.0158578  ...  0.01058927  0.00747643
     0.0128497 ]
   [-0.02971939  0.0066166  -0.01327014 ...  0.02084989 -0.00575963
     0.01363065]
   ...
   [-0.04544719  0.01556796  0.00561359 ...  0.0200053  -0.0147654
    -0.03534602]
   [-0.00304644  0.00223546  0.01576136 ...  0.02472514  0.01152892
    -0.02764022]
   [-0.03058278  0.01630511  0.01501333 ...  0.00103873  0.00102994
    -0.00557114]]]]
alex_net8_2/conv2d_7/bias:0
(384,)
[-0.00829586 -0.00351708 -0.00562057 -0.00466094 -0.00596232 -0.02170492
 -0.00308725 -0.00244997 -0.00604833 -0.0067303  -0.04298531 -0.00743139
 -0.0046834  -0.00665309 -0.05442983 -0.00839161 -0.00452303 -0.00793818
 -0.02014359 -0.00668584 -0.01779652 -0.00470082 -0.00480699 -0.00717098
 -0.00732444 -0.0047383  -0.03020256 -0.00792445 -0.00599002 -0.01109111
 -0.008491   -0.00813294 -0.00941512 -0.00352278 -0.0205194  -0.00885901
 -0.00636323 -0.00365512 -0.00581703 -0.0079515  -0.00846115 -0.00795127
 -0.00628181 -0.00814086 -0.00486012 -0.04405487 -0.00444196 -0.00747601
 -0.00358791 -0.00725483 -0.00386848 -0.00670381 -0.00493486 -0.01086847
 -0.0046108  -0.00651949 -0.00458803 -0.00435862 -0.00880431 -0.00719273
 -0.0316656  -0.00418534 -0.00428588 -0.00653437 -0.0081751  -0.00704976
 -0.00686229 -0.00668033 -0.03229665 -0.00413926 -0.01254226 -0.00979952
 -0.00438749 -0.00442233 -0.01755396 -0.01775544 -0.00634933 -0.00831633
 -0.00598432 -0.00476811 -0.00487925 -0.0083113  -0.00496036 -0.00385165
 -0.01035279 -0.00756973 -0.00490998 -0.0078408  -0.00375375 -0.00458426
 -0.00868242 -0.03767562 -0.0065861  -0.00613257 -0.00917871 -0.00619045
 -0.01064552 -0.01135669 -0.03238892 -0.00640119 -0.00751956 -0.00250921
 -0.01235915 -0.00799972 -0.00607955 -0.00621004 -0.00777938 -0.00524796
 -0.00490043 -0.00936369 -0.00776089 -0.00600392 -0.00388368 -0.02673201
 -0.03941623 -0.00760207 -0.00398284 -0.00491725 -0.00409603 -0.01150277
 -0.00534876 -0.00880151 -0.00600258 -0.00742144 -0.01017013 -0.02495027
 -0.01742944 -0.0083747  -0.00606804 -0.00495391 -0.00611437 -0.00927519
 -0.01370228 -0.01907089 -0.03599389 -0.00447029 -0.00577578 -0.00973031
 -0.00695855 -0.00791999 -0.00729935 -0.01616501 -0.0078541  -0.00815272
 -0.00752445 -0.00637298 -0.00689362 -0.00599244 -0.0050627  -0.0382121
 -0.00749642 -0.00911611 -0.03417977 -0.0094402  -0.00445598 -0.0046237
 -0.00408835 -0.04541747 -0.00802828 -0.00473827 -0.00798615 -0.03476193
 -0.00425408 -0.00449782 -0.00570572 -0.00421484 -0.00481414 -0.00447959
 -0.00813264 -0.00979528 -0.00820067 -0.02214249 -0.00699899 -0.00409424
 -0.00594801 -0.00751889 -0.0116426  -0.01097688 -0.00618344 -0.00457371
 -0.00900356 -0.0083178  -0.00995261 -0.00740639 -0.00482071 -0.00726482
 -0.00547782 -0.00330277 -0.04923577 -0.00736047  0.02602188 -0.00700649
 -0.00796983 -0.00460271 -0.00778049  0.08345877 -0.00879422 -0.01007551
 -0.00678796 -0.00475999 -0.02533215 -0.0055992  -0.00858598  0.07836044
 -0.03999403 -0.00997982 -0.00621352 -0.00789696 -0.00600252 -0.00636195
 -0.0056913  -0.00914755 -0.00622757 -0.01451105 -0.00420237 -0.00588359
 -0.00446344 -0.01617602 -0.006613   -0.01049011 -0.00790294 -0.00601074
 -0.00464759 -0.0065801  -0.01689081 -0.00349249 -0.00626507 -0.00662145
 -0.01065839  0.17547031 -0.01075634 -0.01101497 -0.0041579  -0.00874465
 -0.02830976 -0.00423657 -0.00603463 -0.01574677 -0.00695556 -0.00465684
 -0.01716991 -0.00515737 -0.00435405 -0.00686095 -0.00451212 -0.00783814
 -0.00518437 -0.00412665 -0.01355229 -0.00691268 -0.00754254 -0.00438806
 -0.00769223 -0.00415815 -0.00667292 -0.02698765 -0.00384852 -0.00746095
 -0.00411982 -0.00748825 -0.03526122 -0.0060018  -0.01616908 -0.00701917
 -0.01119925 -0.01637218 -0.00911787 -0.00594296 -0.00650767 -0.00599461
 -0.00521477 -0.00427607 -0.00832242 -0.01316259 -0.00518789 -0.00620676
 -0.00652038 -0.03184278 -0.00525986 -0.00751827 -0.00797744 -0.00488639
 -0.01072171 -0.00491758 -0.00859073 -0.00763658 -0.00658309 -0.0061611
 -0.00401299 -0.00494732 -0.00697167 -0.01409892 -0.00773777 -0.00625355
 -0.00711505 -0.0091762  -0.00341906 -0.00647064 -0.00669758 -0.00663592
 -0.01839693 -0.00381831 -0.00899322 -0.00404186  0.15251559 -0.00067159
 -0.00697269 -0.00551088 -0.00763091 -0.00644757 -0.0042163  -0.00895831
 -0.00712219 -0.00587936  0.03004488 -0.00790359 -0.02243737 -0.00582351
 -0.0037045  -0.00628967 -0.00389909 -0.00507279 -0.02724632 -0.00456481
 -0.00685718 -0.01112469 -0.00356335 -0.00295348 -0.01072753 -0.00670024
  0.05945886 -0.00761641 -0.00712125 -0.02762264 -0.00834723 -0.00861406
 -0.0076027  -0.00407488 -0.00641849  0.0524193  -0.0065298  -0.00467371
 -0.00432508 -0.00592416 -0.00791625 -0.00629425 -0.00765636 -0.00796681
 -0.00843881 -0.00865911 -0.01234112 -0.02819583 -0.00933876 -0.00603473
 -0.02508907 -0.02566474 -0.00632634 -0.00599919 -0.00522016 -0.00447477
 -0.02311551 -0.02083817 -0.00405796 -0.0066513  -0.00850977 -0.01144902
 -0.00426827 -0.03343633 -0.04389048 -0.00444154 -0.00659714 -0.00425711
 -0.00908423 -0.00780512 -0.00597056 -0.00727226 -0.00340543 -0.00885357
 -0.02151479 -0.00604568 -0.00574036 -0.00562502 -0.00556543 -0.02995609]
alex_net8_2/conv2d_8/kernel:0
(3, 3, 384, 384)
[[[[ 9.72171489e-04 -3.12512927e-02  7.22963689e-03 ... -7.16351066e-03
    -1.07706077e-02 -1.49417548e-02]
   [ 5.40422741e-03 -7.66392006e-03 -1.41643994e-02 ...  6.60539465e-03
     3.05562769e-03  2.12570652e-02]
   [ 3.46528664e-02  2.28519216e-02  1.48666848e-03 ...  1.50920870e-02
    -4.43751644e-03 -4.96528065e-03]
   ...
   [ 2.63338741e-02 -6.32359413e-03  1.10120699e-02 ...  3.36838304e-03
     5.58160199e-03  2.21349671e-02]
   [ 4.70189960e-04 -1.30896177e-02  1.87591871e-03 ... -7.49354111e-03
     1.48606375e-02  9.17489268e-03]
   [-5.13428170e-03 -3.32582630e-02  1.77541059e-02 ... -5.06031187e-03
     3.44735407e-03  2.69032754e-02]]

  [[ 1.34988371e-02 -3.40255350e-02 -5.81652578e-03 ... -1.04201213e-02
    -3.05354353e-02  1.21124312e-02]
   [-1.75859611e-02 -8.53702612e-03  2.06579734e-02 ... -2.80712191e-02
    -3.05104535e-02 -1.39251379e-02]
   [ 1.42368991e-02 -3.01665179e-02 -1.64607894e-02 ... -1.33154560e-02
    -7.38739269e-03  3.55619332e-03]
   ...
   [-1.14869396e-03  2.17011515e-02 -1.73490178e-02 ... -2.22569965e-02
    -9.94320493e-03 -1.74285490e-02]
   [ 2.19267383e-02  1.06401453e-02 -3.34374085e-02 ...  1.59211494e-02
    -4.97413287e-03 -1.93977952e-02]
   [-1.83573123e-02 -3.50468047e-02  5.25935739e-03 ...  1.01067768e-02
    -1.06128762e-02  2.41027735e-02]]

  [[ 2.24879552e-02  5.32980682e-03 -2.90744891e-03 ...  1.15144253e-02
     2.24802811e-02 -2.99776532e-03]
   [ 9.49143711e-03 -1.67165585e-02  4.61142650e-03 ...  2.31568143e-02
    -2.02635713e-02  2.33270470e-02]
   [-2.06923317e-02 -3.35458107e-02  2.45102569e-02 ...  2.84523387e-02
     8.13180394e-03 -2.39435900e-02]
   ...
   [ 2.06345357e-02 -1.54534057e-02  1.57893505e-02 ... -3.63706215e-03
    -2.16373224e-02  5.65854600e-03]
   [-3.40877585e-02 -4.68908111e-03  1.52172253e-03 ...  2.29874011e-02
    -2.57793516e-02 -1.82677396e-02]
   [ 1.38228722e-02  3.74779501e-03  1.46297542e-02 ...  1.47206476e-02
    -5.30977128e-03 -9.88121890e-03]]]


 [[[-1.51302777e-02  3.17235221e-03 -4.41374592e-02 ... -1.53690856e-02
     1.10904891e-02 -3.48631828e-03]
   [ 2.18843762e-02  1.91087574e-02  5.03015239e-04 ...  7.87563343e-03
    -1.19173704e-02  1.32356742e-02]
   [ 2.30584294e-02 -1.97808314e-02  3.09357457e-02 ... -2.03106254e-02
     4.56241076e-04  1.52474884e-02]
   ...
   [-2.94838529e-02  1.59922130e-02  1.91662461e-02 ...  2.50562131e-02
    -2.53413785e-02 -2.23976374e-02]
   [-2.06360668e-02 -1.98926441e-02 -3.45472172e-02 ... -2.06938777e-02
    -1.36181805e-02 -1.75096281e-02]
   [ 1.16719808e-02  2.09781360e-02  2.19814316e-03 ... -1.16738742e-02
    -2.24239063e-02  4.99318447e-03]]

  [[-3.77651677e-02 -4.32664901e-02  1.68150896e-03 ... -5.69308549e-03
    -1.40778609e-02 -1.79103706e-02]
   [-2.58057155e-02 -1.18242558e-02 -9.40698199e-03 ... -2.40048524e-02
     1.13207558e-02 -2.47129928e-02]
   [ 9.48673987e-04 -1.81339169e-03 -1.83490254e-02 ... -6.75851293e-03
     1.55441603e-02  5.01475157e-03]
   ...
   [ 1.83498152e-02 -2.25817654e-02  1.08517623e-02 ...  4.98055108e-03
    -4.03880375e-03  3.56993228e-02]
   [-2.15253979e-03 -2.95161139e-02 -6.34922041e-03 ... -2.67015528e-02
    -3.04900371e-02  2.46913414e-02]
   [-9.42493032e-04  2.33680177e-02 -1.73369050e-02 ... -1.35188783e-02
     6.79264730e-03  3.51415202e-02]]

  [[-8.33951309e-03  2.68354872e-03 -7.36012449e-03 ... -1.09468270e-02
    -3.03761531e-02 -1.20830610e-02]
   [-3.02222557e-02 -2.14104746e-02 -2.25997530e-02 ... -3.23014371e-02
    -2.77878661e-02  2.01743115e-02]
   [ 1.88280866e-02 -1.75710395e-02 -2.16766782e-02 ...  8.66547227e-03
    -1.15520516e-02  3.17584500e-02]
   ...
   [-3.13257799e-02  3.47626694e-02  2.37165429e-02 ... -5.69898402e-04
     2.56157480e-02  1.61558278e-02]
   [-7.71080097e-03 -1.92577727e-02  2.04770081e-02 ... -1.74578577e-02
     2.43123062e-02 -2.67840773e-02]
   [-2.81051155e-02 -3.06440536e-02 -2.07128040e-02 ... -9.09830909e-03
    -1.65144298e-02  2.57677082e-02]]]


 [[[-1.44797768e-02  1.73811708e-02  2.23628758e-03 ... -1.32444156e-02
     2.31342181e-03 -2.06278916e-02]
   [ 9.69706103e-03  1.41940797e-02  8.98588542e-03 ...  2.63309875e-03
     1.08440062e-02 -1.73923094e-02]
   [ 1.92499198e-02  5.31368703e-03 -3.17886323e-02 ...  1.30884005e-02
     2.81005143e-03 -2.27043871e-02]
   ...
   [ 1.05386903e-03  2.28972677e-02 -2.67979670e-02 ... -1.24945343e-02
    -1.19002890e-02 -1.29700908e-02]
   [ 2.22925059e-02 -4.55671325e-05 -3.23706167e-03 ...  1.91177661e-03
    -2.21491065e-02 -1.47684906e-02]
   [ 1.04678068e-02 -2.61910781e-02 -8.83562677e-03 ...  1.40204979e-02
    -3.14163081e-02  2.46958602e-02]]

  [[ 5.07734669e-03 -3.42135169e-02  5.03450073e-03 ... -2.48958310e-03
    -2.49280501e-02 -2.07484923e-02]
   [-4.90066479e-04  1.76845416e-02 -4.26345970e-04 ... -4.97147162e-03
     1.04687763e-02  2.21614745e-02]
   [-1.48807634e-02 -3.28786448e-02 -2.40957234e-02 ... -5.32957399e-03
    -2.10157782e-02  1.88214276e-02]
   ...
   [ 1.73653420e-02 -2.59493049e-02 -1.36013450e-02 ... -1.93199178e-03
    -1.56580396e-02  2.91761253e-02]
   [-2.58006342e-02 -2.90460214e-02 -1.84487421e-02 ...  1.20660076e-02
    -3.42592783e-03 -3.73707828e-03]
   [ 6.87533291e-03 -3.95244872e-03 -2.44536754e-02 ... -2.33624838e-02
     8.12458713e-03 -6.49587903e-03]]

  [[ 7.61671271e-03 -4.49737869e-02 -4.62114904e-03 ...  3.00822724e-02
    -2.13808771e-02 -3.12841609e-02]
   [ 2.01868429e-03 -2.41897851e-02 -6.23508124e-04 ... -2.40221024e-02
    -5.20188548e-03 -5.79729443e-03]
   [ 2.83408016e-02  1.84917878e-02 -3.24190482e-02 ...  1.46590304e-02
    -1.95949506e-02 -4.27630590e-03]
   ...
   [ 2.36759782e-02 -5.12311608e-03 -1.32379243e-02 ...  1.74188800e-02
    -3.01409606e-02  4.16178908e-03]
   [ 2.46204417e-02 -3.20286974e-02 -1.30222226e-02 ...  1.33130876e-02
    -6.64137350e-03 -2.04264708e-02]
   [ 2.13014167e-02 -1.04309237e-02 -5.04563982e-03 ...  2.23575104e-02
     2.26051733e-02 -9.31557920e-03]]]]
alex_net8_2/conv2d_8/bias:0
(384,)
[-8.57980028e-02 -1.00821599e-01 -1.93376407e-01 -1.32682234e-01
 -9.26531181e-02 -1.41699016e-01 -1.24332353e-01 -1.25506833e-01
  5.15743624e-04  5.40407225e-02 -6.43600374e-02 -9.15197060e-02
 -1.32443354e-01 -8.60708207e-02 -5.85630611e-02 -9.30288434e-02
 -9.56185162e-02 -9.92408693e-02 -2.73012333e-02 -1.58026129e-01
 -9.15585533e-02  5.00438036e-03 -7.53482655e-02 -7.24317059e-02
 -1.58315673e-01 -2.04309881e-01 -8.68273005e-02  6.58725351e-02
 -8.28779340e-02 -1.54310420e-01 -1.46878913e-01 -1.09121196e-01
  6.62008151e-02 -8.22657719e-02 -1.63133502e-01 -2.04021111e-02
  4.35955748e-02 -9.76952389e-02 -1.20454744e-01 -1.37030303e-01
  4.38057967e-02 -6.92339092e-02 -1.66374892e-01 -8.90556425e-02
 -8.39331970e-02 -9.96377543e-02 -5.92248105e-02  5.21526411e-02
  5.84174097e-02 -7.81338438e-02 -1.23358741e-01 -5.44175133e-02
  4.31443341e-02  8.58631656e-02 -1.93738639e-02  1.94435548e-02
 -1.10888653e-01 -7.08904341e-02 -1.09031387e-01 -1.19887702e-01
 -1.04048140e-01 -7.24709630e-02 -1.14592075e-01 -7.43023306e-02
 -1.35833830e-01 -8.94092098e-02 -1.17776178e-01 -1.53368220e-01
 -1.43284410e-01 -1.36525482e-01 -8.50354582e-02 -7.40363523e-02
 -5.86977266e-02 -1.08943418e-01 -3.15159708e-02 -7.84617364e-02
  4.23710309e-02 -1.21315069e-01 -9.63445604e-02 -1.62129909e-01
 -1.80029765e-01 -4.61026328e-03 -1.44908786e-01 -1.12267666e-01
 -1.51357576e-01 -1.50784791e-01 -2.41754502e-01 -1.03827707e-01
 -6.97206929e-02 -1.08879775e-01 -1.24532759e-01 -7.77835101e-02
 -1.31268680e-01 -9.37532634e-02 -1.10605419e-01 -8.88442844e-02
 -1.17851153e-01 -1.18292809e-01 -2.71508042e-02 -7.64269903e-02
 -1.12516753e-01 -1.46565974e-01 -9.68205631e-02 -1.40941322e-01
 -1.55771077e-01 -8.10629353e-02 -1.62331313e-01  5.02743348e-02
 -1.90981209e-01 -9.66733694e-02 -9.46787223e-02  2.35468019e-02
 -7.31364191e-02 -1.86475977e-01 -9.47834477e-02 -1.52810797e-01
 -1.02501638e-01 -1.40089139e-01 -1.76676154e-01  3.86937186e-02
 -3.95875461e-02  7.82258585e-02 -1.86354846e-01 -9.09818485e-02
 -1.64221272e-01 -5.76125868e-02 -9.98840034e-02 -1.19339310e-01
 -3.02671921e-03 -1.10494040e-01 -1.31945372e-01 -9.41340774e-02
 -1.84250027e-01 -9.94229242e-02 -2.49242671e-02  6.97298571e-02
 -1.11071691e-01 -1.26619920e-01 -5.17715476e-02 -1.30465090e-01
 -1.75176755e-01 -4.23654653e-02  4.70167845e-02 -1.17348276e-01
 -4.41269912e-02 -1.62681773e-01 -1.00576036e-01 -6.20481484e-02
 -1.68542400e-01  4.44595553e-02 -6.60312995e-02 -1.84570342e-01
 -1.49913356e-01 -1.51616372e-02 -8.06447119e-02 -6.34611845e-02
 -1.55852899e-01 -1.02367930e-01 -1.04400799e-01 -9.85687301e-02
 -8.31115469e-02 -1.29472777e-01 -8.15766677e-02 -8.28910470e-02
 -1.63787156e-01 -1.03333063e-01 -1.28672794e-01 -1.22119814e-01
 -1.25935733e-01 -1.47117093e-01 -9.59719419e-02  8.03971887e-02
  1.47387803e-01 -6.25869781e-02 -1.03640892e-01 -1.15373999e-01
 -1.21404827e-01 -7.04308301e-02 -1.79926082e-01  5.33931628e-02
 -2.00436525e-02 -3.78339998e-02 -9.36072990e-02 -1.65330037e-01
 -4.93385941e-02 -7.22363144e-02 -4.25318442e-02 -2.45284056e-03
  8.93911645e-02 -1.22555904e-01 -8.63894373e-02 -7.45409355e-02
 -1.39927328e-01 -1.49801180e-01 -1.02830306e-01 -1.06486537e-01
 -1.13654219e-01 -1.37694865e-01 -7.10756257e-02 -1.40631899e-01
 -6.32270277e-02 -1.07244991e-01 -3.68078053e-02 -1.17783606e-01
 -1.22174315e-01 -1.20471194e-01 -3.76021490e-02  6.27150536e-02
 -4.51814495e-02 -1.02720149e-01 -1.53162077e-01 -1.14094324e-01
 -1.21184789e-01 -8.04140121e-02 -1.37786984e-01 -1.02080591e-01
 -1.17384464e-01 -8.85594562e-02 -4.79231589e-02 -8.90170336e-02
 -1.15579575e-01 -1.14075854e-01 -1.53584778e-01 -1.21641308e-01
 -1.12463243e-01 -1.23665787e-01 -8.99117291e-02  1.06223971e-01
 -1.54976070e-01 -6.87230825e-02 -1.23610877e-01 -1.05906889e-01
  1.05887037e-02 -7.19229802e-02  7.04948753e-02 -7.05875754e-02
 -1.24088325e-01 -1.45459935e-01 -1.75471067e-01 -9.22104567e-02
 -7.74168819e-02 -1.29251838e-01 -5.20103350e-02 -7.38143921e-02
 -8.83266926e-02 -1.01771861e-01 -8.37852061e-02 -1.58726946e-01
 -5.14193773e-02 -1.58113003e-01 -1.82478115e-01 -8.08891803e-02
 -8.29139948e-02 -1.31832615e-01  5.32042682e-02 -6.19433746e-02
 -1.02465376e-01 -7.24378377e-02 -8.83142874e-02 -1.44760549e-01
 -1.48772359e-01 -5.90790771e-02 -1.31077871e-01 -9.15474743e-02
 -7.48154707e-03  2.06829500e-04 -5.81345446e-02 -1.14232667e-01
 -7.89568424e-02  4.09780041e-04 -1.67913347e-01 -1.54314503e-01
  1.69318929e-01 -1.04920097e-01 -1.39838248e-01 -1.15751401e-01
 -1.58499777e-01 -1.34672806e-01  1.19350161e-02 -1.85570195e-01
 -6.99016377e-02 -8.44419524e-02 -1.24468595e-01  4.70858160e-03
 -1.22512691e-01 -7.84646645e-02 -1.24536783e-01 -9.31940973e-02
 -1.08587846e-01 -1.59574702e-01 -1.02802701e-01 -6.49227425e-02
 -6.83940649e-02 -6.19937107e-02 -1.05983645e-01 -9.17468965e-02
  1.17562748e-01 -1.99312836e-01 -1.20166220e-01 -1.20840855e-01
 -3.86017859e-02 -1.37880698e-01 -1.51751667e-01 -4.04963084e-02
 -4.22669128e-02 -6.80894107e-02 -9.90911201e-02 -8.70947093e-02
 -3.33303697e-02 -5.45444749e-02 -7.87968710e-02 -4.47802618e-02
 -1.46677703e-01 -9.61241648e-02 -1.72234431e-01 -1.01139724e-01
 -1.22306667e-01 -1.24329142e-01 -9.52590927e-02 -1.51045278e-01
 -1.38338998e-01  2.58897021e-02 -8.82106349e-02 -4.33657654e-02
 -2.08836406e-01 -1.06192738e-01 -1.27768964e-01 -5.07970154e-02
  4.71301898e-02 -1.08664654e-01 -1.50989637e-01 -4.65538353e-02
 -7.93321878e-02 -8.70617256e-02 -1.00874662e-01 -1.00139663e-01
 -1.27388075e-01 -1.55777812e-01 -1.23730250e-01 -9.29661095e-02
 -2.19238073e-01 -1.07160196e-01 -8.34601969e-02 -1.62948936e-01
  8.77480488e-03 -9.62618887e-02 -1.20075636e-01 -6.95458651e-02
 -1.47148311e-01 -5.92050888e-03 -7.63886571e-02  1.10642985e-02
 -1.40499145e-01 -1.19210884e-01 -7.54670054e-02 -2.17522811e-02
 -1.38707623e-01 -1.64242715e-01 -2.12734682e-03  1.93680227e-02
 -1.91773579e-01 -1.28649965e-01 -1.03219047e-01 -8.96855667e-02
 -1.21275187e-01 -8.26654881e-02 -1.24952093e-01 -1.92381650e-01
 -8.19628909e-02 -1.04946807e-01 -6.80908784e-02 -5.10468669e-02
 -8.53032619e-02 -1.12769254e-01 -8.50039497e-02  3.00125983e-02
 -1.62360415e-01  1.67553555e-02 -1.08563378e-01 -1.36499122e-01
 -1.48506701e-01 -7.12877661e-02 -1.50369778e-01 -1.53090701e-01]
alex_net8_2/conv2d_9/kernel:0
(3, 3, 384, 256)
[[[[ 3.84947993e-02  1.00095741e-01  1.19459890e-02 ...  4.53901617e-03
     2.19088029e-02 -4.17052545e-02]
   [-1.42146815e-02 -1.36393057e-02  2.17718687e-02 ...  4.53146808e-02
    -1.79689713e-02 -2.58293953e-02]
   [ 9.17316973e-03 -1.68994609e-02 -1.54815335e-03 ... -7.77188968e-03
     6.76296465e-03 -3.87876667e-02]
   ...
   [-4.51769754e-02 -1.77037939e-02  4.07466851e-03 ... -5.67758344e-02
    -5.50173335e-02 -1.00431805e-02]
   [-4.52746488e-02 -2.19182558e-02 -3.16742286e-02 ...  2.03230791e-02
     1.38988998e-02 -1.69215593e-02]
   [-7.69897318e-03 -1.70998856e-01 -3.60887982e-02 ... -9.11142230e-02
     1.56957600e-02 -5.94760291e-02]]

  [[-2.17184965e-02  3.05237919e-02 -3.57287489e-02 ...  1.19244130e-02
    -2.04719882e-02 -5.39893433e-02]
   [-1.84802935e-02 -3.19700316e-02 -9.10084601e-03 ...  8.07813182e-03
    -1.52365742e-02 -5.28832758e-03]
   [-2.57798791e-04  1.62958771e-01 -3.13798040e-02 ... -5.20679429e-02
    -9.58977342e-02  1.28642200e-02]
   ...
   [ 1.14749046e-02 -2.52060518e-02  1.23168491e-02 ...  4.58027422e-02
     6.98253438e-02 -4.51176846e-03]
   [-1.97710861e-02 -3.74925807e-02 -2.96195727e-02 ... -1.28634798e-03
    -2.93079112e-02  3.03185545e-02]
   [ 5.40651716e-02 -2.33375862e-01  2.44760904e-02 ... -2.05013528e-02
     5.15730418e-02 -1.01507492e-01]]

  [[ 2.20794464e-03  2.57186852e-02  1.51019823e-02 ...  9.92015377e-03
     1.50892036e-02  7.91064638e-04]
   [ 1.28469160e-02 -4.55695391e-03 -2.28671264e-03 ...  1.47962235e-02
    -3.05564944e-02  3.33926082e-02]
   [-1.68075319e-02 -5.05765376e-04 -2.25400943e-02 ...  3.59316058e-02
     1.69411153e-02  9.35816951e-03]
   ...
   [ 3.72194499e-02 -6.82883710e-02  4.67592478e-03 ... -3.03703640e-02
    -3.80928479e-02 -2.82805543e-02]
   [-2.57616434e-02 -1.85610186e-02 -5.78794396e-03 ... -6.97962493e-02
     7.51580438e-03  2.11010128e-02]
   [ 2.91146003e-02 -8.10843632e-02  8.15898366e-03 ... -5.50946370e-02
    -1.66912191e-02 -1.20400168e-01]]]


 [[[ 2.98505705e-02 -9.09067970e-03 -3.79276313e-02 ... -7.30760116e-03
     1.97981000e-02 -4.87831468e-03]
   [ 2.25066431e-02 -1.06508788e-02 -1.30062979e-02 ... -1.19890878e-02
     6.62844721e-03 -2.99359206e-04]
   [ 2.12063920e-02 -7.12044351e-03 -1.04716215e-02 ... -3.39753367e-02
     2.07830290e-03 -7.68689020e-03]
   ...
   [-3.10064126e-02  5.23286872e-02 -2.81673428e-02 ...  8.56211036e-03
    -3.98454815e-02 -1.03309136e-02]
   [-4.13465574e-02  2.42317375e-02  1.26946243e-02 ... -1.67936347e-02
    -1.65256150e-02 -2.56603621e-02]
   [ 2.33203042e-02 -4.86061536e-02 -1.98185723e-02 ... -7.04430137e-03
    -7.84755647e-02 -2.25559492e-02]]

  [[ 1.64575689e-02 -4.31549847e-02  2.24963408e-02 ... -3.68213630e-04
     1.55461747e-02 -4.03540730e-02]
   [-6.28109090e-03  1.22485450e-02 -3.36269569e-03 ... -3.45108332e-03
    -1.59704201e-02  4.84265499e-02]
   [ 6.39829114e-02  1.43348381e-01 -3.56742181e-02 ...  3.47970687e-02
     3.86625044e-02  2.28974633e-02]
   ...
   [ 9.10639297e-03 -2.05785781e-02  2.18020156e-02 ...  2.78976262e-02
    -3.45131829e-02  1.59859657e-02]
   [-3.74430940e-02 -5.87159884e-04  1.98237170e-02 ... -1.02422517e-02
    -1.32392896e-02  6.26541534e-03]
   [-5.01746051e-02 -1.21677481e-02 -2.90023517e-02 ...  6.18927255e-02
    -8.99881795e-02  4.25017960e-02]]

  [[ 8.70379731e-02  2.56521404e-02 -1.74960494e-02 ... -1.07586291e-02
     5.69858123e-03 -1.83675848e-02]
   [-2.98420861e-02  2.30610443e-04  3.76002863e-02 ...  1.06757924e-01
    -1.59637686e-02 -4.43473049e-02]
   [ 2.86954548e-02  8.43767896e-02  6.38535060e-03 ...  1.37418583e-02
     3.28790285e-02  3.29372510e-02]
   ...
   [ 5.33013232e-02  3.59366424e-02 -4.51308079e-02 ... -1.05330218e-02
    -3.11450660e-02 -1.88459537e-03]
   [-3.85951661e-02 -1.91357394e-03  2.26996709e-02 ... -4.00823057e-02
    -3.07093896e-02  1.36712519e-02]
   [-1.48632824e-01  6.51466027e-02  2.40217801e-02 ... -3.37239206e-02
    -7.33592454e-03 -5.84316067e-02]]]


 [[[ 1.82728972e-02  3.16902529e-03 -2.51225922e-02 ... -1.95897445e-02
    -1.15794307e-02 -4.35737371e-02]
   [-3.26102078e-02 -2.52555404e-02 -9.55249649e-03 ... -2.05851942e-02
    -2.98516154e-02  6.61793873e-02]
   [-1.33726625e-02  3.10639269e-03  1.55305872e-02 ...  3.81233506e-02
    -1.10970885e-02 -1.20240510e-01]
   ...
   [-8.44746605e-02 -2.71607582e-02 -3.68474587e-03 ... -1.03245027e-01
     8.69165175e-03  4.79465127e-02]
   [ 2.01357920e-02 -1.32480012e-02  1.92996878e-02 ... -1.90059487e-02
    -3.34285945e-03  1.62174515e-02]
   [ 4.88974042e-02  1.39350528e-02 -1.76275391e-02 ... -2.31191013e-02
    -2.36696564e-02  8.72340426e-03]]

  [[ 1.39024081e-02 -2.40939613e-02 -1.59370694e-02 ... -3.05046681e-02
    -2.34738253e-02 -9.46258381e-03]
   [ 9.41553991e-03  1.19618159e-02 -3.51570398e-02 ... -2.78046206e-02
     1.54998507e-02  1.79856755e-02]
   [ 5.46470052e-04  1.77087992e-01 -2.48056836e-02 ...  8.33472796e-03
     4.29058485e-02 -9.04871337e-03]
   ...
   [-2.66233534e-02  6.69691488e-02  1.33038675e-02 ... -1.12847060e-01
    -5.42836869e-03  6.27610981e-02]
   [-9.87529662e-03 -6.66873483e-03 -1.14953816e-02 ...  2.11359933e-02
     1.70607362e-02  2.94793230e-02]
   [ 5.45028076e-02 -4.05711308e-03  1.56478714e-02 ... -4.74693254e-02
     3.27788442e-02  4.36135195e-02]]

  [[ 2.28617676e-02  1.75945628e-02  6.83210324e-03 ...  2.36462359e-03
     5.89917460e-03 -4.67419997e-02]
   [-1.33989872e-02  1.77599546e-02  9.39073320e-03 ... -2.26002764e-02
    -2.68349182e-02  6.64226711e-02]
   [ 2.59109940e-02  5.65955490e-02 -1.28335916e-02 ... -1.01664523e-02
     9.65865969e-04 -1.75144486e-02]
   ...
   [-2.73551382e-02  4.46994964e-04  1.16209434e-02 ...  3.37638147e-02
    -1.69646908e-02 -6.94107860e-02]
   [-3.09235286e-02 -3.58814113e-02 -5.38291410e-04 ...  9.55750886e-03
    -1.50686642e-03  2.42605899e-02]
   [-3.48133296e-02  1.84601005e-02  2.08373833e-02 ...  2.21748184e-03
     1.98067594e-02  3.24333310e-02]]]]
alex_net8_2/conv2d_9/bias:0
(256,)
[ 0.01656456  0.02125385 -0.05489081  0.04154767 -0.06952778 -0.0593688
 -0.07283704 -0.0657993  -0.12075758 -0.07133491 -0.05363697 -0.12722082
 -0.10020066 -0.11146077 -0.0707221  -0.1528788  -0.09758304 -0.02822655
 -0.03684344 -0.11504564 -0.11087129 -0.10440846 -0.02109503 -0.14991787
 -0.14064647 -0.12052402  0.01768391 -0.11493468 -0.08410296  0.02527593
 -0.06949078 -0.05973738 -0.05627419 -0.07105512 -0.08706225 -0.04688225
 -0.03743545 -0.06586118  0.19915603 -0.07150888 -0.08256683 -0.05914622
 -0.03708237 -0.04495329 -0.10367693 -0.05964588 -0.042063   -0.06415472
 -0.08247486 -0.09211183 -0.03868764 -0.1249448  -0.08731075 -0.04248152
 -0.02370506 -0.0956543  -0.11989989 -0.07372416 -0.08764298 -0.07320566
 -0.1340266  -0.08550647 -0.04583619 -0.03794859 -0.05242045 -0.05667187
 -0.04250716 -0.07821306  0.03966884 -0.04978185  0.02277204 -0.06963902
 -0.07528309 -0.1310063  -0.07232251 -0.06495208 -0.11078175 -0.0834893
 -0.07937373 -0.05919901 -0.06140772 -0.07563412  0.06927234 -0.15150015
 -0.06540016 -0.1051441  -0.02885533 -0.06104365 -0.0554884  -0.07121624
 -0.11488313 -0.06900068  0.11258991 -0.07324584  0.11975449 -0.02475047
 -0.09155878  0.05885131 -0.08894045 -0.14528514 -0.06649848 -0.0574397
 -0.17569292 -0.08934572 -0.06195622 -0.14448489 -0.07368754 -0.05379583
 -0.0935486  -0.09070843 -0.05077046 -0.05752321 -0.10570521 -0.14132088
  0.01360776 -0.14499116 -0.08862013  0.11143117 -0.10500754 -0.07927103
 -0.11324871  0.00579574 -0.09794527  0.16817993 -0.06628742 -0.05554044
 -0.08775945 -0.07921571 -0.07573146 -0.04610231 -0.09330679 -0.12534417
 -0.18672563 -0.13917965 -0.07161127 -0.16437902 -0.04206562 -0.11553461
 -0.04685681  0.07916396 -0.18293728 -0.07010802 -0.05519637 -0.02514216
 -0.04486639  0.09981357 -0.03673483 -0.04444177 -0.05851384 -0.1362434
 -0.08204523 -0.05703706  0.08995833 -0.06945454 -0.08889854 -0.08768586
 -0.05591705 -0.03754385 -0.05943434  0.24959071 -0.11694029 -0.1454915
 -0.05124295 -0.03709892 -0.17224249  0.00821019 -0.07137703 -0.04590073
 -0.11222488 -0.13699631 -0.02960745 -0.13638812 -0.07205363 -0.12265534
 -0.13778004 -0.10363037  0.0507164   0.12119805 -0.07667334 -0.1079141
 -0.07796282  0.00164489 -0.10671695 -0.05956676 -0.07995162 -0.0617133
 -0.01370115 -0.13043463 -0.15025535 -0.14712566 -0.09041611 -0.10141953
 -0.05583492 -0.1168982  -0.11705657 -0.09229294 -0.02194836 -0.05550884
  0.08708155 -0.08648354 -0.04297844 -0.16759314 -0.08816538 -0.05994137
 -0.09323421 -0.05184245 -0.12489048 -0.1470573  -0.06629661 -0.06733789
 -0.11719512 -0.1681913  -0.10441923 -0.01535539  0.06817978 -0.04291085
  0.01151764 -0.06553274 -0.04508213 -0.07999628 -0.1527312  -0.11587356
 -0.05261679 -0.0855842  -0.08156046 -0.04381014 -0.05029514 -0.06224232
  0.08330872 -0.05906053 -0.06155022 -0.04986906 -0.06245467 -0.09210717
 -0.09672298 -0.11779087 -0.03628341 -0.0749388   0.08356737 -0.07563292
 -0.06465675 -0.12183307 -0.12782788 -0.04697834 -0.13592754 -0.07851361
 -0.06721291 -0.11936559 -0.06523146 -0.08822091 -0.08096712 -0.06818356
 -0.08504641  0.12146268 -0.13667518  0.00283204]
alex_net8_2/dense_5/kernel:0
(1024, 2048)
[[ 0.02729987 -0.02710024 -0.00847175 ... -0.01744096 -0.00623074
   0.00794081]
 [-0.0652367   0.00147082  0.11627506 ...  0.03211525  0.01761882
  -0.0189528 ]
 [ 0.00517339  0.02054017 -0.029834   ... -0.02741754 -0.03643869
  -0.01573655]
 ...
 [ 0.09719056 -0.04716932 -0.07873522 ... -0.03600793 -0.07355906
  -0.18097135]
 [-0.12870651 -0.02068    -0.04339109 ...  0.02838797  0.02792387
   0.0486521 ]
 [-0.10532133 -0.0116123  -0.06480733 ... -0.0118546   0.05827743
  -0.02638236]]
alex_net8_2/dense_5/bias:0
(2048,)
[ 0.00387479 -0.03215496 -0.10139494 ... -0.05265717 -0.0372916
 -0.11785381]
alex_net8_2/dense_6/kernel:0
(2048, 2048)
[[ 0.05107042 -0.00558303  0.00088593 ...  0.0332815   0.07388199
  -0.15351781]
 [ 0.0138109  -0.03148665 -0.01327721 ...  0.03863415  0.01338391
   0.03633922]
 [-0.02672303 -0.00656834  0.01253771 ... -0.04097101 -0.07605809
   0.00545122]
 ...
 [-0.0153526   0.01666956 -0.03157796 ... -0.03292842 -0.00653553
   0.02631319]
 [-0.00836492  0.03378568  0.02248956 ... -0.04620241  0.0247004
  -0.06180296]
 [-0.02876267 -0.01741165  0.08289868 ... -0.0429005  -0.0649024
  -0.09633586]]
alex_net8_2/dense_6/bias:0
(2048,)
[ 0.14464097 -0.0452511  -0.04409722 ... -0.05508716  0.03564859
 -0.03992316]
alex_net8_2/dense_7/kernel:0
(2048, 10)
[[-0.16228953 -0.1381802   0.01373851 ...  0.01535316 -0.01831744
  -0.00984617]
 [-0.0004322   0.03156577 -0.01241878 ... -0.03638596 -0.04523912
  -0.03160537]
 [-0.01443182 -0.01962724 -0.04936868 ...  0.02565195 -0.07939277
  -0.05291891]
 ...
 [ 0.02599862  0.02830895 -0.01306319 ... -0.00180403 -0.06338508
   0.02507842]
 [ 0.02611748 -0.06939355 -0.02162893 ... -0.02413389 -0.14240222
  -0.07512754]
 [-0.03087964 -0.06774764  0.0167622  ...  0.05975412 -0.02372969
  -0.00951377]]
alex_net8_2/dense_7/bias:0
(10,)
[-0.03474147 -0.06798892  0.00074022  0.13255008 -0.00448039 -0.06818119
  0.02212084 -0.0292231   0.02699344  0.01940712]
